{"input_len": 1024, "embed_dim": 32, "n_features": 12, "preprocess": {"l_out": 1024, "target_frac": 0.5, "nfft": 512, "energy_edge": 0.005, "noise_floor_scale": 1.44, "smooth": 5}, "pool": "mean_std", "convs": [{"in": 2, "out": 16, "k": 7, "stride": 2, "pad": 3, "weight": [-0.39546921849250793, -0.2930533289909363, -0.1550109088420868, -0.12162179499864578, -0.16105079650878906, -0.08342347294092178, 0.0646803006529808, 0.5563102960586548, -0.10732562094926834, -0.5174024105072021, 0.4482988119125366, -0.4303584396839142, -0.5759510397911072, -0.3141336143016815, -0.3496481478214264, -0.35543695092201233, 0.06130515784025192, -0.30970489978790283, -0.28639736771583557, -0.0320107564330101, -0.22693726420402527, -0.1643953025341034, -0.17330121994018555, -0.47656092047691345, 0.1301107555627823, -0.16069598495960236, -0.3390718102455139, 0.012548990547657013, -0.44421622157096863, 0.2606448531150818, -0.15214243531227112, 0.27476808428764343, 0.26688629388809204, -0.2372826635837555, -0.23260028660297394, -0.32126715779304504, 0.14256027340888977, 0.07869822531938553, -0.2694052457809448, -0.5713011622428894, -0.26906687021255493, -0.4384854733943939, 0.7384940981864929, -0.3818883001804352, -0.17248116433620453, -0.8942393660545349, -0.07031559199094772, -0.02209540829062462, 0.7347749471664429, 0.4481199085712433, -0.6811122298240662, 0.08172931522130966, 0.41018354892730713, 0.6997768878936768, -0.2248104363679886, -0.8376331329345703, 0.026837574318051338, 0.2576681077480316, 0.32078152894973755, 0.39048367738723755, 0.45410847663879395, -0.10910658538341522, 0.25965097546577454, -0.19928418099880219, -0.18749986588954926, -0.0790369063615799, 0.3381633162498474, 0.23314763605594635, -0.16639681160449982, 0.3996649980545044, -0.1799183487892151, 0.025949809700250626, -0.4403096139431, -0.47675633430480957, -0.13115523755550385, 0.254772424697876, -0.46664440631866455, 0.32698920369148254, -0.626825213432312, 0.02709033153951168, 0.38974514603614807, -0.21869485080242157, -0.36222419142723083, -0.43846723437309265, 0.13258574903011322, 0.05138402432203293, 0.0903690755367279, -0.2255554497241974, -0.2493271380662918, -0.3970758020877838, 0.3781432807445526, -0.731644332408905, -0.6815842390060425, -0.5443486571311951, 0.43392589688301086, 0.07547535002231598, 0.23950693011283875, 0.46933454275131226, -0.6209161877632141, -0.4472808539867401, 0.6292840242385864, 0.356670081615448, 0.5119614005088806, 0.640319287776947, -0.33308956027030945, -0.4891665279865265, 0.628806471824646, -0.0973832756280899, -0.2673519253730774, 0.1783471703529358, -0.31190815567970276, -0.45889919996261597, 0.027691345661878586, 0.4778876006603241, -0.43407294154167175, 0.01862475648522377, 0.2681450843811035, 0.5025252103805542, 0.2322036325931549, 0.3567396104335785, 0.2639065086841583, 0.5163513422012329, -0.5057257413864136, 0.2545705735683441, 0.029188742861151695, 0.39745453000068665, -0.04268860071897507, 0.24819709360599518, 0.17736008763313293, -0.023698588833212852, 0.2604823410511017, 0.586484968662262, 0.3197166919708252, -0.05137377977371216, 0.5336867570877075, 0.5307178497314453, -0.4255248010158539, 0.28691989183425903, -0.49988996982574463, -0.042833201587200165, -0.49026304483413696, -0.4052300453186035, 0.23503147065639496, -0.2612511217594147, -0.028507355600595474, -0.11728708446025848, 0.0500025637447834, 0.14032696187496185, 0.014962885528802872, 0.16775189340114594, 0.5027358531951904, -0.27113601565361023, 0.526923656463623, 0.4733893871307373, 0.49526649713516235, -0.5218648910522461, -0.9318509101867676, 0.5028750896453857, 0.8619136214256287, 0.5967463850975037, -1.0395746231079102, -0.2716580629348755, -0.527515709400177, -0.1534164994955063, -0.018269216641783714, 0.5680052042007446, -0.48390308022499084, 0.7602968811988831, 0.15001192688941956, -0.7335447072982788, 0.35009169578552246, 0.6962059140205383, 0.3485886752605438, 0.14712518453598022, -0.033334746956825256, 0.4056665599346161, -0.26254138350486755, 0.05530004948377609, 0.3926118314266205, 0.6141449213027954, -0.25220614671707153, 0.19407354295253754, -0.8380944728851318, -0.4594690799713135, -0.6394117474555969, 0.8565426468849182, -0.5810259580612183, 0.1739378273487091, 0.44029977917671204, -0.7498599290847778, 0.13161778450012207, 0.7255886197090149, -0.5669603943824768, 0.06095559149980545, 0.35486844182014465, -0.5159515142440796, 0.23147991299629211, -0.05685187503695488, -0.03635168448090553, 0.44410139322280884, -0.5472351312637329, 0.30865296721458435, -0.28458282351493835, -0.4214886426925659, 0.4329845607280731, 0.8811706900596619, 0.2860114872455597, 0.7106287479400635, -0.16554227471351624, -0.743526816368103, 0.7917340993881226, -1.037860631942749, 0.823153018951416, 0.8562166690826416, -0.44846490025520325, -0.6191889047622681, -0.04161790758371353, -0.09563768655061722, -0.7308815717697144, 0.036481909453868866, 0.6893866658210754, 0.3698507845401764, 0.5282142758369446, -0.5185924768447876], "bias": [-0.00043320655822753906, 0.004831425845623016, -0.018939288333058357, 0.046195581555366516, -0.016871027648448944, -0.01404610462486744, 0.060224421322345734, -0.04526638239622116, -0.021247517317533493, -0.061484307050704956, -0.0079147107899189, -0.049550119787454605, 0.0416659377515316, -0.005433700978755951, 0.04883047193288803, -0.028715647757053375]}, {"in": 16, "out": 32, "k": 5, "stride": 2, "pad": 2, "weight": [0.17646090686321259, -0.16961129009723663, -0.04522228240966797, -0.19369402527809143, 0.0516548678278923, 0.09919717907905579, -0.17047059535980225, -0.1952521800994873, 0.05120879039168358, 0.11244959384202957, 0.033361054956912994, -0.2480979859828949, -0.05369854345917702, 0.050078824162483215, 0.1589568555355072, 0.09222391247749329, 0.19917741417884827, 0.1716853529214859, 0.09866540133953094, -0.08328721672296524, -0.06397337466478348, -0.23244580626487732, -0.22090643644332886, 0.1266515702009201, -0.14702852070331573, -0.2048788070678711, -0.08656129986047745, 0.13288544118404388, -0.06449400633573532, 0.021391553804278374, -0.2816612720489502, -0.22691591084003448, 0.1415594071149826, -0.0997532308101654, 0.0920601412653923, -0.08422442525625229, -0.03773924335837364, 0.19276243448257446, 0.11089719086885452, 0.19642475247383118, -0.20129528641700745, 0.09279028326272964, -0.15484224259853363, -0.005380472168326378, 0.08866648375988007, -0.22173058986663818, -0.16149581968784332, -0.26611366868019104, -0.2623125910758972, 0.19576558470726013, -0.024025265127420425, 0.23762567341327667, 0.027370750904083252, 0.2635841369628906, 0.26814591884613037, -0.26948410272598267, -0.10339627414941788, -0.0033300428185611963, 0.1043100655078888, -0.23416762053966522, 0.05340590327978134, 0.17690151929855347, -0.04343957453966141, 0.23075369000434875, 0.05499159172177315, -0.26262298226356506, 0.0912652239203453, -0.18944860994815826, 0.061478391289711, 0.07902677357196808, -0.13068309426307678, -0.21882939338684082, 0.0034056350123137236, 0.2612839639186859, 0.09478450566530228, 0.22104178369045258, 0.173432394862175, 0.3270825445652008, -0.1461966186761856, -0.15206745266914368, 0.07687443494796753, 0.03840242326259613, 0.10112875699996948, 0.1061028242111206, -0.17910480499267578, -0.264696329832077, 0.1372472643852234, 0.15403646230697632, 0.07823022454977036, -0.20621615648269653, -0.17085716128349304, -0.1462131291627884, 0.14114117622375488, 0.09978437423706055, -0.21973824501037598, -0.022205641493201256, 0.2295459806919098, 0.08826922625303268, 0.12493525445461273, 0.16028782725334167, 0.2791745066642761, 0.19092673063278198, -0.24347738921642303, 0.06885923445224762, 0.11906276643276215, -0.09470781683921814, 0.12438260763883591, -0.16561749577522278, -0.2762131989002228, -0.008308583870530128, 0.1360073983669281, -0.02749955654144287, -0.1250912845134735, 0.3040890395641327, -0.062453847378492355, 0.12807469069957733, 0.19302943348884583, 0.3223324418067932, 0.03012819215655327, -0.33089539408683777, -0.1670120656490326, -0.15015572309494019, -0.05815159156918526, -0.2654154598712921, -0.16711314022541046, -0.13934896886348724, 0.07090304046869278, 0.08777368813753128, 0.08230724185705185, -0.2863841950893402, 0.10270944237709045, 0.035745538771152496, 0.04364778846502304, -0.3414373993873596, 0.12209215015172958, 0.124759741127491, -0.2368171364068985, -0.001477715210057795, 0.13750658929347992, 0.1985442191362381, 0.2723883092403412, 0.09326720982789993, 0.10364134609699249, -0.17117846012115479, 0.06232630833983421, -0.27440282702445984, 0.12934118509292603, 0.09088853746652603, -0.03361864387989044, 0.16914992034435272, 0.12909668684005737, 0.02875044383108616, 0.19800671935081482, -0.2811357080936432, 0.05336546152830124, 0.041878841817379, -0.09902061522006989, -0.19936823844909668, -0.265030175447464, -0.05881259962916374, -0.07753566652536392, 0.08704873919487, 0.22460085153579712, -0.22796234488487244, 0.24828800559043884, -0.25989705324172974, -0.10460571944713593, -0.05495913326740265, 0.1934947669506073, 0.20957182347774506, -0.02190566249191761, -0.274055153131485, -0.048887722194194794, 0.015525823459029198, 0.015716420486569405, -0.00502562802284956, -0.14945396780967712, -0.17888523638248444, -0.16446582973003387, -0.15773552656173706, 0.014794264920055866, 0.06397730112075806, 0.1269604116678238, -0.2422225922346115, -0.003999028820544481, 0.13134229183197021, 0.010312909260392189, -0.008012136444449425, 0.09752640873193741, -0.252132773399353, -0.2523545026779175, -0.07711745798587799, -0.007491747383028269, 0.08193130046129227, 0.23924511671066284, -0.26231202483177185, 0.23855745792388916, 0.08399444073438644, -0.062425315380096436, 0.16391295194625854, -0.20055243372917175, 0.04669728875160217, -0.15154238045215607, -0.23536011576652527, 0.01853468082845211, -0.0455470010638237, 0.10795730352401733, -0.10886257886886597, -0.1063566729426384, 0.0976751372218132, -0.10943175107240677, 0.04124845936894417, 0.22530274093151093, -0.1110651046037674, -0.03147163614630699, -0.009829152375459671, -0.3308448791503906, -0.2553024888038635, -0.3566172122955322, -0.29289621114730835, 0.03887873515486717, -0.0529082827270031, -0.0028469606768339872, -0.21025502681732178, 0.198898583650589, 0.22571192681789398, -0.11783847212791443, 0.22834910452365875, 0.25797489285469055, -0.1476859450340271, 0.27696916460990906, 0.29947328567504883, -0.03597748652100563, 0.1365356594324112, 0.13807575404644012, -0.07709438353776932, 0.07908273488283157, -0.24308262765407562, -0.15595708787441254, -0.24060003459453583, 0.20717166364192963, -0.21786202490329742, 0.20003579556941986, 0.11264751851558685, 0.012492062523961067, -0.11100941151380539, 0.10135108232498169, -0.003665609983727336, 0.07795438170433044, 0.023798594251275063, -0.037064604461193085, 0.1143481433391571, -0.050770096480846405, -0.04096933454275131, 0.1092601791024208, -0.17971171438694, -0.21363025903701782, 0.19206508994102478, 0.07964634895324707, 0.1455487608909607, -0.037397246807813644, 0.10261129587888718, 0.2457759529352188, -0.03978992998600006, -0.08695343136787415, -0.15920038521289825, 0.15273970365524292, 0.1684608906507492, -0.03506734222173691, 0.18853670358657837, 0.03186355531215668, 0.12133222073316574, 0.13407722115516663, -0.24597012996673584, 0.044670093804597855, 0.047504305839538574, 0.23428484797477722, 0.03916456550359726, 0.02021416462957859, -0.2566254734992981, 0.045463476330041885, 0.2201867252588272, 0.13265645503997803, -0.02449999935925007, 0.17739412188529968, -0.07112810015678406, 0.11376965790987015, -0.09366503357887268, -0.03677264600992203, 0.11858045309782028, 0.11902803927659988, 0.024970846250653267, 0.23530441522598267, -0.11877209693193436, -0.13207410275936127, 0.11181911081075668, -0.2141624391078949, -0.21404792368412018, -0.03191840648651123, -0.025822309777140617, 0.06602653861045837, 0.19041940569877625, 0.21898913383483887, 0.13854113221168518, -0.14719338715076447, 0.0691743791103363, -0.11975352466106415, -0.19636757671833038, 0.01567600667476654, -0.16254042088985443, -0.2390480637550354, 0.2481873780488968, 0.23560747504234314, -0.10124305635690689, -0.0016362457536160946, -0.10708481073379517, -0.11522630602121353, -0.05712966248393059, 0.05142664536833763, 0.14529527723789215, -0.22550521790981293, -0.04485676437616348, -0.08840276300907135, 0.18282994627952576, 0.0927138403058052, -0.055150944739580154, -0.12071684002876282, -0.06645851582288742, -0.07414687424898148, -0.17063795030117035, 0.0862373560667038, 0.03570012003183365, 0.19565363228321075, -0.14606308937072754, -0.15325821936130524, 0.034728601574897766, 0.016119683161377907, -0.061968423426151276, -0.10639183223247528, -0.08974739909172058, 0.023785192519426346, 0.08998626470565796, 0.044565968215465546, -0.014060801826417446, 0.10900216549634933, 0.00036407384322956204, 0.005133061204105616, 0.11359235644340515, 0.06240736320614815, -0.016636844724416733, -0.2941228151321411, -0.13296353816986084, -0.002913904609158635, -0.20588015019893646, -0.3073355257511139, -0.01935446448624134, 0.21455690264701843, 0.032502368092536926, -0.17368987202644348, -0.09873190522193909, 0.20928263664245605, 0.12089619040489197, -0.08126169443130493, 0.04834599420428276, 0.14227783679962158, 0.12739340960979462, 0.20890352129936218, -0.12252651154994965, 0.15321171283721924, -0.22303816676139832, 0.1873604953289032, -0.006199195981025696, 0.12718315422534943, 0.21587267518043518, 0.12445441633462906, 0.015072053298354149, -0.16383598744869232, -0.06957940012216568, 0.20357660949230194, 0.12123209983110428, -0.13051737844944, 0.042299941182136536, 0.18742431700229645, 0.11635693907737732, 0.004694359377026558, 0.04617876186966896, -0.06738001108169556, -0.010701756924390793, -0.0021584169007837772, -0.193431094288826, 0.08682643622159958, 0.20953254401683807, -0.05283541604876518, 0.13559839129447937, 0.07320374250411987, 0.21814697980880737, -0.11193541437387466, 0.03954584151506424, -0.1689368039369583, -0.035567328333854675, -0.007185474969446659, 0.13173259794712067, -0.2815591096878052, 0.04879884794354439, 0.12737813591957092, 0.17862732708454132, -0.21840962767601013, 0.06446585059165955, 0.14223840832710266, -0.07480649650096893, -0.14682695269584656, -0.07319243252277374, -0.19610661268234253, 0.1697518527507782, 0.1602455973625183, -0.288065105676651, 0.10902151465415955, 0.15121090412139893, -0.2031550407409668, 0.16292288899421692, 0.1231808215379715, -0.025233309715986252, -0.09255558997392654, 0.0686822161078453, 0.03653609752655029, 0.08027474582195282, -0.0022273752838373184, 0.10871756821870804, 0.16910162568092346, -0.21607419848442078, 0.11020068824291229, -0.06900671124458313, 0.18043097853660583, -0.011618870310485363, 0.0022905636578798294, 0.15935999155044556, -0.27034133672714233, -0.2213463932275772, 0.1475149393081665, 0.09464426338672638, 0.18431948125362396, -0.16875191032886505, 0.14317849278450012, -0.023213062435388565, 0.23972544074058533, -0.22223922610282898, -0.0033824569545686245, 0.054990384727716446, -0.02396983467042446, 0.07958178967237473, -0.08850157260894775, -0.180646151304245, -0.13679340481758118, -0.03447809815406799, -0.23314982652664185, 0.30578577518463135, -0.037136539816856384, -0.08882073312997818, -0.10372418165206909, -0.10347671806812286, 0.17638467252254486, -0.022550547495484352, -0.19114625453948975, 0.23534812033176422, 0.054030489176511765, 0.061332281678915024, -0.19406722486019135, -0.18549570441246033, 0.08442853391170502, 0.06305669993162155, -0.21002638339996338, 0.052576180547475815, -0.15801233053207397, -0.21848413348197937, -0.14904539287090302, 0.02296925149857998, 0.22342169284820557, -0.24035371840000153, 0.09246449172496796, -0.25340932607650757, 0.0914665013551712, 0.013232124038040638, 0.016935687512159348, -0.18620209395885468, 0.23281466960906982, 0.08770599216222763, 0.0011358694173395634, 0.07254000753164291, -0.2719971835613251, -0.0017135108355432749, -0.13030900061130524, 0.06376504898071289, -0.004719918593764305, 0.20373699069023132, 0.1821468621492386, 0.13231344521045685, -0.05407433211803436, -0.08154316246509552, 0.04459090903401375, -0.09036362916231155, 0.17345209419727325, 0.08644060790538788, 0.013299092650413513, 0.006648169830441475, -0.13725143671035767, -0.2240932583808899, -0.18510384857654572, -0.27843305468559265, -0.0180717371404171, -0.10859879851341248, 0.20728307962417603, 0.23213422298431396, -0.0980231836438179, 0.01848718896508217, -0.1350446343421936, 0.2012866884469986, 0.330100417137146, 0.221695214509964, -0.1834886074066162, -0.16851399838924408, -0.1737108677625656, -0.02027135156095028, 0.050142835825681686, -0.27682626247406006, -0.008984493091702461, -0.1801021248102188, 0.23801544308662415, 0.06560073047876358, 0.1602291315793991, 0.16811782121658325, 0.03602574020624161, 0.24122095108032227, -0.2089998871088028, -0.10311383008956909, -0.18297752737998962, -0.019876951351761818, 0.005941137205809355, 0.13691945374011993, -0.12696164846420288, -0.18022817373275757, 0.1938958764076233, 0.07853440195322037, 0.18353870511054993, -0.2956247329711914, 0.22216732800006866, 0.0595129057765007, 0.07410748302936554, -0.2552892565727234, -0.05540424957871437, 0.19820038974285126, 0.13219381868839264, -0.07883650809526443, -0.23053228855133057, -0.04797936975955963, 0.06749972701072693, -0.3446190059185028, -0.12643004953861237, 0.22784873843193054, 0.1325562745332718, 0.17611153423786163, -0.1271105855703354, 0.03328379616141319, 0.15234215557575226, -0.161944180727005, -0.2655108571052551, -0.13944219052791595, -0.2379641979932785, -0.032392214983701706, 0.16738447546958923, 0.1887250691652298, 0.0889887586236, 0.2147306352853775, -0.22787527740001678, 0.013911919668316841, -0.2658928334712982, -0.1172223836183548, 0.3457493484020233, -0.1000157967209816, 0.23297637701034546, -0.19033969938755035, 0.011594097130000591, 0.1840018630027771, -0.04553047567605972, 0.001063450239598751, -0.22660356760025024, -0.1987975388765335, 0.23960578441619873, 0.034864697605371475, -0.23952767252922058, 0.0911933183670044, -0.0174565389752388, -0.2479819655418396, 0.04823720455169678, 0.19735278189182281, -0.05679444596171379, -0.10747530311346054, 0.20468471944332123, 0.1939866542816162, -0.23580728471279144, -0.17973923683166504, 0.10007041692733765, -0.14792822301387787, -0.23510752618312836, 0.10450504720211029, 0.22843623161315918, 0.312856525182724, -0.12065879255533218, -0.12246447056531906, -0.07487419992685318, 0.031233862042427063, 0.2272525280714035, 0.051927678287029266, 0.08892086148262024, 0.09086386859416962, 0.0951596274971962, 0.005497701000422239, 0.1659516543149948, 0.01610528863966465, 0.2743741571903229, -0.2269231677055359, 0.2722478210926056, 0.026179300621151924, -0.23205044865608215, 0.20663046836853027, 0.16945312917232513, 0.08267933875322342, 0.14595715701580048, 0.17130278050899506, -0.0005809382419101894, 0.18978826701641083, 0.0827774778008461, 0.2821272909641266, -0.11773336678743362, -0.01875283010303974, 0.049220580607652664, 0.0674414187669754, 0.0978635773062706, 0.06154060736298561, -0.03682709112763405, 0.1659742146730423, 0.27291083335876465, -0.17353808879852295, 0.24338941276073456, -0.1828116923570633, -0.12321575731039047, 0.13290032744407654, -0.020677490159869194, -0.16088728606700897, -0.0379747711122036, -0.08748158067464828, -0.15372087061405182, 0.0738072395324707, 0.07380759716033936, 0.2718777060508728, -0.0879027247428894, 0.20256297290325165, -0.13415509462356567, -0.15467777848243713, 0.17705370485782623, -0.0008043832494877279, -0.2535715699195862, 0.003676163963973522, 0.16315041482448578, 0.22135859727859497, -0.15094716846942902, 0.2322578877210617, 0.09868524968624115, 0.11909604072570801, -0.049723539501428604, -0.03013787977397442, -0.04710547998547554, -0.13382339477539062, 0.15205484628677368, -0.04258063808083534, 0.010749074630439281, 0.2728472650051117, 0.17824028432369232, 0.009879190474748611, 0.3243587911128998, 0.178002268075943, 0.22071489691734314, -0.2326376736164093, -0.10611286014318466, -0.22762897610664368, -0.21741080284118652, 0.2751292884349823, -0.29076847434043884, -0.01401179563254118, 0.18850381672382355, 0.03417866304516792, -0.060593802481889725, -0.020763875916600227, -0.023495377972722054, -0.23928280174732208, -0.07343505322933197, 0.1992829293012619, -0.3255701959133148, 0.07150965929031372, 0.16405633091926575, 0.07677002251148224, -0.20316998660564423, 0.15297311544418335, -0.132682204246521, -0.13632607460021973, 0.021833252161741257, -0.1319286823272705, -0.01630283333361149, 0.18441170454025269, -0.018585896119475365, -0.2417035847902298, 0.02561117522418499, -0.004023413639515638, 0.15055324137210846, -0.013500906527042389, -0.10415779054164886, 0.1497487723827362, -0.20156213641166687, -0.07844938337802887, -0.19206726551055908, 0.11115659028291702, -0.04621930047869682, 0.09798642247915268, -0.2045183926820755, -0.24674531817436218, -0.2568400800228119, 0.2464120090007782, 0.1735042929649353, -0.028594525530934334, 0.11775746941566467, 0.16480429470539093, -0.19203974306583405, -0.26753222942352295, -0.11810300499200821, 0.09643358737230301, 0.0009701148956082761, 0.1236327514052391, -0.004899121355265379, 0.015557613223791122, 0.10871249437332153, -0.23786626756191254, -0.2418159693479538, -0.10734019428491592, 0.1209431141614914, 0.11271893233060837, 0.03850683942437172, -0.2949889898300171, 0.07853095233440399, -0.21172083914279938, -0.22262230515480042, 0.14113101363182068, -0.24862463772296906, -0.07197783142328262, -0.23957978188991547, -0.10912022739648819, 0.3051299452781677, 0.01645064353942871, 0.14618687331676483, 0.0017079346580430865, 0.25722500681877136, 0.09477673470973969, -0.06323990970849991, 0.10023528337478638, 0.15037992596626282, -0.2070295214653015, -0.17151637375354767, -0.07424640655517578, 0.09850048273801804, -0.19684100151062012, -0.24567022919654846, 0.2017112523317337, -0.2694193124771118, -0.1587645560503006, 0.029466921463608742, -0.0020302545744925737, -0.016023004427552223, 0.22813764214515686, -0.04353586584329605, 0.08962789177894592, 0.09397822618484497, -0.139505073428154, 0.15340052545070648, -0.20627714693546295, 0.0569816492497921, 0.19618776440620422, 0.08483361452817917, 0.05791254714131355, 0.0646883174777031, 0.027220746502280235, -0.13871197402477264, -0.3310087323188782, 0.1596604436635971, 0.13962224125862122, -0.2276972234249115, 0.13058196008205414, -0.19091252982616425, 0.12723690271377563, 0.046430863440036774, -0.29605957865715027, 0.228216752409935, 0.11257471889257431, 0.02150242030620575, -0.21978546679019928, -0.0037007099017500877, -0.17850522696971893, 0.1339111179113388, -0.25443679094314575, -0.2035866379737854, -0.22543418407440186, 0.18257713317871094, -0.11663266271352768, -0.09065566211938858, 0.12844353914260864, -0.1941300332546234, -0.21673119068145752, 0.013400924392044544, -0.17962424457073212, 0.17693310976028442, 0.18033277988433838, -0.13646408915519714, -0.08298607915639877, 0.2331838607788086, -0.015351936221122742, -0.15673206746578217, -0.11074307560920715, 0.01748937927186489, -0.25369828939437866, 0.020679371431469917, -0.14245198667049408, 0.07038171589374542, 0.059490300714969635, 0.21444040536880493, 0.023389386013150215, 0.2194652259349823, 0.14226050674915314, 0.006856291089206934, 0.21980580687522888, -0.08390479534864426, 0.008070032112300396, 0.08899755775928497, 0.06757862120866776, -0.14083674550056458, -0.29416024684906006, -0.036388128995895386, 0.047976717352867126, -0.037517741322517395, 0.07690814882516861, -0.050643160939216614, -0.203463613986969, -0.013095369562506676, -0.1681026965379715, -0.20176559686660767, -0.04806732386350632, 0.05365248769521713, 0.20362795889377594, 0.2494414895772934, 0.06214766949415207, 0.09410202503204346, 0.002823070390149951, 0.050213318318128586, -0.05204613879323006, 0.10150860249996185, -0.30122560262680054, 0.11230548471212387, -0.03348081186413765, -0.11530916392803192, -0.17004308104515076, -0.03166797384619713, 0.09466620534658432, 0.16187769174575806, -0.11139122396707535, 0.06380605697631836, 0.1173374131321907, -0.1630733758211136, 0.0806974396109581, -0.13732552528381348, 0.17641054093837738, -0.07709068059921265, -0.3248719274997711, -0.13776783645153046, 0.09761322289705276, -0.2952277958393097, -0.226812481880188, -0.18599826097488403, -0.16312576830387115, 0.17238689959049225, 0.009140152484178543, -0.2551177740097046, 0.004816792439669371, 0.18893040716648102, 0.11677040904760361, -0.03746889531612396, -0.15767782926559448, 0.21476179361343384, 0.20714150369167328, -0.0322892963886261, -0.14645220339298248, -0.21336162090301514, -0.030646640807390213, -0.11067411303520203, -0.08689524233341217, -0.17970769107341766, -0.1477973461151123, 0.2687745988368988, -0.09575241804122925, 0.020708700641989708, 0.1840086281299591, -0.024477515369653702, -0.18738293647766113, -0.06398331373929977, -0.11251945793628693, -0.04251043498516083, -0.19702944159507751, 0.1185658797621727, -0.029269205406308174, -0.22546499967575073, 0.12406165897846222, 0.18300798535346985, 0.07497289031744003, -0.12612038850784302, -0.03890379145741463, -0.13017703592777252, -0.03861057385802269, 0.10173257440328598, 0.27071359753608704, -0.14032354950904846, 0.10890782624483109, 0.1462324559688568, 0.13019630312919617, -0.13511495292186737, 0.07218810170888901, -0.09074495732784271, 0.09591291844844818, 0.28741443157196045, -0.19774143397808075, -0.21038542687892914, -0.13018910586833954, 0.030039122328162193, -0.21180211007595062, -0.25286149978637695, -0.32562097907066345, 0.010147437453269958, -0.03517819941043854, 0.2948668897151947, 0.25044718384742737, -0.12977048754692078, 0.2638351619243622, 0.3195255994796753, 0.22633861005306244, 0.09519371390342712, -0.08630193769931793, -0.16283300518989563, -0.20828168094158173, -0.09710711985826492, -0.020854506641626358, 0.05140264704823494, -0.0456053726375103, -0.059230223298072815, 0.2959764897823334, -0.14578554034233093, -0.038670457899570465, -0.17517565190792084, 0.0382441021502018, 0.16805073618888855, -0.03764886036515236, 0.054858654737472534, 0.10431671142578125, -0.15101663768291473, -0.04398425668478012, -0.2588489055633545, -0.2609013319015503, -0.00026089270249940455, 0.05837845802307129, 0.17716632783412933, -0.14512136578559875, -0.012809091247618198, 0.10366637259721756, 0.0250833909958601, 0.24399036169052124, -0.10196471214294434, -0.07416218519210815, 0.07014231383800507, 0.16152599453926086, 0.13147123157978058, -0.1361137479543686, -0.06479627639055252, -0.1879006177186966, 0.06443030387163162, 0.036501262336969376, -0.19524560868740082, 0.12004414945840836, 0.21602889895439148, 0.28161969780921936, -0.12478528171777725, -0.019787291064858437, -0.2867231070995331, -0.1980598121881485, 0.1366945207118988, -0.20937654376029968, -0.10798685997724533, 0.012387098744511604, -0.22794821858406067, 0.02763638086616993, -0.1627805382013321, -0.02055978588759899, 0.171042338013649, 0.1826644390821457, -0.179982528090477, 0.040353331714868546, -0.11916108429431915, 0.24619407951831818, -0.022023480385541916, 0.2162863314151764, 0.13993898034095764, -0.19711749255657196, 0.19536779820919037, 0.10096050798892975, 0.267332524061203, 0.2690880596637726, -0.07805899530649185, -0.11138403415679932, -0.30109018087387085, -0.1874702125787735, -0.20202988386154175, 0.011211171746253967, 0.11057715862989426, 0.20839737355709076, 0.013825167901813984, 0.09107736498117447, 0.0596420094370842, -0.2917480170726776, -0.14710910618305206, -0.012632208876311779, -0.18232786655426025, 0.2901553213596344, -0.09627916663885117, -0.1987716406583786, 0.12618084251880646, 0.2184937745332718, -0.011575671844184399, -0.21307408809661865, -0.07428664714097977, -0.05450610816478729, 0.1503966599702835, -0.17369019985198975, 0.13817620277404785, 0.07884499430656433, -0.0354158990085125, -0.24453513324260712, -0.33070147037506104, -0.18612419068813324, -0.09829680621623993, 0.08468753099441528, -0.09241736680269241, -0.30940350890159607, -0.27731138467788696, -0.13717177510261536, 0.060244832187891006, -0.1325688511133194, 0.24549227952957153, 0.20756734907627106, 0.13141390681266785, -0.21135354042053223, -0.08891995996236801, 0.17739912867546082, -0.2584410011768341, -0.2093725949525833, -0.11201336979866028, 0.003447066992521286, -0.10297664999961853, -0.06286072731018066, 0.13654054701328278, -0.13167107105255127, -0.034724242985248566, -0.04779898375272751, 0.1286243349313736, 0.28084394335746765, 0.08311671763658524, 0.09549590200185776, -0.05221814662218094, -0.004323370289057493, -0.08414105325937271, -0.08555732667446136, 0.14244689047336578, -0.1465040147304535, -0.07536248117685318, 0.0728209838271141, -0.06474503874778748, 0.13920532166957855, -0.1487322896718979, -0.12063761055469513, 0.1963118016719818, -0.2453005164861679, 0.10517214983701706, 0.2144569754600525, 0.09411458671092987, -0.23803064227104187, 0.07750453054904938, 0.1686885803937912, 0.14293095469474792, -0.13103806972503662, -0.10459006577730179, -0.08154383301734924, -0.20704886317253113, -0.06477271765470505, 0.03522288799285889, -0.16173326969146729, 0.16614073514938354, 0.19538618624210358, 0.08421443402767181, 0.09085188060998917, 0.18891571462154388, 0.17211811244487762, 0.06452400982379913, -0.1878087967634201, -0.1320878118276596, -0.2532491087913513, 0.01953132078051567, -0.3790550231933594, -0.0692865327000618, -0.09469008445739746, -0.24601610004901886, 0.020324815064668655, 0.2178647518157959, 0.01516577135771513, 0.13299983739852905, 0.15667372941970825, 0.1476939469575882, 0.054319147020578384, -0.02504037134349346, 0.22110627591609955, 0.1364677995443344, -0.14911200106143951, 0.10314399749040604, -0.09920864552259445, 0.22885039448738098, -0.2664959132671356, -0.07498396188020706, -0.06351497024297714, 0.1782025396823883, 0.1851128339767456, -0.04357936978340149, 0.140712708234787, 0.04530312865972519, 0.16445666551589966, -0.20661574602127075, -0.2512124180793762, 0.10571976006031036, -0.0396592803299427, 0.22975726425647736, -0.14415821433067322, 0.10764886438846588, 0.2377442717552185, -0.14906810224056244, 0.03768252953886986, -0.04852946475148201, 0.04503398761153221, 0.006882248912006617, 0.06105200573801994, 0.22789913415908813, 0.2272503525018692, 0.03514374792575836, -0.0875278040766716, 0.22012048959732056, 0.08727692067623138, -0.22491712868213654, -0.1761437952518463, -0.2314348667860031, -0.18139494955539703, 0.09970810264348984, 0.050304945558309555, -0.18123386800289154, -0.09832186996936798, -0.17687036097049713, 0.10714299976825714, 0.041399192065000534, 0.23711983859539032, 0.0946124941110611, -0.2343018800020218, -0.2667252719402313, -0.165588840842247, 0.0653252899646759, 0.208970308303833, -0.05484231188893318, 0.06618969887495041, 0.014660912565886974, -0.14600393176078796, 0.014314038679003716, -0.1678011566400528, -0.037859223783016205, 0.11348804086446762, -0.12297007441520691, 0.15007098019123077, -0.20009365677833557, 0.17801672220230103, 0.02160785347223282, 0.24779611825942993, 0.23409542441368103, 0.04280244931578636, -0.32665878534317017, -0.32962796092033386, 0.131500244140625, 0.06912533193826675, -0.04381858929991722, -0.23266932368278503, -0.08297715336084366, -0.0716204047203064, 0.300179660320282, -0.17270813882350922, -0.13429200649261475, -0.09217896312475204, 0.327017217874527, 0.13008517026901245, -0.08856284618377686, 0.020261289551854134, 0.04622515290975571, -0.032146304845809937, -0.06262809038162231, 0.02173864282667637, 0.2524082660675049, 0.1549442857503891, 0.10145191103219986, 0.16494637727737427, 0.1549263745546341, -0.10035919398069382, 0.13958683609962463, 0.0014768674736842513, 0.06410901993513107, 0.046975575387477875, 0.18362586200237274, -0.09186039119958878, -0.17872066795825958, 0.0573989674448967, 0.26354870200157166, -0.2612861394882202, 0.07151737064123154, 0.25840410590171814, -0.23014532029628754, -0.3021855652332306, -0.21089665591716766, -0.11683168262243271, -0.1820940524339676, -0.2846044600009918, -0.10580109059810638, -0.14908723533153534, 0.22835053503513336, 0.02771805040538311, -0.21632149815559387, 0.06337805092334747, 0.04117574542760849, 0.0120113305747509, 0.0502043142914772, -0.29933595657348633, -0.2289973795413971, 0.024816373363137245, -0.1787331998348236, 0.19877074658870697, -0.22823701798915863, -0.012146959081292152, -0.10262780636548996, 0.1266433745622635, 0.4075024425983429, -0.22286257147789001, 0.04288019239902496, -0.04277604818344116, -0.16122788190841675, -0.13953137397766113, -0.1512414962053299, 0.10488531738519669, 0.031090635806322098, -0.30554062128067017, 0.2937365472316742, 0.002969431458041072, -0.19941496849060059, -0.0194245595484972, 0.12449789047241211, 0.23987551033496857, -0.1564290076494217, 0.12997253239154816, -0.11619560420513153, -0.35250937938690186, -0.1402737945318222, -0.2734394669532776, -0.09763453155755997, 0.18959131836891174, -0.03674229606986046, 0.2696680426597595, 0.1269778162240982, 0.30229452252388, -0.2946939468383789, -0.16489581763744354, -0.22227881848812103, 0.07420306652784348, 0.2953488230705261, 0.2780817747116089, 0.10174686461687088, 0.24957388639450073, 0.08576879650354385, 0.19124731421470642, 0.04153240844607353, 0.15957464277744293, -0.24415242671966553, -0.2525615096092224, 0.1534569412469864, -0.15593789517879486, -0.011393114924430847, -0.2993999719619751, -0.07560782879590988, -0.07438041269779205, 0.20565208792686462, 0.17971360683441162, -0.09197711199522018, 0.20905478298664093, 0.2676254212856293, -0.2321213036775589, 0.12155300378799438, -0.37863531708717346, -0.11616099625825882, 0.3189082145690918, 0.17607498168945312, -0.1622418314218521, 0.16884566843509674, -0.21713101863861084, 0.10113036632537842, 0.23735204339027405, 0.15344907343387604, -0.029089251533150673, 0.2391696274280548, 0.11794241517782211, -0.04885563626885414, -0.17221848666667938, -0.24377429485321045, -0.18471144139766693, -0.26611971855163574, 0.2702554166316986, -0.22914238274097443, 0.025351135060191154, 0.2819708585739136, 0.0030735861510038376, 0.27273938059806824, 0.0896558091044426, -0.13149689137935638, -0.3344571590423584, 0.052657272666692734, 0.32615646719932556, -0.25686079263687134, -0.22733260691165924, -0.2675408124923706, -0.06292959302663803, -0.36885035037994385, -0.25810056924819946, 0.09532357007265091, -0.23847264051437378, 0.2874599099159241, 0.15745310485363007, 0.0212405938655138, -0.10465434938669205, 0.22925850749015808, -0.11319657415151596, -0.13668423891067505, -0.18668262660503387, -0.12693947553634644, 0.05959013104438782, -0.2604561746120453, -0.2496250569820404, -0.15927962958812714, -0.03454091399908066, -0.08624151349067688, -0.23514002561569214, -0.28079938888549805, -0.13972997665405273, 0.09456555545330048, -0.07455963641405106, -0.23244760930538177, -0.23575912415981293, 0.07346582412719727, 0.021289942786097527, 0.14964568614959717, -0.14959867298603058, -0.10689278692007065, 0.15191736817359924, -0.18607427179813385, -0.17847013473510742, -0.18584486842155457, -0.2063727229833603, 0.04161790385842323, 0.10747434198856354, 0.08876379579305649, -0.2137172520160675, -0.0024800479877740145, 0.04231506586074829, -0.08534449338912964, 0.021515103057026863, 0.11602633446455002, -0.015464686788618565, 0.2809603214263916, 0.13037291169166565, 0.05834881216287613, -0.07230447977781296, -0.20863400399684906, 0.09227342903614044, -0.26540136337280273, 0.19852039217948914, -0.16680291295051575, 0.062012944370508194, -0.22248104214668274, 0.12815412878990173, 0.08396311104297638, 0.005495133809745312, -0.29615482687950134, -0.12333812564611435, -0.21648554503917694, -0.26040056347846985, 0.02903296984732151, -0.1567019522190094, 0.2810600697994232, 0.08693517744541168, -0.02512548677623272, 0.24700559675693512, 0.14140138030052185, 0.1314636915922165, 0.11727604269981384, 0.0607648603618145, 0.2314155399799347, -0.10986978560686111, 0.20293641090393066, 0.13563552498817444, 0.21105444431304932, -0.14402781426906586, 0.1966463327407837, 0.2751503884792328, -0.03825334459543228, 0.12304260581731796, 0.02363230660557747, 0.06710533052682877, 0.17831723392009735, -0.06999791413545609, 0.008957911282777786, -0.13561026751995087, -0.2161189168691635, -0.08864714950323105, -0.01237682905048132, -0.13758325576782227, -0.13375632464885712, -0.24385321140289307, 0.15020331740379333, 0.19067665934562683, 0.2272528111934662, -0.07865330576896667, 0.2196790874004364, -0.13519179821014404, 0.2752279043197632, -0.03378374129533768, -0.02936980314552784, -0.08978332579135895, 0.02340875007212162, -0.32213205099105835, -0.28703898191452026, -0.3091835379600525, 0.21601656079292297, -0.2550365924835205, -0.31454145908355713, -0.2522278428077698, -0.3786429762840271, -0.3739798963069916, 0.06204838678240776, 0.14605553448200226, 0.25952592492103577, 0.07047885656356812, -0.37643367052078247, -0.25170549750328064, -0.18043725192546844, 0.04775442183017731, 0.21545907855033875, -0.13765855133533478, 0.034240301698446274, -0.02120601013302803, -0.0679459348320961, -0.0018415937665849924, 0.16564343869686127, -0.2944580316543579, 0.25037243962287903, 0.023398136720061302, -0.18905964493751526, -0.12321421504020691, 0.35242360830307007, 0.03505953773856163, -0.059868402779102325, 0.08994810283184052, -0.22233814001083374, 0.12310697883367538, -0.2565738260746002, 0.13560748100280762, -0.1714293360710144, 0.11324568837881088, -0.20249485969543457, 0.3149452209472656, 0.160567045211792, 0.16750968992710114, -0.1935846358537674, 0.2247052639722824, 0.018306909129023552, -0.09531103074550629, 0.0005259475437924266, 0.11900206655263901, 0.09540704637765884, 0.11056257784366608, 0.19400155544281006, -0.30141085386276245, -0.18088595569133759, 0.03547334671020508, -0.024369806051254272, 0.14510990679264069, 0.008723704144358635, 0.08384092152118683, -0.23907390236854553, 0.2805512845516205, 0.11413408815860748, 0.22875674068927765, 0.20013512670993805, -0.23795798420906067, 0.06362105160951614, 0.07631384581327438, 0.012570640072226524, 0.009079745039343834, -0.07719492167234421, -0.017035111784934998, -0.13676294684410095, 0.002545182127505541, -0.02733795903623104, -0.15255489945411682, -0.0971100702881813, -0.01336752437055111, 0.055293839424848557, 0.03195418417453766, -0.05007932707667351, -0.17646755278110504, -0.07108461856842041, -0.04045078158378601, 0.13133947551250458, -0.08327088505029678, -0.20379091799259186, -0.03007250279188156, 0.08928310126066208, -0.04155266284942627, 0.14041899144649506, 0.03852135315537453, 0.04046056419610977, -0.046994805335998535, -0.013668267987668514, -0.015361559577286243, -0.008651290088891983, -0.03823503479361534, -0.016482528299093246, 0.053133394569158554, -0.16451852023601532, -0.028024032711982727, -0.06516078114509583, -0.068839430809021, 0.1052977442741394, -0.03960046544671059, -0.23503370583057404, -0.2056516408920288, 0.01175651140511036, 0.16988018155097961, 0.04010358452796936, -0.019981341436505318, 0.013692166656255722, 0.06821133196353912, -0.002412923378869891, -0.04215197637677193, -0.22170524299144745, -0.06964635103940964, 0.0732819065451622, -0.12334779649972916, -0.14614100754261017, -0.14526474475860596, 0.09448670595884323, -0.0027074385434389114, -0.0027188218664377928, 0.12379826605319977, -0.17985574901103973, -0.11884324252605438, -0.07213295251131058, 0.03616860881447792, 0.2104257047176361, 0.11610754579305649, 0.07020007818937302, -0.07849204540252686, 0.08008653670549393, 0.08352749049663544, -0.06739920377731323, -0.1942482441663742, -0.09824532270431519, -0.09140773117542267, -0.09555738419294357, -0.14191916584968567, 0.0016057054745033383, -0.04673558101058006, 0.07101020216941833, 0.0055174874141812325, 0.0270051471889019, 0.08812011778354645, -0.10403695702552795, -0.12195836752653122, -0.1762794852256775, 0.04095572605729103, -0.09772085398435593, 0.08630955964326859, -0.030168544501066208, -0.19888965785503387, 0.054571595042943954, -0.06832125037908554, -0.18427686393260956, 0.008270775899291039, -0.058584436774253845, -0.15308119356632233, -0.15943899750709534, 0.2311355173587799, 0.037556737661361694, 0.004667292349040508, -0.15760791301727295, -0.1541907787322998, -0.011870229616761208, -0.12343250960111618, -0.05660580098628998, 0.14169855415821075, -0.009148173034191132, -0.004088566638529301, 0.09694773703813553, -0.21584713459014893, 0.12971436977386475, 0.03494616225361824, -0.06358727812767029, 0.10635250061750412, -0.0703723132610321, 0.23733462393283844, -0.0956634059548378, 0.15219348669052124, 0.09073863178491592, 0.051001474261283875, -0.10460814088582993, 0.20655742287635803, 0.05411084368824959, -0.19030971825122833, 0.14492423832416534, -0.061696380376815796, -0.06390726566314697, -0.09939716011285782, 0.016280708834528923, 0.09252895414829254, -0.02042715810239315, 0.06265297532081604, -0.11627329885959625, -0.1350736767053604, 0.05952049791812897, -0.1614733189344406, -0.15663683414459229, 0.021440494805574417, 0.14450235664844513, 0.14457601308822632, 0.12848176062107086, -0.2990560829639435, 0.05559416115283966, -0.11818915605545044, -0.18663352727890015, 0.06739374250173569, -0.172800213098526, -0.1490122228860855, 0.019632510840892792, 0.03599691018462181, 0.14645838737487793, -0.21369723975658417, 0.08880878239870071, -0.03347809240221977, -0.18811441957950592, -0.1093975156545639, -0.10314055532217026, -0.021403754130005836, -0.17440839111804962, -0.22396866977214813, 0.09977349638938904, 0.13719044625759125, -0.010301072150468826, -0.10151612758636475, 0.014272503554821014, 0.21748603880405426, 0.16853182017803192, 0.0860934779047966, 0.030553409829735756, 0.045848097652196884, 0.20562472939491272, 0.14888934791088104, 0.062481701374053955, -0.12725336849689484, -0.0900343507528305, 0.2071809619665146, -0.03359439969062805, 0.057486504316329956, -0.15523500740528107, -0.13102185726165771, -0.026852549985051155, 0.13838724792003632, 0.19019152224063873, 0.17884086072444916, 0.004308795090764761, 0.06517364084720612, 0.09471489489078522, 0.040111493319272995, 0.12510046362876892, -0.21168731153011322, 0.1670977622270584, 0.1551019698381424, 0.20482748746871948, -0.05849549174308777, -0.1518440544605255, 0.14622777700424194, 0.011210243217647076, -0.1428973227739334, 0.14020638167858124, -0.06360386312007904, 0.09866368025541306, -0.16325272619724274, -0.11186883598566055, 0.14881965517997742, -0.05286698415875435, 0.013381543569266796, 0.16041801869869232, -0.04652261734008789, -0.055493928492069244, -0.08231356739997864, -0.10646133869886398, 0.06993016600608826, 0.07943857461214066, 0.10868967324495316, 0.09324173629283905, -0.18688660860061646, -0.1128254234790802, 0.15618856251239777, -0.13837094604969025, -0.07033472508192062, 0.07786022871732712, -0.145529642701149, -0.06887686252593994, 0.03888402134180069, -0.06122283264994621, 0.13829287886619568, 0.13625453412532806, 0.13977792859077454, -0.029655324295163155, -0.21074913442134857, -0.0812629982829094, -0.14210082590579987, 0.11655618995428085, -0.08942528069019318, -0.10627371817827225, 0.15237730741500854, 0.002075701951980591, 0.15372462570667267, -0.11205296218395233, 0.165529265999794, -0.08506555110216141, -0.20803341269493103, 0.14842398464679718, -0.05995658040046692, 0.02268516644835472, 0.2681598365306854, -0.16648168861865997, 0.12080371379852295, 0.10174822807312012, 0.09431435167789459, 0.31090226769447327, -0.2828626334667206, -0.20106597244739532, -0.151991605758667, 0.030791914090514183, 0.051421523094177246, -0.09488590061664581, 0.08432132750749588, -0.06282510608434677, 0.3276028633117676, -0.1605459600687027, 0.1451045125722885, 0.07415984570980072, 0.06357643008232117, -0.022756051272153854, 0.13447855412960052, -0.19154302775859833, -0.22334013879299164, -0.21799176931381226, -0.08374650031328201, 0.12432853132486343, 0.0680418536067009, -0.10939466953277588, 0.08469613641500473, -0.2420445829629898, 0.19894513487815857, -0.20025603473186493, 0.06372280418872833, -0.30051273107528687, 0.1320750117301941, 0.20103703439235687, 0.24319222569465637, -0.2834893465042114, 0.04074278101325035, -0.2540276050567627, -0.20826320350170135, 0.19258180260658264, -0.20821748673915863, -0.058808229863643646, -0.1512841284275055, -0.04084648936986923, 0.18016132712364197, 0.22871211171150208, -0.06079111620783806, -0.32042554020881653, 0.028289057314395905, 0.14476870000362396, 0.017761731520295143, -0.191594198346138, 0.21745240688323975, -0.02615266852080822, -0.04271530359983444, -0.0991528332233429, -0.1828104853630066, 0.029259473085403442, -0.14102524518966675, -0.12759260833263397, -0.2746453285217285, 0.018365979194641113, 0.1593616008758545, -0.11617236584424973, 0.011264733038842678, 0.2631798982620239, -0.05496276170015335, -0.022452568635344505, -0.008421141654253006, -0.2086203247308731, 0.1388845443725586, 0.02105339616537094, -0.21617497503757477, 0.06606650352478027, 0.10256825387477875, -0.08144741505384445, -0.24970465898513794, -0.08314007520675659, -6.610777927562594e-05, -0.1881571263074875, -0.011719557456672192, -0.14409348368644714, 0.027179118245840073, -0.06645209342241287, 0.04949548467993736, -0.1626446545124054, 0.177523672580719, 0.0594455748796463, -0.23106040060520172, 0.009304171428084373, -0.14244672656059265, -0.07966013997793198, 0.06014380604028702, 0.09259559214115143, -0.09374836832284927, -0.028075862675905228, -0.14053334295749664, 0.23530152440071106, 0.03297605738043785, 0.14802855253219604, -0.18351106345653534, 0.05830906331539154, 0.047956839203834534, -0.14270198345184326, -0.05229855328798294, 0.08004385977983475, -0.20232217013835907, -0.061961084604263306, 0.14183419942855835, -0.060147762298583984, 0.1048736497759819, 0.037090737372636795, -0.09343734383583069, 0.048301175236701965, -0.10319579392671585, -0.17555204033851624, 0.2322385460138321, 0.053127702325582504, 0.17937950789928436, 0.11679179966449738, 0.12458860129117966, 0.23495538532733917, 0.1388903707265854, -0.06892009824514389, -0.09069078415632248, -0.038894008845090866, 0.0007619590032845736, -0.19277311861515045, -0.021695658564567566, -0.06047501042485237, -0.1804904192686081, 0.09119179099798203, 0.03446366637945175, 0.10816748440265656, 0.11036337167024612, 0.012253019958734512, 0.11906877905130386, -0.05202842876315117, -0.05417722463607788, -0.20635220408439636, -0.01888546347618103, -0.0368986539542675, 0.053504038602113724, -0.10849938541650772, -0.14420463144779205, -0.1821206659078598, -0.28011181950569153, -0.1799122393131256, -0.1193605363368988, -0.13541576266288757, -0.11662695556879044, 0.019651029258966446, -0.19312690198421478, -0.22021542489528656, -0.18565921485424042, -0.06507289409637451, -0.146542027592659, -0.17448805272579193, 0.03669421747326851, -0.16329899430274963, -0.029535507783293724, -0.1740981489419937, -0.24031634628772736, 0.14824903011322021, -0.1330103725194931, 0.1018567904829979, 0.026859749108552933, -0.02474427968263626, -0.037493254989385605, 0.149011492729187, 0.14172741770744324, -0.049168020486831665, 0.1742197573184967, 0.10885290056467056, 0.11469615995883942, 0.14198286831378937, 0.0512707345187664, 0.12635096907615662, -0.05176924169063568, -0.1125643402338028, -0.11629914492368698, 0.04799589514732361, 0.02594170905649662, -0.21950367093086243, 0.1357988864183426, -0.06848954409360886, 0.07028082013130188, 0.06027378514409065, 0.06477010250091553, -0.07950600236654282, 0.18678469955921173, 0.06757175922393799, -0.10735972970724106, 0.08589890599250793, -0.02713915891945362, -0.07155673950910568, 0.12101764231920242, -0.15040384232997894, -0.062467481940984726, 0.08285875618457794, 0.026615384966135025, 0.04008945822715759, -0.11182164400815964, 0.00778762623667717, 0.06488016247749329, -0.15649385750293732, -0.14779791235923767, 0.07736331224441528, -0.11787114292383194, -0.020846467465162277, 0.09390036761760712, 0.1709446758031845, 0.0005754531011916697, 0.132765531539917, -0.15408439934253693, -0.07725538313388824, -0.11568871885538101, 0.053510792553424835, -0.21405929327011108, -0.028298158198595047, 0.009858309291303158, 0.06909134238958359, -0.10040835291147232, -0.12649469077587128, -0.06828787177801132, -0.02325933240354061, 0.0026306980289518833, -0.15323443710803986, 0.07505913078784943, -0.01353626698255539, 0.14000043272972107, 0.005233609117567539, -0.05980733409523964, 0.048349738121032715, -0.2520945966243744, -0.0056190756149590015, 0.24095003306865692, -0.16201968491077423, 0.1344728320837021, 0.0836864709854126, 0.20650099217891693, -0.030471960082650185, -0.06984541565179825, -0.16812431812286377, -0.14286530017852783, -0.11107704043388367, 0.15660066902637482, -0.05316246673464775, -0.05647125840187073, 0.021911796182394028, 0.10212041437625885, 0.2661837339401245, -0.037793438881635666, -0.05221214517951012, -0.09278339892625809, -0.016994966194033623, 0.18147996068000793, 0.08814147859811783, 0.09544821083545685, 0.023285580798983574, -0.0036407909356057644, 0.03787056356668472, -0.12373823672533035, -0.2594100534915924, -0.006695555988699198, -0.036455053836107254, -0.22143860161304474, -0.2590107321739197, -0.11359918862581253, -0.09717340022325516, 0.23170530796051025, -0.02115374431014061, 0.2576035261154175, 0.11393670737743378, 0.03666764497756958, -0.24254456162452698, -0.05586650222539902, -0.07794733345508575, -0.18103595077991486, 0.18628950417041779, -0.21988865733146667, 0.08282152563333511, 0.2083476185798645, -0.15952973067760468, -0.03267795965075493, -0.18225188553333282, 0.16056104004383087, -0.3301549255847931, -0.26687368750572205, 0.12741826474666595, 0.2728385627269745, -0.2622559666633606, 0.24699357151985168, 0.11971257627010345, -0.14757001399993896, 0.006328285206109285, 0.023263752460479736, 0.09114940464496613, 0.18332824110984802, 0.26121723651885986, -0.06904024630784988, -0.24766534566879272, -0.025909189134836197, -0.2135864943265915, -0.1810697317123413, -0.09778465330600739, -0.32091712951660156, -0.4943927526473999, 0.11238990724086761, 0.045942287892103195, 0.18727965652942657, -0.04070340469479561, 0.2894015908241272, -0.07001067698001862, 0.06900646537542343, -0.19514325261116028, -0.05884510651230812, 0.02825108915567398, -0.16842254996299744, 0.21640336513519287, 0.09465759247541428, 0.022200707346200943, -0.10170656442642212, -0.053386036306619644, 0.15818645060062408, 0.04029753431677818, -0.12263259291648865, -0.04371929168701172, 0.25207245349884033, 0.3085431158542633, 0.06252845376729965, -0.06802628934383392, 0.1847737431526184, -0.008410466834902763, 0.02187715843319893, 0.19888080656528473, 0.20885750651359558, 0.03838961571455002, 0.04869774729013443, -0.18297308683395386, -0.05613628029823303, -0.19453899562358856, -0.21026861667633057, 0.10420475900173187, -0.07045900821685791, 0.11324920505285263, -0.21545729041099548, -0.14565373957157135, 0.04723268002271652, 0.07979367673397064, -0.2741577625274658, 0.12041003257036209, -0.03310060873627663, -0.1898377537727356, -0.1106865406036377, 0.08432880789041519, -0.07067655771970749, -0.045066457241773605, -0.21521684527397156, -0.024407517164945602, -0.010283910669386387, -0.06640128791332245, 0.16748322546482086, -0.01120852492749691, 0.2389877438545227, -0.09187310189008713, 0.05093676969408989, -0.10325833410024643, -0.19711968302726746, -0.16075684130191803, 0.14735932648181915, -0.023753205314278603, 0.111269012093544, 0.1457095891237259, -0.03395549952983856, 0.05062909796833992, 0.19220592081546783, 0.13745997846126556, -0.040069833397865295, 0.11701851338148117, 0.23007288575172424, 0.23205213248729706, 0.059941988438367844, 0.23930801451206207, 0.009358901530504227, 0.22028705477714539, 0.2257416546344757, 0.1219911277294159, -0.03837694600224495, 0.16717316210269928, -0.05477810651063919, 0.24976515769958496, 0.18239524960517883, 0.27495381236076355, -0.2932664155960083, 0.15084832906723022, -0.22672198712825775, 0.10495354235172272, 0.01107360515743494, 0.12297354638576508, 0.02858651615679264, -0.2720535695552826, 0.3368893563747406, -0.00678260438144207, -0.0167489442974329, -0.26164382696151733, -0.20347118377685547, 0.01645437441766262, -0.3188425302505493, 0.30525287985801697, 0.2288939356803894, -0.1819087713956833, 0.04386412724852562, 0.27058106660842896, 0.17517361044883728, -0.04636107757687569, 0.11719857156276703, -0.153090238571167, -0.20785701274871826, 0.23420049250125885, 0.4208863079547882, -0.2332834154367447, -0.20514804124832153, 0.21305465698242188, -0.005898074712604284, 0.5268996953964233, -0.002760642673820257, 0.14677368104457855, -0.04739395156502724, 0.04092767834663391, 0.006888688076287508, 0.2614933252334595, -0.2962924838066101, 0.27417972683906555, 0.11508619785308838, 0.17170514166355133, -0.24556584656238556, 0.20530112087726593, 0.23313556611537933, -0.35725459456443787, 0.1677008420228958, -0.07624396681785583, -0.13170523941516876, 0.09206101298332214, -0.01100922841578722, -0.2694423496723175, 0.14275799691677094, 0.016526201739907265, 0.15446507930755615, 0.06761620193719864, -0.037944495677948, 0.001677069696597755, -0.11144302785396576, -0.23384582996368408, -0.3120102286338806, -0.1624482423067093, -0.3977215588092804, -0.06387553364038467, 0.008114339783787727, -0.3996334373950958, -0.12149737030267715, -0.1357082575559616, 0.08747083693742752, 0.2900707721710205, -0.2533765435218811, 0.20959334075450897, -0.4090471863746643, 0.2506200671195984, -0.23925034701824188, 0.14151133596897125, 0.07685591280460358, 0.034771163016557693, 0.31146493554115295, -0.0501275435090065, 0.04738215357065201, -0.08007390797138214, 0.13019013404846191, -0.12466952204704285, 0.010426859371364117, -0.1264593005180359, 0.04937373474240303, -0.11188840121030807, -0.09684517234563828, -0.017826521769165993, 0.18972542881965637, 0.06353744119405746, 0.03280121088027954, -0.09279413521289825, 0.3012438714504242, -0.10702522099018097, 0.10706909000873566, 0.13914382457733154, 0.22629539668560028, 0.17715699970722198, 0.009577441960573196, 0.14063537120819092, -0.3157406449317932, -0.1445738524198532, 0.27532637119293213, -0.2422710806131363, 0.1699303239583969, 0.11789709329605103, 0.14974062144756317, -0.04279772564768791, -0.27944231033325195, -0.1714131087064743, 0.22561697661876678, -0.26912760734558105, 0.03410293534398079, 0.1435265839099884, 0.003709003794938326, 0.13023307919502258, -0.19393421709537506, -0.08114983141422272, -0.17869941890239716, 0.052389927208423615, 0.010974445380270481, 0.10009343922138214, 0.09073205292224884, -0.23781630396842957, -0.07109721750020981, -0.2405933439731598, 0.17379361391067505, 0.05279981344938278, -0.05995835363864899, -0.20540015399456024, 0.2694264352321625, -0.11872047185897827, 0.2651783525943756, 0.22073611617088318, -0.21287231147289276, 0.27058178186416626, 0.3324102461338043, 0.1941470056772232, 0.2804887890815735, 0.0874909907579422, -0.07486394792795181, -0.1760692149400711, -0.08010051399469376, 0.2088480293750763, -0.04455007612705231, 0.10379846394062042, 0.29069626331329346, 0.04961906746029854, 0.27928051352500916, -0.05872541666030884, -0.050258491188287735, -0.14818374812602997, -0.06749404221773148, 0.06667016446590424, -0.04343470558524132, -0.10730559378862381, 0.028793608769774437, 0.008505677804350853, -0.029477808624505997, 0.058966491371393204, 0.07358332723379135, 0.08521848917007446, -0.19912435114383698, 0.06937189400196075, 0.03715404495596886, 0.03830503672361374, 0.20020361244678497, 0.0013537531485781074, -0.04076796770095825, -0.12630757689476013, -0.09017001837491989, 0.06305426359176636, 0.17424863576889038, -0.07886422425508499, -0.15849649906158447, -0.16371163725852966, -0.14500536024570465, -0.1530562937259674, -0.10184084624052048, 0.17894722521305084, 0.1802394986152649, 0.06980029493570328, 0.0011027782456949353, -0.08614401519298553, -0.1566419005393982, 0.05533630773425102, -0.011479288339614868, -0.1488567739725113, -0.11303994059562683, 0.1782984435558319, 0.28125494718551636, 0.27602481842041016, -0.11050984263420105, -0.000355411582859233, 0.22751767933368683, -0.06496032327413559, -0.21562224626541138, 0.08689075708389282, -0.2529117465019226, -0.06144866347312927, -0.11277969181537628, 0.10280226171016693, 0.09100606292486191, 0.1937393695116043, 0.1539236158132553, -0.2529296278953552, -0.08511471748352051, 0.020759154111146927, -0.1494671106338501, -0.11043835431337357, 0.10268047451972961, 0.16061899065971375, -0.2995622456073761, -0.30974265933036804, 0.08195240795612335, 0.1794031262397766, 0.2112661451101303, 0.02476116642355919, 0.13641339540481567, -0.08050354570150375, -0.05460203066468239, 0.08194588124752045, 0.006693284958600998, 0.014120757579803467, -0.12020006030797958, -0.05059966444969177, -0.0302632637321949, 0.07796601206064224, 0.1336243450641632, -0.14239884912967682, -0.19121991097927094, 0.022418467327952385, -0.0893099382519722, -0.25309136509895325, -0.11416607350111008, 0.11437685787677765, 0.14257144927978516, -0.05238078162074089, -0.14647719264030457, 0.0029887580312788486, -0.017522085458040237, -0.20815514028072357, 0.1952475607395172, 0.00038090505404397845, -0.1590106040239334, 0.02641708217561245, 0.12704795598983765, 0.24262554943561554, 0.20321190357208252, -0.030412347987294197, 0.24825462698936462, 0.2696123719215393, -0.3856085538864136, -0.19142377376556396, -0.09635607898235321, -0.023001832887530327, -0.04766898974776268, 0.27745237946510315, 0.10160184651613235, 0.04011272266507149, -0.1368260532617569, -0.12214913219213486, -0.19768086075782776, -0.19679462909698486, -0.24413149058818817, -0.23013003170490265, -0.15412868559360504, 0.13997311890125275, 0.09578870236873627, -0.19241221249103546, -0.0775330662727356, 0.021832961589097977, 0.06670894473791122, -0.1866951286792755, 0.1399531215429306, 0.0937170684337616, -0.06976760178804398, -0.05121327564120293, 0.23678208887577057, 0.08243531733751297, 0.07391351461410522, -0.12727323174476624, 0.010105646215379238, 0.1380963921546936, -0.24313585460186005, 0.2097177803516388, 0.04171615093946457, -0.3552466630935669, -0.27735552191734314, -0.19399553537368774, -0.12359166145324707, 0.23542353510856628, 0.09388847649097443, -0.06460223346948624, 0.19909419119358063, 0.06782445311546326, 0.06991948932409286, 0.19984237849712372, -0.06802847981452942, -0.11740178614854813, 0.019579272717237473, 0.018032224848866463, 0.3408735990524292, 0.30389076471328735, -0.21936257183551788, -0.08007923513650894, 0.19013023376464844, 0.17577379941940308, 0.11133536696434021, -0.24503569304943085, -0.1215503066778183, 0.04853230342268944, 0.18957597017288208, 0.30899736285209656, 0.29630324244499207, -0.10230759531259537, -0.19831494987010956, 0.11257072538137436, -0.14833804965019226, -0.020594213157892227, -0.12426625192165375, 0.16995973885059357, -0.014951299875974655, -0.09885567426681519, -0.16889171302318573, 0.038650788366794586, -0.10999705642461777, -0.13546057045459747, -0.17478860914707184, 0.006857610773295164, -0.059956517070531845, -0.07608168572187424, -0.06871305406093597, -0.04259646311402321, 0.08374213427305222, -0.08364167809486389, -0.034453362226486206, -0.06020568311214447, 0.050118040293455124, -0.10234950482845306, -0.021232161670923233, 0.20804302394390106, -0.08352568745613098, -0.08943107724189758, 0.1444346159696579, 0.14157235622406006, -0.09394733607769012, 0.18844933807849884, -0.012061592191457748, 0.03757132962346077, -0.24543443322181702, -0.028422975912690163, 0.10734472423791885, 0.13356977701187134, -0.10693679004907608, -0.14729255437850952, -0.015588791109621525, -0.06462566554546356, -0.1712096482515335, -0.07166515290737152, 0.006709149107336998, 0.02207363024353981, 0.04813331365585327, -0.13253450393676758, -0.08326659351587296, -0.10257688909769058, 0.07252237945795059, -0.0935058444738388, -0.07049642503261566, 0.01494812685996294, 0.02819683402776718, -0.1792711615562439, 0.1825634390115738, 0.08759155124425888, -0.047225646674633026, -0.1030672937631607, -0.16634264588356018, -0.11345591396093369, 0.1289268583059311, -0.12013651430606842, 0.0010865797521546483, 0.054733894765377045, 0.01903962530195713, -0.15564274787902832, -0.10814809054136276, -0.19030538201332092, -0.1380019187927246, 0.07207447290420532, 0.0893823578953743, 0.05173373222351074, -0.03320356830954552, -0.07966981828212738, -0.02726285345852375, -0.007131099235266447, 0.12103506177663803, 0.11870114505290985, -0.21733590960502625], "bias": [0.04561346024274826, -0.1770174205303192, 0.49107569456100464, -0.46429914236068726, -0.06504214555025101, 0.23856821656227112, -0.14882676303386688, -0.5217380523681641, -0.1258639395236969, 0.25049784779548645, 0.3748006224632263, 0.3879969120025635, 0.1267489492893219, 0.5261803269386292, -0.14744789898395538, 0.2910006046295166, -0.0020021721720695496, 0.299235463142395, 0.3634801506996155, 0.5103540420532227, 0.5625889301300049, -0.4237976670265198, 0.3676292598247528, 0.462146520614624, 0.2478976547718048, 0.3506743013858795, -0.6720420122146606, -0.11993221938610077, -0.47634679079055786, 0.1506851613521576, -0.10551691055297852, 0.5614278316497803]}, {"in": 32, "out": 64, "k": 3, "stride": 2, "pad": 1, "weight": [-0.19766661524772644, -0.16413144767284393, 0.14214004576206207, 0.13992692530155182, 0.026264535263180733, 0.21992148458957672, -0.15534526109695435, 0.06867752969264984, -0.16264797747135162, -0.05169375613331795, -0.1974719613790512, -0.10297705978155136, 0.26172447204589844, -0.2793768346309662, 0.1436053365468979, 0.012970710173249245, 0.13698141276836395, -0.07472195476293564, -0.02569706365466118, -0.24163654446601868, 0.03627531975507736, -0.20315012335777283, -0.016133585944771767, 0.17100630700588226, -0.1591358482837677, 0.16525906324386597, 0.239273339509964, -0.06567670404911041, 0.09579291194677353, 0.09843862056732178, 0.2704806327819824, -0.08221448212862015, 0.21356120705604553, 0.05310063436627388, 0.17757724225521088, -0.02580081671476364, 0.04501236975193024, -0.11681415885686874, -0.12299147993326187, 0.19990259408950806, 0.12176679074764252, 0.2173386961221695, -0.05804770067334175, -0.17121592164039612, 0.19841137528419495, 0.36215314269065857, 0.1856226623058319, 0.1257946938276291, 0.1822323501110077, 0.20776082575321198, 0.12777547538280487, 0.11052783578634262, 0.3563629984855652, 0.19360749423503876, 0.18654759228229523, 0.07543711364269257, -0.08007816970348358, -0.10077157616615295, -0.02130766399204731, -0.20537668466567993, -0.011414289474487305, 0.0431194081902504, 0.3498972952365875, 0.22627578675746918, -0.107695572078228, -0.01800120249390602, 0.08891686052083969, 0.11810006946325302, -0.24106083810329437, 0.007660273928195238, -0.3132835328578949, 0.08682236820459366, 0.25916552543640137, 0.0019847778603434563, 0.14441800117492676, 0.24487319588661194, -0.06333670765161514, -0.10695642977952957, 0.26371872425079346, -0.0711095929145813, -0.02386658638715744, 0.3345695436000824, 0.027015017345547676, 0.10986516624689102, -0.15657676756381989, 0.30864423513412476, 0.16451245546340942, -0.15927943587303162, 0.1627354770898819, -0.1360427588224411, 0.1988995373249054, -0.09402234852313995, -0.29234176874160767, -0.23613646626472473, 0.014592019841074944, -0.06514838337898254, 0.07794563472270966, 0.03475726395845413, 0.14164462685585022, -0.010107402689754963, 0.007927718572318554, -0.04564462602138519, 0.1437007188796997, -0.005885048303753138, 0.17226369678974152, -0.19784826040267944, 0.10837326943874359, -0.13748310506343842, 0.0018436863319948316, 0.05480901524424553, 0.2559429407119751, -0.194939523935318, 0.17002806067466736, -0.12245166301727295, 0.1083938255906105, -0.20065847039222717, -0.16066353023052216, -0.025677885860204697, -0.13631388545036316, -0.19673214852809906, 0.015832897275686264, 0.20934158563613892, 0.1253564953804016, 0.1329326182603836, 0.14126300811767578, 0.09159187972545624, 0.07721065729856491, -0.06670769304037094, 0.2647986114025116, -0.11161069571971893, -2.48991054832004e-05, -0.11320353299379349, 0.014815149828791618, 0.1846170425415039, -0.2866789698600769, -0.155122771859169, 0.06276427209377289, 0.16355253756046295, -0.07318706810474396, 0.0934627577662468, -0.12108736485242844, -0.18933701515197754, 0.04965514317154884, 0.03308047726750374, -0.05265272408723831, 0.18675923347473145, 0.10420402884483337, 0.16821494698524475, -0.1127677708864212, 0.004536957014352083, -0.12134355306625366, -0.2049611657857895, 0.06464418023824692, 0.00011728822573786601, -0.12014426290988922, -0.08398076891899109, 0.0003828630142379552, 0.05457312613725662, 0.2064284384250641, -0.04997723549604416, -0.15368469059467316, -0.007278514094650745, 0.09188375622034073, -0.1520797312259674, -0.030890624970197678, 0.08892068266868591, -0.009266075678169727, -0.14424000680446625, -0.08945847302675247, 0.0681447684764862, -0.08469090610742569, -0.1443496197462082, -0.0016700612613931298, 0.0487138107419014, -0.17686308920383453, -0.1608479917049408, -0.17751917243003845, -0.205911323428154, 0.22065019607543945, -0.07162167131900787, 0.20943862199783325, -0.21623918414115906, -0.02601729892194271, 0.009919369593262672, -0.2036903351545334, -0.19147558510303497, -0.16665565967559814, 0.018805822357535362, 0.09928781539201736, 0.06872045248746872, 0.05825323611497879, -0.18310478329658508, -0.1904398798942566, -0.14691825211048126, 0.16019628942012787, 0.1151232048869133, 0.10659755766391754, 0.11104270070791245, -0.1865604966878891, -0.19366338849067688, -0.18812640011310577, -0.1792840212583542, 0.03298984840512276, 0.20522645115852356, -0.1325630098581314, -0.09336528927087784, 0.13465207815170288, 0.3023185431957245, 0.16763052344322205, 0.09933396428823471, -0.22540371119976044, -0.2737429440021515, 0.19119687378406525, 0.11072919517755508, -0.015590113587677479, -0.14670556783676147, -0.20326372981071472, -0.14441774785518646, 0.09246908128261566, -0.013280630111694336, 0.30401623249053955, 0.00724050123244524, 0.32786881923675537, -0.17108294367790222, -0.07515618205070496, -0.07912877202033997, 0.21845214068889618, -0.008073234930634499, -0.051932193338871, -0.050659433007240295, 0.14994816482067108, -0.013164902105927467, -0.2696020305156708, -0.2370259165763855, 0.24251429736614227, -0.22259525954723358, 0.09429045021533966, -0.02856154553592205, 0.23591849207878113, 0.19215382635593414, -0.2132684737443924, 0.18360839784145355, 0.16821758449077606, -0.00820902455598116, -0.049440640956163406, -0.1602558046579361, -0.1631116420030594, 0.08428139984607697, -0.08548315614461899, -0.187841534614563, 0.06116899102926254, -0.1577436923980713, 0.06669187545776367, 0.21518750488758087, -0.016688724979758263, -0.2114028036594391, 0.11217669397592545, -0.28431782126426697, -0.01814056746661663, 0.24398073554039001, -0.004663005471229553, 0.23253118991851807, 0.24206161499023438, -0.20472607016563416, -0.002505639335140586, -0.09750015288591385, -0.2260982245206833, 0.09931705892086029, 0.26838982105255127, -0.006216521840542555, -0.1018756777048111, 0.14474400877952576, -0.07034461200237274, -0.21371307969093323, 0.25907230377197266, 0.01695021241903305, 0.04059180989861488, -0.040726784616708755, 0.23187407851219177, -0.33681660890579224, -0.10860314220190048, -0.23188868165016174, -0.10006318241357803, 0.1001400575041771, 0.08972310274839401, 0.04319779947400093, -0.22200433909893036, -0.17250807583332062, 0.013598533347249031, 0.0949937105178833, 0.22290796041488647, 0.1159403994679451, 0.22044001519680023, 0.10506828129291534, -0.032210953533649445, 0.255886048078537, -0.05493755266070366, 0.20835883915424347, 0.012987867929041386, -0.024837592616677284, -0.19550630450248718, 0.002081268699839711, -0.1973162144422531, 0.04455752298235893, -0.08313071727752686, 0.1364334523677826, 0.07595591247081757, 0.06799521297216415, -0.007359928917139769, -0.21961261332035065, 0.35759347677230835, 0.022898688912391663, -0.3949030935764313, 0.10962478816509247, -0.05766948312520981, -0.10628710687160492, 0.30994582176208496, -0.24584148824214935, 0.3106237053871155, 0.25304684042930603, -0.07471978664398193, 0.10059528052806854, -0.15874239802360535, -0.21626368165016174, -0.17688360810279846, 0.12096591293811798, 0.1421928107738495, 0.02910890243947506, -0.05977509170770645, -0.1835036426782608, 0.01249176636338234, -0.1638762652873993, -0.0049599637277424335, -0.10604386776685715, 0.06336421519517899, -0.2206890732049942, 0.012559122405946255, 0.1221410483121872, -0.12336910516023636, -0.01660042442381382, 0.213235542178154, -0.24534860253334045, 0.09519301354885101, -0.22548608481884003, 0.23888802528381348, 0.025470536202192307, 0.15905062854290009, 0.19011789560317993, 0.13526186347007751, -0.2723468244075775, 0.2250729501247406, -0.23514080047607422, 0.07519115507602692, 0.21055211126804352, -0.04891480877995491, -0.08085979521274567, -0.1738235354423523, 0.27071043848991394, -0.027795283123850822, -0.2490173578262329, -0.11913396418094635, -0.10385490208864212, 0.2364128828048706, -0.04166353866457939, 0.1429528295993805, -0.1749042123556137, -0.08630434423685074, 0.24825149774551392, -0.23507565259933472, -0.19453886151313782, -0.20770160853862762, 0.02608831413090229, 0.018399987369775772, -0.16714656352996826, 0.1580490618944168, 0.010380505584180355, 0.3625916540622711, -0.006704986561089754, 0.2396615892648697, -0.14619651436805725, 0.303069144487381, -0.025455227121710777, 0.07224162667989731, 0.28134188055992126, -0.2721671760082245, -0.10874874889850616, -0.2382499873638153, 0.18599258363246918, 0.060384754091501236, 0.2018113136291504, -0.07805173844099045, 0.14481739699840546, -0.2426283210515976, 0.045994196087121964, -0.08065355569124222, -0.03201161324977875, 0.18759103119373322, 0.08813901990652084, -0.10418719798326492, -0.15573108196258545, -0.20466014742851257, 0.2016444206237793, 0.12298310548067093, -0.21964062750339508, 0.018283938989043236, -0.220524400472641, -0.264813631772995, -0.008262327872216702, -0.1540479212999344, 0.04445602744817734, -0.11686094850301743, -0.03191176801919937, -0.05188588425517082, 0.22725147008895874, 0.0030650540720671415, -0.025779040530323982, -0.04868629202246666, 0.02745700627565384, -0.24141083657741547, -0.211436927318573, -0.22447475790977478, -0.10487338155508041, 0.00300294766202569, 0.08883126825094223, -0.10206368565559387, 0.12634220719337463, 0.1281352937221527, 0.13659155368804932, -0.03513696789741516, 0.19125469028949738, 0.11114963889122009, -0.16163590550422668, 0.08331718295812607, 0.0568205751478672, -0.14418847858905792, 0.09163375198841095, -0.033900175243616104, 0.0979609489440918, -0.09014169126749039, 0.17321182787418365, -0.047033242881298065, 0.02124609798192978, -0.12261762470006943, 0.1563316136598587, -0.10274828225374222, 0.19794854521751404, -0.026457088068127632, -0.13725537061691284, -0.135210782289505, 0.0978972539305687, -0.018060894683003426, -0.09515906125307083, -0.08085332065820694, -0.09478960186243057, -0.07982571423053741, 0.03006874769926071, -0.14070987701416016, 0.027492498978972435, 0.02608068846166134, -0.021019408479332924, 0.09598886966705322, -0.1426590085029602, -0.13898715376853943, 0.03864000737667084, 0.02365967631340027, -0.07366172969341278, -0.130716010928154, -0.157834991812706, -0.02359047159552574, -0.11741317063570023, -0.0778995156288147, -0.12533827126026154, 0.023080773651599884, 0.08273505419492722, -0.0260901041328907, 0.029624927788972855, 0.004187759477645159, -0.11436717957258224, -0.19690002501010895, 0.21138782799243927, -0.08708993345499039, -0.0666993111371994, -0.22238485515117645, 0.019661422818899155, -0.21186773478984833, -0.08330117166042328, -0.29712527990341187, 0.0408044159412384, -0.06481964886188507, -0.14784301817417145, 0.1130097284913063, 0.07395153492689133, 0.17227746546268463, -0.26876476407051086, -0.007088274694979191, -0.016192037612199783, 0.03851553797721863, 0.1393454670906067, -0.12079968303442001, -0.07364597916603088, -0.2641018033027649, -0.2095847725868225, -0.15033574402332306, -0.1550850123167038, -0.24067096412181854, -0.258390337228775, 0.11781839281320572, -0.40471917390823364, -0.19016845524311066, -0.07664235681295395, 0.22285231947898865, -0.17347653210163116, -0.0066987392492592335, 0.060441479086875916, -0.08536402136087418, 0.2922593951225281, 0.2066335380077362, -0.17481555044651031, 0.32716259360313416, 0.14475029706954956, -0.1517145335674286, -0.17214442789554596, -0.2036326676607132, 0.13086125254631042, -0.2348436713218689, 0.0690750703215599, 0.163940891623497, -0.12358994781970978, -0.08351853489875793, 0.031187765300273895, -0.16218706965446472, 0.0243223924189806, 0.0920405313372612, -0.04194820672273636, -0.02040613256394863, 0.17001540958881378, -0.28371962904930115, 0.007766454014927149, -0.013277464546263218, -0.10819479823112488, 0.0033968377392739058, 0.16801606118679047, -0.2746542692184448, 0.10764272511005402, -0.19889096915721893, 0.21311348676681519, 0.15961551666259766, 0.2336665689945221, 0.19605602324008942, -0.004074953030794859, 0.08079848438501358, -0.2343921661376953, 0.1661698818206787, -0.24211642146110535, 0.22680750489234924, 0.2153121680021286, -0.04527215659618378, 0.1086338609457016, 0.2000802755355835, -0.08288303762674332, 0.26363277435302734, 0.2279966175556183, 0.24474677443504333, -0.011604527942836285, 0.26122960448265076, 0.20944111049175262, -0.05126609280705452, 0.1704682558774948, -0.03425712510943413, -0.13694563508033752, -0.024297112599015236, -0.3381825387477875, -0.17417362332344055, 0.07342317700386047, 0.2171154022216797, 0.04843214899301529, 0.06571222841739655, -0.14395371079444885, -0.12371931970119476, -0.07394637912511826, -0.16400128602981567, 0.1487542688846588, 0.19602464139461517, -0.2084449678659439, 0.13584554195404053, -0.13688777387142181, 0.05859006196260452, 0.10590174794197083, 0.20217232406139374, 0.29400262236595154, -0.05179331451654434, 0.09625479578971863, 0.0646548941731453, 0.09991171956062317, 0.040791623294353485, 0.13474228978157043, 0.17394813895225525, -0.0620737299323082, 0.12448720633983612, -0.16191965341567993, 0.03940548747777939, -0.15455815196037292, -0.09736497700214386, -0.11924342811107635, -0.07187926024198532, -0.020798200741410255, -0.25858691334724426, -0.32470786571502686, -0.1164509579539299, 0.00034555967431515455, 0.16461096704006195, 0.16090568900108337, 0.06763461232185364, -0.2309347540140152, 0.013577435165643692, -0.03572875261306763, -0.2112722396850586, 0.09039963036775589, 0.23382912576198578, -0.18224871158599854, 0.133281409740448, -0.03579770773649216, -0.11986121535301208, 0.0984644964337349, -0.14448745548725128, 0.06636270135641098, -0.0682101622223854, -0.023969195783138275, -0.1389600783586502, -0.28882884979248047, -0.08372093737125397, -0.18297676742076874, 0.06811349838972092, -0.03049740195274353, 0.11734119802713394, 0.1005660742521286, -0.12720856070518494, -0.10790883749723434, -0.11782744526863098, -0.23544251918792725, -0.06756871938705444, 0.27616578340530396, -0.2580336332321167, 0.24998918175697327, 0.09790901839733124, 0.10512740910053253, 0.2722776234149933, 0.06488494575023651, -0.19018711149692535, -0.07591802626848221, -0.023490196093916893, 0.10401590168476105, -0.14570240676403046, -0.26672160625457764, -0.045487359166145325, -0.143445685505867, -0.05451308563351631, 0.05375300720334053, 0.1591690331697464, 0.24978342652320862, -0.07166927307844162, -0.12869255244731903, 0.16635088622570038, 0.17770786583423615, -0.16595108807086945, 0.21464577317237854, 0.35011860728263855, -0.006821304559707642, 0.11245959997177124, -0.07694551348686218, -0.1320170760154724, -0.33218488097190857, -0.0762251615524292, 0.061910323798656464, -0.1218695417046547, 0.0667676106095314, -0.07185141742229462, -0.012292096391320229, 0.05853588506579399, -0.09418985992670059, -0.03918180614709854, -0.045641884207725525, 0.06265763193368912, -0.12993058562278748, -0.1978556215763092, -0.09599267691373825, -0.11731591820716858, 0.01717373915016651, 0.0647655576467514, 0.021913008764386177, 0.06479386240243912, -0.13287727534770966, -0.06389659643173218, -0.19283300638198853, -0.21710741519927979, -0.17534874379634857, -0.10921500623226166, -0.015203909017145634, 0.16621527075767517, -0.14947378635406494, -0.12194564193487167, -0.15956899523735046, -0.026252560317516327, -0.06165352091193199, 0.05746952444314957, -0.07580015063285828, -0.11793021857738495, -0.11662540584802628, -0.08028730750083923, -0.08476552367210388, -0.06338639557361603, -0.08990774303674698, -0.08110785484313965, 0.1801576018333435, 0.12388870120048523, 0.04164909943938255, -0.06550894677639008, -0.004481864627450705, 0.023423101752996445, -0.08211620151996613, -0.04517148435115814, 0.0266406387090683, 0.08738544583320618, 0.10681725293397903, -0.09247671067714691, -0.010262797586619854, -0.06173958629369736, -0.035254430025815964, 0.014700177125632763, -0.05127081647515297, 0.12123356759548187, 0.03736593946814537, -0.12624326348304749, 0.07219851016998291, -0.01425194088369608, 0.058059047907590866, -0.039135124534368515, -0.08488693088293076, -0.12921366095542908, -0.09150471538305283, -0.1406053751707077, -0.02591506950557232, 0.03328632935881615, -0.07300431281328201, -0.08490261435508728, 0.02684664912521839, -0.04100869968533516, -0.04114599898457527, 0.1289862096309662, 0.05446987226605415, -0.06978989392518997, 0.09105582535266876, -0.1591987907886505, -0.12602375447750092, 0.05265374109148979, -0.07571763545274734, -0.030088558793067932, -0.03922194987535477, 0.11161951720714569, -0.14463230967521667, 0.03403478488326073, -0.12655967473983765, -0.13274115324020386, -0.045105595141649246, 4.9194597522728145e-05, -0.11100522428750992, 0.011985520832240582, -0.14987872540950775, 0.15348991751670837, 0.05514981225132942, 0.05075419321656227, -0.027457265183329582, -0.009013216942548752, 0.02926567941904068, 0.11458221822977066, 0.33654898405075073, 0.21439726650714874, 0.2612099051475525, -0.10178135335445404, 0.11826997250318527, -0.15561315417289734, 0.24003703892230988, 0.21434573829174042, 0.04695265740156174, 0.13654373586177826, -0.03121168725192547, -0.15325705707073212, 0.1272566169500351, 0.1048167422413826, 0.06608495861291885, -0.0017484159907326102, -0.04579240828752518, -0.05241122096776962, -0.09914203733205795, -0.04785672202706337, -0.06211906671524048, 0.1485680192708969, -0.09181707352399826, -0.21789582073688507, -0.03347430005669594, -0.03852640837430954, 0.09809789806604385, -0.20580674707889557, 0.036295101046562195, 0.12019512057304382, -0.19633443653583527, 0.15103387832641602, 0.024842867627739906, 0.1587783545255661, 0.2632162272930145, 0.26671257615089417, 0.07924365252256393, -0.09870429337024689, -0.2486063838005066, -0.10198379307985306, 0.11307062953710556, 0.06413216888904572, -0.1053791493177414, -0.20644506812095642, -0.23032493889331818, 0.04116745665669441, 0.005174737889319658, 0.025233620777726173, -0.1577649861574173, -0.11810801923274994, 0.1649782508611679, -0.10552845895290375, 0.08368568122386932, -0.06350013613700867, -0.23458555340766907, -0.17938587069511414, 0.049898479133844376, 0.2091793715953827, -0.0633380115032196, -0.009720086120069027, 0.046046167612075806, -0.0824708491563797, -0.32316407561302185, -0.20309068262577057, -0.05457422509789467, -0.11235038936138153, -0.044024042785167694, -0.027222227305173874, -0.19235309958457947, 0.016831455752253532, 0.13110804557800293, 0.01318845059722662, 0.1305822730064392, 0.28876757621765137, -0.03154309093952179, -0.0954749807715416, -0.12306276708841324, -0.10829738527536392, 0.18874166905879974, -0.13808244466781616, 0.12181335687637329, 0.0970994234085083, 0.17958755791187286, 0.13715025782585144, 0.16815289855003357, 0.10220907628536224, 0.1668388396501541, -0.1442728489637375, -0.14006513357162476, 0.1385461539030075, 0.06515513360500336, 0.02118152193725109, -0.22151248157024384, 0.12373219430446625, -0.0930265560746193, 0.15180690586566925, -0.05444358289241791, -0.18967729806900024, -0.08335995674133301, 0.22668081521987915, 0.17572340369224548, -0.07107718288898468, 0.08382155746221542, 0.04811985418200493, 0.059524357318878174, 0.04882360249757767, 0.13214804232120514, -0.0012785354629158974, 0.04961638152599335, 0.08611667901277542, -0.06036777421832085, 0.23182237148284912, 0.18978559970855713, 0.1384969800710678, 0.13060520589351654, -0.004770183935761452, 0.026449330151081085, -0.05128135532140732, 0.06365235149860382, 0.06565790623426437, -0.2217184603214264, -0.02089107222855091, 0.13722416758537292, -0.05895718187093735, -0.0699331983923912, 0.058488547801971436, -0.04805004224181175, -0.018098723143339157, 0.23304392397403717, 0.03373955190181732, 0.021371295675635338, 0.08241241425275803, -0.0221527311950922, 0.05805864930152893, -0.0713699609041214, 0.08756183832883835, 0.010101492516696453, 0.05791875347495079, 0.1339438110589981, -0.04017263278365135, -0.1250476986169815, 0.03781828656792641, -0.01763564720749855, 0.06658825278282166, -0.04132292792201042, -0.14383332431316376, 0.09512857347726822, -0.1112961396574974, -0.039914198219776154, -0.029869403690099716, 0.06839944422245026, 0.14555439352989197, 0.1316005140542984, 0.1369515061378479, -0.04705721512436867, -0.06793465465307236, -0.17241348326206207, -0.19824357330799103, 0.11293791979551315, 0.036246977746486664, 0.034157894551754, 0.24911834299564362, 0.11507726460695267, -0.06879021972417831, -0.010789874941110611, 0.06650756299495697, -0.15864309668540955, -0.03728567808866501, 0.05899273231625557, 0.19976799190044403, -0.061842162162065506, 0.04605817794799805, 0.21677714586257935, -0.038450125604867935, -0.048567965626716614, -0.2106887847185135, -0.13825567066669464, 0.13611790537834167, -0.18095500767230988, -0.11834343522787094, 0.1806042492389679, 0.13468222320079803, 0.08586078137159348, 0.22921812534332275, 0.08525767922401428, 0.10505896061658859, 0.1236741691827774, 0.03532743081450462, -0.10914099216461182, 0.05831463634967804, 0.20988528430461884, -0.15022245049476624, -0.16705602407455444, 0.15385518968105316, -0.06363055855035782, -0.19928215444087982, 0.11557617038488388, -0.3092796504497528, -0.2378101795911789, 0.06404551863670349, 0.21424123644828796, 0.28060880303382874, -0.04295135289430618, 0.13006457686424255, -0.04957185685634613, 0.13434456288814545, -0.04007509723305702, -0.05196684971451759, 0.11164075881242752, 0.06769242882728577, 0.005033308640122414, -0.029399260878562927, -0.015745557844638824, 0.2625969648361206, -0.0676041692495346, -0.015157660469412804, 0.2891708314418793, 0.25499817728996277, 0.10978681594133377, -0.23755034804344177, 0.18181149661540985, -0.11794161796569824, 0.043876830488443375, 0.15403249859809875, 0.05336308106780052, -0.022849764674901962, -0.24726824462413788, -0.08717325329780579, 0.14160482585430145, 0.07130343466997147, 0.1337968111038208, 0.3318581283092499, -0.027824608609080315, -0.0776524767279625, 0.21971182525157928, 0.1882825493812561, -0.04607201740145683, -0.03792237490415573, 0.06975257396697998, -0.0006352562340907753, 0.17523789405822754, -0.008983740583062172, -0.07195144146680832, -0.11806034296751022, -0.2760673463344574, 0.10373950004577637, -0.016014793887734413, -0.11373749375343323, 0.05870567634701729, -0.14102104306221008, -0.11834947764873505, 0.05477302893996239, 0.14224618673324585, -0.19488802552223206, -0.003289103275164962, -0.09988951683044434, 0.013980175368487835, 0.162538081407547, 0.11063365638256073, 0.0518711693584919, -0.15218791365623474, 0.03106595203280449, 0.24389739334583282, -0.053971659392118454, -0.24816252291202545, 0.2312185913324356, -0.07508434355258942, 0.2897035777568817, -0.07640597969293594, 0.13777337968349457, -0.133828803896904, 0.09966833144426346, 0.174783393740654, -0.08646642416715622, 0.35919246077537537, 0.09741787612438202, -0.05583888664841652, -0.19014091789722443, -0.01719946227967739, -0.10767661035060883, 0.002811318961903453, -0.10626794397830963, -0.19942952692508698, -0.10374581813812256, -0.07855205982923508, 0.3402601182460785, 0.2094268649816513, -0.028727462515234947, -0.030563658103346825, 0.014501173049211502, -0.21972790360450745, 0.1602572798728943, -0.17321979999542236, -0.2943421006202698, 0.03041732870042324, -0.028706446290016174, -0.17724163830280304, 0.3245149552822113, -0.05528828501701355, -0.21844053268432617, 0.07817219942808151, 0.07036429643630981, -0.08418464660644531, -0.11810935288667679, 0.138151153922081, -0.1831744909286499, 0.14677274227142334, 0.02923346683382988, 0.1729002445936203, -0.26021528244018555, -0.2280556857585907, 0.09972408413887024, 0.1386975198984146, 0.0890774205327034, 0.05913952365517616, 0.03647463768720627, -0.22555489838123322, 0.22192716598510742, -0.20418746769428253, 0.1214810386300087, -0.16470113396644592, 0.15357515215873718, -0.24926066398620605, -0.05905060097575188, -0.08181951195001602, 0.22445668280124664, 0.1358865201473236, 0.03258058801293373, -0.22663910686969757, 0.08472108840942383, 0.17858149111270905, -0.013258400373160839, -0.20163077116012573, 0.12728571891784668, 0.16441302001476288, 0.1303366720676422, -0.08778943121433258, -0.28606465458869934, -0.011265259236097336, -0.14966274797916412, 0.14999516308307648, 0.21451584994792938, 0.1565190851688385, -0.16255627572536469, 0.17893953621387482, -0.021219221875071526, -0.1134902611374855, 0.06379517167806625, -0.06254181265830994, 0.007774719502776861, 0.07776272296905518, -0.12671063840389252, -0.28476977348327637, -0.09633227437734604, -0.12702199816703796, -0.04564158245921135, -0.28471800684928894, 0.029481984674930573, 0.20478911697864532, 0.25220948457717896, -0.26370322704315186, -0.05789751559495926, 0.1622939258813858, -0.060379333794116974, -0.15255382657051086, -0.2749656140804291, -0.10565698146820068, 0.23026899993419647, -0.1479925662279129, 0.2495591640472412, 0.18853989243507385, -0.14323069155216217, -0.10097592324018478, 0.005689848214387894, 0.19382168352603912, 0.05829860270023346, 0.04973629489541054, -0.16306662559509277, -0.061239708214998245, -0.11213615536689758, -0.030824163928627968, 0.004118101205676794, -0.1503148227930069, -0.05463719740509987, 0.07707052677869797, 0.34502777457237244, 0.18166901171207428, 0.12108652293682098, 0.20476612448692322, -0.11191337555646896, -0.1034427359700203, -0.12693333625793457, 0.04397256672382355, -0.19068218767642975, -0.0487339124083519, 0.33693206310272217, 0.18016570806503296, 0.24026188254356384, 0.14689086377620697, -0.06329414248466492, 0.21158325672149658, 0.151103213429451, -0.041054390370845795, 0.1911405771970749, 0.13405382633209229, 0.05468767508864403, 0.13657978177070618, 0.09855102002620697, 0.21077732741832733, 0.2278909832239151, 0.14718352258205414, 0.033157046884298325, 0.35213592648506165, 0.274419903755188, 0.2777244448661804, -0.17260806262493134, 0.17448389530181885, 0.03699130564928055, 0.02132282219827175, -0.055051546543836594, -0.18717864155769348, -0.20532654225826263, -0.01810808852314949, -0.022503085434436798, 0.05917102098464966, -0.22177818417549133, 0.10055883228778839, 0.16895781457424164, 0.08118215203285217, -0.2779909074306488, -0.27863410115242004, -0.07820089161396027, 0.11439445614814758, 0.10924629122018814, 0.062331631779670715, 0.10226506739854813, -0.039715271443128586, -0.16222016513347626, -0.13876593112945557, 0.09667396545410156, -0.30295178294181824, -0.06815560907125473, 0.15736831724643707, -0.05287709832191467, 0.02156984992325306, 0.203720360994339, -0.03545459359884262, 0.16582095623016357, -0.1241120770573616, 0.35932427644729614, 0.3028535842895508, 0.104367695748806, -0.08226967602968216, 0.08392011374235153, -0.15806248784065247, -0.20055212080478668, 0.17805789411067963, -0.2193291336297989, 0.16805744171142578, 0.08307291567325592, 0.014183213002979755, -0.17172729969024658, -0.18282049894332886, -0.1531166434288025, 0.22506405413150787, 0.0048951334320008755, 0.18663659691810608, -0.17691397666931152, 0.2811289131641388, 0.01477085705846548, -0.23635566234588623, 0.19912095367908478, -0.040781982243061066, -0.09899859875440598, 0.19003698229789734, -0.10607481002807617, -0.025388548150658607, -0.31868547201156616, 0.03949306905269623, -0.11817546933889389, 0.16157138347625732, -0.057131823152303696, -0.09147290140390396, 0.14430874586105347, 0.2060868889093399, 0.01950225420296192, -0.035060469061136246, 0.21807578206062317, -0.026059947907924652, 0.1910964399576187, 0.3227924704551697, -0.2619491219520569, -0.36882302165031433, -0.42865443229675293, 0.06107904016971588, -0.19025984406471252, 0.0653982162475586, 0.10317046195268631, -0.016796400770545006, -0.3496997058391571, 0.2753657400608063, 0.29147160053253174, 0.022786272689700127, -0.2007594108581543, -0.31701281666755676, -0.035975437611341476, 0.205821231007576, -0.2580476403236389, 0.05858859047293663, -0.3201373815536499, -0.1438606232404709, 0.001830355729907751, -0.4285951256752014, 0.09450464695692062, -0.42511263489723206, 0.09745936840772629, 0.1678362488746643, -0.1939709186553955, 0.3144926130771637, -0.0012518889270722866, -0.08152972161769867, 0.11405842006206512, 0.22677822411060333, -0.06283548474311829, -0.054040729999542236, 0.1941920816898346, -0.06802774965763092, 0.0194157175719738, 0.10858412832021713, -0.02756236307322979, -0.09506101161241531, -0.3655601143836975, -0.3285508155822754, -0.02306489646434784, -0.31331515312194824, -0.08326339721679688, 0.20787280797958374, -0.0026251922827214003, 0.08335835486650467, -0.281313955783844, 0.12124904245138168, 0.2841438353061676, -0.21908076107501984, 0.08800152689218521, 0.17351524531841278, 0.3278815746307373, -0.09333024173974991, 0.019998162984848022, 0.10112977027893066, 0.21309664845466614, -0.32381048798561096, -0.463053822517395, 0.2017083764076233, -0.02615550346672535, 0.2782438397407532, 0.12787559628486633, 0.3088121712207794, -0.34915992617607117, 0.21067798137664795, 0.3373347222805023, -0.3093765676021576, 0.12453676760196686, 0.24904991686344147, -0.026826130226254463, -0.1158333420753479, -0.10664424300193787, -0.21066886186599731, -0.27637726068496704, -0.05854906141757965, -0.023456797003746033, -0.0011375213507562876, -0.17757432162761688, 0.04444839432835579, 0.04533403366804123, 0.2689387798309326, 0.056529395282268524, -0.21760591864585876, -0.413959264755249, -0.011063406243920326, -0.18089836835861206, 0.22784091532230377, -0.16897258162498474, 0.2971680164337158, 0.17764440178871155, 0.1118776947259903, 0.29972755908966064, -0.2719881236553192, 0.34565937519073486, 0.20383085310459137, -0.26149097084999084, -0.1783166080713272, -0.04587724432349205, 0.015773482620716095, -0.09694740921258926, 0.10805406421422958, -0.3026250898838043, -0.1729695349931717, 0.1492876559495926, 0.3890165388584137, 0.0018955861451104283, 0.1953541785478592, 0.1574018895626068, 0.09243772178888321, -0.16679783165454865, 0.23168012499809265, 0.021852804347872734, 0.1250355839729309, -0.28238895535469055, -0.3437696695327759, -0.16271832585334778, 0.09434329718351364, -0.08538303524255753, -0.2464701235294342, 0.04469689354300499, 0.03367083519697189, 0.21481718122959137, 0.3596551716327667, -0.06785962730646133, 0.34881383180618286, 0.2608763575553894, 0.1252215951681137, -0.19883401691913605, -0.1903037130832672, -0.3366551995277405, 0.09788130968809128, 0.07170075178146362, 0.1796422302722931, 0.27795127034187317, -0.04501057043671608, 0.297978937625885, -0.2100723385810852, -0.07782845944166183, 0.2351188212633133, -0.07047168910503387, -0.08120882511138916, -0.06087494641542435, 0.5024751424789429, -0.33660951256752014, 0.318691223859787, 0.2502417266368866, -0.2933606803417206, -0.1729835867881775, -0.05221996456384659, -0.16719074547290802, 0.28554660081863403, 0.20137231051921844, 0.11634893715381622, -0.4047197997570038, -0.03654393181204796, -0.3052648603916168, -0.0981878936290741, -0.0732586681842804, -0.2043476402759552, -0.16712753474712372, 0.12319892644882202, -0.10584726184606552, -0.06961758434772491, -0.10363932698965073, 0.18377521634101868, 0.18726514279842377, 0.21528787910938263, -0.26440098881721497, -0.13290895521640778, -0.41613608598709106, 0.10332787036895752, -0.007598263677209616, 0.12979307770729065, -0.06434135138988495, 0.059518907219171524, 0.1558622270822525, 0.04520140588283539, 0.10608889907598495, 0.03423849865794182, 0.19940122961997986, -0.16182443499565125, -0.06164370849728584, -0.1848638653755188, 0.07499464601278305, 0.21502801775932312, 0.005519128404557705, -0.2387273907661438, -0.14148041605949402, -0.1967765986919403, 0.03621846064925194, 0.07731569558382034, 0.21021291613578796, 0.1880207657814026, 0.17032331228256226, -0.19049513339996338, -0.12201201915740967, -0.1965738832950592, 0.06151498481631279, 0.1966066062450409, 0.11109328269958496, 0.0664391964673996, 0.14229172468185425, -0.23581953346729279, 0.12426254153251648, 0.17030514776706696, -0.18057553470134735, 0.1057824119925499, -0.03726750984787941, -0.30689737200737, -0.24915114045143127, -0.08726816624403, -0.1806115061044693, 0.1658744364976883, -0.12118583172559738, 0.21909862756729126, -0.19044728577136993, 0.10067874193191528, -0.09980818629264832, 0.15257498621940613, -0.09929721802473068, -0.055951785296201706, 0.10606354475021362, -0.15376345813274384, -0.21963639557361603, -0.17777618765830994, -0.1747567355632782, -0.07650931924581528, -0.3101564645767212, -0.1965002715587616, 0.23383335769176483, 0.11295740306377411, 0.009620602242648602, -0.11118030548095703, -0.09384362399578094, 0.1883884221315384, -0.1177760660648346, -0.11937025189399719, -0.20905612409114838, 0.0035455068573355675, 0.01918138936161995, -0.17985130846500397, -0.1240140050649643, 0.1432303935289383, 0.007749494630843401, -0.1300642341375351, 0.0884486511349678, -0.004744619131088257, -0.30056264996528625, -0.25805872678756714, 0.17849420011043549, -0.04314328357577324, -0.23417115211486816, -0.15031591057777405, 0.19673998653888702, -0.021273404359817505, -0.14014378190040588, 0.07576034963130951, -0.09388478845357895, -0.2457558512687683, -0.0309018362313509, -0.10569923371076584, -0.2107221931219101, -0.11040440201759338, -0.10762839764356613, 0.18566809594631195, -0.03519180789589882, -0.02296065352857113, -0.2445363849401474, 0.19067180156707764, -0.060767486691474915, 0.15192297101020813, -0.2037404179573059, -0.18097048997879028, -0.21298573911190033, -0.07639534771442413, -0.2792295515537262, 0.04142455384135246, -0.08232320845127106, -0.2512746751308441, -0.10383642464876175, -0.0356624498963356, 0.2407505065202713, -0.29661694169044495, 0.24333633482456207, 0.19648467004299164, 0.1486886590719223, 0.07875752449035645, 0.12309616804122925, -0.12565533816814423, 0.2064584195613861, -0.03881661966443062, -0.323692262172699, 0.014838051982223988, -0.22498807311058044, -0.13930080831050873, 0.02825920656323433, 0.12800206243991852, 0.09863901138305664, 0.08456496894359589, -0.24036073684692383, -0.10730921477079391, 0.07571139186620712, 0.19284911453723907, -0.09252849966287613, -0.017675437033176422, -0.12793958187103271, -0.12564004957675934, 0.04696405678987503, -0.1383018046617508, 0.20252244174480438, -0.024360300973057747, 0.030702024698257446, -0.1952199637889862, 0.12858173251152039, 0.16873539984226227, 0.2183481752872467, 0.12719500064849854, -0.006847969722002745, 0.17445549368858337, -0.08279944956302643, 0.15736335515975952, 0.1190253347158432, 0.2165897935628891, -0.15461845695972443, 0.25559911131858826, 0.1708897203207016, 0.027792755514383316, 0.14394383132457733, 0.22357355058193207, -0.1391560584306717, 0.04738011583685875, -0.0647827759385109, -0.13031552731990814, 0.16830691695213318, -0.05141330510377884, -0.10463371872901917, -0.22356997430324554, 0.09675008058547974, -0.09159970283508301, 0.0035063191317021847, 0.21987976133823395, 0.07910393178462982, 0.2285282462835312, 0.01776053197681904, 0.15615563094615936, -0.19311939179897308, -0.24326129257678986, 0.1286918669939041, -0.23906223475933075, -0.10720018297433853, 0.03434084355831146, -0.2679295837879181, -0.17649881541728973, 0.13944211602210999, 0.07381836324930191, -0.35880494117736816, 0.043726496398448944, -0.1709691733121872, 0.2552306354045868, 0.04100271686911583, -0.17686596512794495, -0.06404181569814682, -0.048569366335868835, 0.2057054042816162, -0.18849648535251617, -0.15924182534217834, 0.20205318927764893, -0.05060502141714096, -0.19756729900836945, 0.1001153439283371, -0.012550482526421547, -0.22912560403347015, -0.11184699088335037, -0.0889582633972168, -0.20983287692070007, -0.08128701895475388, -0.2095867395401001, -0.10743783414363861, 0.12810975313186646, 0.3389540910720825, -0.07392863929271698, 0.316938579082489, -0.19607500731945038, -0.11781645566225052, -0.1343924105167389, 0.10947376489639282, 0.2234678417444229, 0.19700050354003906, 0.17245282232761383, -0.2533499598503113, 0.32288816571235657, -0.00039197076694108546, -0.20545925199985504, -0.011550595052540302, -0.12694557011127472, 0.08512745797634125, 0.018721820786595345, -0.14429563283920288, -0.2952522337436676, 0.19972281157970428, 0.15273188054561615, 0.1852595955133438, -0.11745402216911316, 0.18636851012706757, 0.03480929881334305, -0.11213618516921997, -0.05395324155688286, -0.09450456500053406, 0.08783359825611115, 0.33431509137153625, -0.08805939555168152, 0.22098813951015472, 0.07170021533966064, 0.08254136890172958, 0.06918934732675552, -0.24209226667881012, 0.2897379398345947, 0.1302286982536316, 0.20781514048576355, -0.06693612039089203, -0.12349104136228561, 0.040964942425489426, 0.060566678643226624, -0.17485442757606506, -0.018384819850325584, -0.1329813152551651, 0.2832091152667999, 0.1813330352306366, 0.05572698265314102, -0.09752319008111954, -0.12092173844575882, -0.05257866159081459, 0.11530248820781708, -0.09368399530649185, 0.06519963592290878, 0.22093945741653442, -0.11109710484743118, -0.07335487753152847, 0.00360210333019495, -0.14823304116725922, 0.16128511726856232, -0.001447124406695366, -0.23173882067203522, -0.043828267604112625, 0.3329471945762634, 0.11687547713518143, -0.15524931252002716, 0.17498408257961273, -0.18888366222381592, -0.24678093194961548, -0.1910606175661087, -0.06943453103303909, 0.08059796690940857, -0.1657683551311493, 0.04386585205793381, 0.11294493824243546, 0.08127129077911377, 0.009274842217564583, 0.014663451351225376, -0.03446817770600319, -0.14078032970428467, -0.04380914196372032, 0.06635154783725739, -0.16568623483181, -0.08796030282974243, 0.004660369828343391, 0.058230284601449966, 0.16831021010875702, -0.14070084691047668, -0.05208103358745575, -0.05269193649291992, -0.2540361285209656, -0.2811177968978882, 0.15600886940956116, -0.057863008230924606, 0.22266685962677002, 0.2704395055770874, -0.14739908277988434, 0.0014002163661643863, -0.00022455457656178623, 0.05341804400086403, -0.2228849232196808, 0.09296788275241852, 0.053482308983802795, -0.25880128145217896, -0.003988569136708975, -0.029622752219438553, 0.14848841726779938, 0.023813294246792793, -0.06016092002391815, 0.10544908791780472, 0.04938336834311485, -0.05610659345984459, 0.16388864815235138, -0.004669742193073034, -0.265919029712677, 0.24832113087177277, -0.10357069224119186, 0.21708375215530396, -0.06064208596944809, 0.11818797141313553, -0.0006706542917527258, 0.2257542461156845, 0.25036895275115967, 0.057511329650878906, -0.10160224139690399, 0.1407199501991272, 0.10850457847118378, -0.12260916829109192, 0.1146993488073349, 0.02175670489668846, -0.07536277920007706, -0.07634326070547104, -0.06539656221866608, 0.17714574933052063, 0.15596725046634674, -0.22036109864711761, -0.10661567747592926, 0.14661173522472382, 0.1136280819773674, -0.1158924400806427, 0.16104625165462494, 0.061737969517707825, -0.1277722865343094, -0.22023582458496094, -0.18638531863689423, -0.1629149615764618, 0.16573771834373474, 0.03399423882365227, 0.10833405703306198, 0.18871238827705383, -0.08915571123361588, -0.06294361501932144, -0.12536554038524628, -0.006509303115308285, -0.24879267811775208, -0.13810548186302185, -0.012486834079027176, 0.07085294276475906, -0.13342459499835968, 0.28020229935646057, -0.18210093677043915, -0.0050300913862884045, -0.11590515822172165, 0.18386104702949524, -0.0007246795576065779, 0.2759074866771698, -0.17127077281475067, 0.08881724625825882, -0.054796312004327774, 