{"input_len": 1024, "embed_dim": 32, "n_features": 12, "preprocess": {"l_out": 1024, "target_frac": 0.5, "nfft": 512, "energy_edge": 0.005, "noise_floor_scale": 1.44, "smooth": 5}, "pool": "mean_std", "convs": [{"in": 2, "out": 16, "k": 7, "stride": 2, "pad": 3, "weight": [-0.14523059129714966, -0.5960046052932739, -0.005536732729524374, 0.4041833281517029, 0.11439914256334305, -0.04818747937679291, -0.5981618762016296, 0.2890882194042206, 0.13571558892726898, -0.22589276731014252, -0.47205016016960144, 0.33405402302742004, 0.46176764369010925, -0.19623039662837982, 0.17149661481380463, 0.3197912871837616, 0.49604836106300354, 0.34331634640693665, 0.2966437339782715, 0.2969169616699219, -0.008173671551048756, -0.08696018159389496, -0.26875969767570496, 0.23907317221164703, -0.33649566769599915, -0.08119311183691025, 0.290714830160141, -0.3061673641204834, -0.10659024864435196, 0.42942315340042114, 0.3508185148239136, 0.44052547216415405, -0.087821826338768, -0.03322775289416313, 0.39186254143714905, -0.3086767792701721, 0.004466490354388952, -0.30226197838783264, 0.3575195372104645, 0.6660826802253723, -0.009331610053777695, 0.11425136774778366, -0.4512214958667755, -0.3379821181297302, -0.02055642195045948, -0.11331090331077576, -0.04439682886004448, -0.36442211270332336, 0.4837636351585388, -0.12359157204627991, -0.26749104261398315, -0.14465829730033875, -0.3909049928188324, -0.11026586592197418, -0.11380801349878311, -0.3376161754131317, 0.07423406094312668, 0.3109401762485504, -0.41068318486213684, -0.19006705284118652, 0.28927934169769287, -0.26472562551498413, -0.24166612327098846, -0.30695605278015137, -0.11259060353040695, -0.2825004458427429, -0.5532560348510742, 0.20547890663146973, 0.38313329219818115, 0.5725802779197693, -0.06750677525997162, -0.007436553947627544, 0.5603311061859131, 0.389957070350647, 0.2295716255903244, 0.1581425964832306, 0.14604559540748596, 0.14419659972190857, -0.14856335520744324, 0.39707449078559875, 0.37107786536216736, -0.22848501801490784, -0.30061304569244385, -0.5023953318595886, -0.2710007429122925, 0.14918175339698792, 0.3655345141887665, 0.2564180791378021, 0.39497172832489014, 0.4211004674434662, 0.21898837387561798, -0.09374509006738663, 0.019148319959640503, 0.16881778836250305, 0.31144168972969055, 0.10694314539432526, 0.4493856728076935, 0.21203801035881042, 0.025516171008348465, 0.5941383242607117, -0.05646578222513199, -0.5030930042266846, -0.08185400068759918, 0.34440159797668457, 0.6534773111343384, -0.3274492919445038, 0.4534471035003662, -0.3169344663619995, -0.23896965384483337, -0.1631990373134613, 0.3094402849674225, 0.3695710599422455, -0.48430877923965454, 0.14156709611415863, 0.39707690477371216, -0.6256055235862732, -0.44537121057510376, -0.4225552976131439, 0.268333375453949, 0.27779898047447205, 0.4512721598148346, 0.3006468415260315, -0.3318752348423004, -0.09030516445636749, -0.08726505190134048, 0.3981087803840637, -0.044002968817949295, 0.18157769739627838, -0.3981841504573822, 0.04070793464779854, -0.22585751116275787, 0.052972257137298584, -0.4107801616191864, -0.4024108350276947, -0.08199883997440338, 0.2806253135204315, 0.4678783118724823, -0.07544185221195221, 0.46772515773773193, 0.586743175983429, 0.4508196711540222, -0.30003121495246887, -0.23389828205108643, -0.11550658196210861, 0.12563595175743103, 0.3391701877117157, -0.32880672812461853, 0.07903259247541428, 0.3401069939136505, 0.7358901500701904, -0.3996797502040863, -0.8134452700614929, 0.055169641971588135, -0.0244414322078228, 0.28847143054008484, 0.23797376453876495, 0.19156160950660706, -0.09687470644712448, 0.06644168496131897, -0.28661924600601196, -0.39644742012023926, -0.09233731031417847, -0.24287335574626923, -0.30021873116493225, -0.39265406131744385, -0.3986274003982544, -0.31807562708854675, -0.03818206489086151, -0.2595793306827545, 1.1279423236846924, -1.4758107662200928, 1.4977596998214722, -1.3458071947097778, 1.1082191467285156, -0.5321997404098511, -0.2649388909339905, -0.2128417193889618, -0.8029736280441284, 0.7425232529640198, -0.16700796782970428, 0.045234255492687225, -0.32592642307281494, 0.10381732136011124, 0.3354114294052124, -0.015216154046356678, 0.2706008553504944, 0.2519865334033966, 0.16045117378234863, 0.3373843729496002, 0.13416221737861633, -0.10793492197990417, -0.5670433044433594, -0.20259514451026917, -0.07957851141691208, 0.14026902616024017, -0.2340000867843628, 0.2899044454097748, -0.4435940980911255, 0.5382939577102661, 0.1838209480047226, 0.6413086652755737, -0.960295557975769, 0.13279449939727783, 0.036132197827100754, -0.005268864333629608, 0.15567803382873535, -0.9608931541442871, -0.08334437012672424, 0.4208873510360718, 0.4988296627998352, 0.23039928078651428, -0.06131492927670479, 0.1096026822924614, 0.3866308629512787, 0.6144981384277344, 0.031182464212179184, -0.45244166254997253, -0.06734539568424225, 0.17809604108333588, -0.19028696417808533, -0.33662810921669006, 0.4835134446620941, 0.669114351272583, 0.1751750111579895], "bias": [-0.09428644925355911, -0.0932093933224678, -0.04480763524770737, -0.03787735849618912, -0.1880418360233307, -0.15223079919815063, -0.0656229555606842, -0.034909687936306, 0.021863017231225967, 0.05731561407446861, -0.07689189165830612, -0.11924589425325394, 0.10312989354133606, -0.16260555386543274, 0.0870259553194046, -0.061710238456726074]}, {"in": 16, "out": 32, "k": 5, "stride": 2, "pad": 2, "weight": [-0.013746272772550583, -0.06597426533699036, 0.011459246277809143, 0.21094520390033722, -0.2568001449108124, 0.04859356954693794, 0.02703716605901718, -0.15401652455329895, 0.0175243578851223, -0.27773982286453247, -0.03139542415738106, -0.2608574628829956, 0.08473590016365051, -0.0628582015633583, -0.014908804558217525, -0.14667575061321259, -0.35953283309936523, -0.08523378521203995, 0.09174889326095581, 0.11648088693618774, -0.02269694209098816, 0.020378785207867622, 0.13998819887638092, 0.35434046387672424, 0.011138798668980598, 0.1185946837067604, 0.18807289004325867, 0.20033586025238037, -0.06879746168851852, 0.005666228476911783, -0.28730323910713196, -0.42411109805107117, -0.04344070330262184, 0.29685431718826294, 0.07861272245645523, 0.2985021770000458, 0.07035568356513977, -0.21246451139450073, -0.23321738839149475, 0.05768968164920807, -0.16970044374465942, 0.03708430752158165, 0.010511177591979504, 0.23368386924266815, 0.07443840056657791, -0.21584159135818481, 0.07367304712533951, 0.29609808325767517, 0.15702562034130096, -0.09306226670742035, 0.0578482449054718, 0.0943801999092102, 0.2932014465332031, 0.03704361245036125, 0.18297448754310608, 0.014728905633091927, -0.27211594581604004, 0.3235906660556793, 0.33488553762435913, -0.018066683784127235, 0.09880313277244568, 0.19573448598384857, -0.10687501728534698, 0.13591471314430237, -0.05506734549999237, -0.04668520390987396, 0.02815714292228222, 0.050687145441770554, 0.06419020891189575, -0.0895514190196991, 0.23850637674331665, 0.20888635516166687, 0.0031903593335300684, 0.19456741213798523, -0.1850714385509491, -0.0453491136431694, -0.05579777806997299, 0.2089870423078537, 0.2526143789291382, 0.04387820512056351, 0.11629948019981384, 0.012760029174387455, 0.0737086609005928, 0.024253394454717636, -0.19977246224880219, 0.02496878243982792, 0.100338414311409, 0.18270690739154816, 0.07705675065517426, 0.27347418665885925, -0.16561447083950043, -0.28134170174598694, -0.10928741097450256, -0.148285374045372, -0.27170681953430176, -0.12316392362117767, 0.13489565253257751, 0.16968421638011932, 0.23278824985027313, 0.16345630586147308, -0.023646045476198196, -0.018270205706357956, 0.08180665969848633, -0.5427711606025696, 0.02583845518529415, 0.22724972665309906, -0.30857399106025696, -0.13078363239765167, -0.35366418957710266, 0.046438369899988174, 0.25870567560195923, 0.2958467900753021, -0.09848881512880325, -0.04068559780716896, -0.059219613671302795, 0.005573442205786705, 0.18480388820171356, -0.03315625339746475, 0.07296089828014374, 0.10200463980436325, 0.11606423556804657, -0.09666358679533005, -0.09506663680076599, 0.007406148128211498, 0.10296426713466644, -0.08714963495731354, 0.08108191192150116, 0.13982942700386047, -0.1874055117368698, -0.21278372406959534, 0.2549493610858917, 0.0807810127735138, -0.1371580809354782, 0.13555264472961426, 0.16707874834537506, 0.02392609231173992, 0.1400541067123413, -0.23447324335575104, -0.09773572534322739, 0.05390654876828194, -0.10199394077062607, 0.2040242850780487, -0.08089874684810638, -0.02403058297932148, -0.1227199137210846, -0.20950908958911896, 0.0021737453062087297, 0.05008053034543991, 0.1529245227575302, 0.18879857659339905, -0.03206845000386238, -0.00060443946858868, -0.15142938494682312, -0.020364370197057724, 0.13708022236824036, -0.4077644944190979, 0.1471775472164154, 0.23853126168251038, -0.3491918742656708, -0.31320667266845703, 0.1869203746318817, 0.2427671104669571, 0.3676968216896057, 0.1955331414937973, 0.19555747509002686, 0.02632591873407364, 0.06260798126459122, 0.2326744794845581, 0.11435218155384064, 0.14024025201797485, -0.3287254869937897, -0.40965449810028076, 0.12449806928634644, -0.6706139445304871, -0.3496471047401428, 0.15899720788002014, 0.004097255412489176, 0.040134552866220474, 0.0018208652036264539, -0.07811996340751648, 0.3875102698802948, 0.2154945582151413, 0.19081173837184906, -0.017611414194107056, 0.24585625529289246, -0.1257435381412506, -0.11437489092350006, -0.00998622551560402, -0.11162842810153961, 0.15633492171764374, 0.44134750962257385, 0.5739972591400146, 0.26012471318244934, 0.43030908703804016, 0.40948519110679626, -0.07023822516202927, -0.18501794338226318, 0.31860774755477905, 0.24616332352161407, -0.23575112223625183, 0.09018471091985703, -0.013825331814587116, 0.17473670840263367, -0.19537489116191864, -0.10780012607574463, 0.026238417252898216, 0.2037934809923172, -0.23183807730674744, 0.09483286738395691, 0.010518712922930717, -0.07018790394067764, 0.27789780497550964, 0.05901365354657173, 0.01956957019865513, 0.3374781310558319, 0.030071545392274857, 0.006564018316566944, 0.19481045007705688, 0.25466883182525635, -0.1847681701183319, -0.17222759127616882, -0.12426266819238663, 0.0651983916759491, 0.006486166268587112, 0.11358882486820221, -0.20737940073013306, -0.08583734929561615, -0.033578015863895416, -0.2468126118183136, 0.07317545264959335, 0.18597063422203064, 0.22257274389266968, 0.16628660261631012, -0.01481638103723526, -0.0250840000808239, -0.3725805878639221, -0.011723370291292667, -0.28640803694725037, -0.4501585066318512, -0.08005344122648239, 0.08248578011989594, -0.13738496601581573, -0.078395776450634, 0.00498926779255271, -0.0010725603206083179, -0.2068609893321991, -0.018431449308991432, 0.11658960580825806, -0.09867964684963226, 0.22280822694301605, 0.09581146389245987, 0.07601551711559296, -0.08443135023117065, 0.022360937669873238, 0.15407556295394897, 0.05410398542881012, 0.02252904139459133, 0.22735893726348877, 0.12804660201072693, -0.0849650502204895, 0.01390506699681282, 0.0971599593758583, 0.1253354400396347, 0.15170106291770935, -0.10821768641471863, -0.015454542823135853, 0.02051554061472416, -0.22783567011356354, 0.03621603921055794, -0.09027080237865448, -0.19274325668811798, -0.12786240875720978, 0.08377335965633392, 0.011401510797441006, 0.18453702330589294, 0.18100784718990326, 0.25029394030570984, 0.1526007205247879, 0.09216023236513138, 0.24560315907001495, -0.1932847797870636, 0.17808251082897186, 0.17235320806503296, -0.0880860686302185, 0.056640952825546265, -0.3098803162574768, -0.049372293055057526, -0.03896234557032585, 0.0070794797502458096, 0.14704148471355438, 0.042465634644031525, 0.1922718584537506, 0.044051121920347214, -0.03650223836302757, 0.09467726200819016, -0.027543626725673676, -0.0010450177360326052, 0.049712494015693665, -0.22300338745117188, -0.2353549301624298, -0.027224697172641754, 0.10909371078014374, 0.11407487839460373, -0.1124044731259346, 0.08973419666290283, -0.043785642832517624, 0.0372854508459568, 0.1122819110751152, -0.010181466117501259, -0.07019464671611786, 0.15679390728473663, 0.41375261545181274, 0.1802550107240677, 0.15748701989650726, 0.10041932761669159, -0.1411815881729126, 0.05374951288104057, -0.0005526402965188026, -0.11440595239400864, 0.13131406903266907, -0.07471736520528793, 0.08502031862735748, -0.11055225878953934, 0.12602242827415466, 0.014880936592817307, 0.015598313882946968, -0.13818305730819702, -0.07099730521440506, -0.14812979102134705, 0.19678612053394318, 0.20610882341861725, 0.0847201868891716, -0.07314396649599075, 0.04283103346824646, 0.17847687005996704, -0.4762359857559204, -0.3653102219104767, -0.11276810616254807, 0.23536434769630432, 0.020192982628941536, 0.07927320152521133, -0.09873199462890625, -0.08578266203403473, 0.02456001006066799, 0.09896653890609741, -0.14758214354515076, 0.05103043094277382, -0.013937662355601788, 0.044020675122737885, -0.1687030792236328, 0.051628995686769485, 0.17435789108276367, -0.03301047906279564, 0.14221560955047607, 0.025474589318037033, 0.1421598345041275, 0.0498330295085907, -0.24180868268013, -0.2883913218975067, -0.165521502494812, -0.16005845367908478, 0.11625587940216064, 0.001307012396864593, -0.05127429962158203, 0.032555751502513885, 0.00983328465372324, -0.1696421355009079, 0.08261871337890625, 0.006811802741140127, -0.08184808492660522, 0.13008569180965424, 0.1896120309829712, 0.04504789039492607, 0.04197591915726662, -0.15425607562065125, -0.1514725536108017, 0.16106724739074707, 0.0983954668045044, 0.15905246138572693, 0.11839673668146133, 0.1188557967543602, -0.02361847460269928, -0.17400428652763367, -0.13488665223121643, -0.005657488014549017, -0.0874791294336319, 0.04455910995602608, -0.23000507056713104, 0.13072805106639862, 0.20385214686393738, 0.20265576243400574, -0.03542104735970497, -0.28165939450263977, -0.39504265785217285, -0.28124529123306274, 0.13951268792152405, -0.1081177368760109, -0.2714220881462097, -0.3065352141857147, -0.12037237733602524, -0.04407212883234024, 0.030024629086256027, 0.21427218616008759, 0.16700513660907745, 0.10176484286785126, -0.1733502298593521, 0.483255535364151, 0.38200974464416504, -0.1267111748456955, 0.23080496490001678, -0.3406824469566345, -0.08217241615056992, -0.2195662409067154, 0.27632132172584534, 0.08815173804759979, 0.134212926030159, 0.07991194725036621, 0.030457282438874245, -0.22840438783168793, -0.11309856176376343, 0.15821221470832825, -0.09084710478782654, 0.05418609455227852, 0.08316055685281754, -0.02596385031938553, -0.022144967690110207, -0.05765066295862198, -0.4678025245666504, -0.15517067909240723, -0.5216884016990662, 0.06082308292388916, 0.026192955672740936, 0.21048004925251007, 0.36475563049316406, 0.031907062977552414, 0.23199304938316345, 0.10121053457260132, 0.24411840736865997, -0.22972087562084198, -0.13839976489543915, 0.3233945071697235, -0.2414824217557907, -0.15550677478313446, -0.015203929506242275, -0.5553798675537109, 0.31704267859458923, -0.08645597100257874, -0.1481124460697174, -0.16404303908348083, -0.12579180300235748, -0.21781665086746216, -0.2309524565935135, 0.2950758934020996, 0.24597357213497162, -0.3590889275074005, 0.40856030583381653, 0.32244420051574707, -0.02588488720357418, 0.09816419333219528, 0.03810557350516319, 0.09281312674283981, 0.2135993242263794, -0.06793753057718277, 0.17392364144325256, -0.24244345724582672, 0.18379153311252594, 0.015580110251903534, 0.5026925802230835, -0.20534996688365936, -0.1814381331205368, -0.03429260477423668, 0.21272297203540802, -0.11972774565219879, -0.0971575528383255, -0.0778912603855133, -0.16570459306240082, 0.30948787927627563, 0.3069542646408081, -0.38302338123321533, -0.09604926407337189, -0.03510633856058121, -0.10057013481855392, -0.0025015734136104584, -0.10552377253770828, -0.12199363857507706, -0.17016278207302094, -0.1419236809015274, -0.2439844012260437, 0.08066701889038086, -0.05176864564418793, -0.1417943835258484, -0.0008453023037873209, 0.0633775070309639, 0.20916657149791718, 0.004498962312936783, 0.11568291485309601, -0.26689204573631287, -0.14217911660671234, 0.02242550067603588, 0.012891526333987713, 0.07533319294452667, 0.26634714007377625, 0.019690904766321182, -0.27353835105895996, -0.17404362559318542, 0.08234716206789017, -0.025044964626431465, 0.0017685940256342292, 0.1470726728439331, 0.1249270886182785, -0.26703351736068726, -0.4199909567832947, 0.05058549717068672, 0.26673150062561035, 0.22072817385196686, 0.3113268315792084, -0.03635573387145996, 0.07368171960115433, -0.08898617327213287, 0.020226212218403816, -0.005322446580976248, 0.2410314530134201, -0.14104609191417694, 0.05052641034126282, 0.08049003779888153, -0.37972795963287354, 0.1757936179637909, 0.3054466247558594, 0.18348413705825806, 0.017476078122854233, -0.13041771948337555, 0.2430308610200882, -0.0849321112036705, -0.22634632885456085, -0.14244674146175385, 0.050015490502119064, -0.11990910768508911, 0.14303037524223328, -0.10575950145721436, 0.12211158126592636, 0.017224447801709175, 0.07267675548791885, -0.2467450648546219, -0.13357815146446228, -0.12736205756664276, 0.031210944056510925, 0.02725408598780632, -0.18851310014724731, 0.23280884325504303, 0.2315906286239624, 0.02030719816684723, -0.15599164366722107, -0.019796406850218773, -0.4525398910045624, -0.12794749438762665, -0.17316493391990662, 0.1297314316034317, 0.022002654150128365, -0.22353506088256836, 0.04184257239103317, -0.06550013273954391, -0.14485909044742584, 0.0347219780087471, -0.19220168888568878, -0.15278379619121552, -0.07382294535636902, -0.2681828737258911, -0.4212978780269623, -0.2503710687160492, 0.04465656355023384, 0.07050544768571854, -0.16805380582809448, -0.2106969803571701, 0.31204816699028015, -0.036107245832681656, 0.03717177361249924, -0.13418126106262207, 0.132578045129776, 0.015579093247652054, 0.23564137518405914, -0.2920016050338745, -0.12087936699390411, 0.1331516057252884, -0.032170794904232025, -0.06800605356693268, 0.018441397696733475, 0.21698403358459473, 0.03322109580039978, 0.08243189752101898, -0.20002350211143494, -0.15851761400699615, -0.06666542589664459, -0.4274197518825531, -0.06655184179544449, -0.13516034185886383, 0.204568013548851, 0.12976622581481934, -0.051284242421388626, 0.058095838874578476, 0.07233761250972748, -0.03693123161792755, -0.1641935259103775, -0.014872871339321136, 0.18382528424263, -0.07151510566473007, -0.09509976953268051, -0.32431572675704956, -0.32542070746421814, 0.15873585641384125, 0.23144862055778503, -0.0912400409579277, 0.14266100525856018, 0.021404549479484558, -0.020070528611540794, -0.028644699603319168, 0.18988530337810516, -0.14925217628479004, 0.11299149692058563, 0.02005031332373619, -0.18665559589862823, -0.13343128561973572, 0.24496415257453918, 0.17120033502578735, 0.08268837630748749, -0.2735953629016876, 0.015093501657247543, 0.1879967749118805, -0.01562592014670372, 0.005967570468783379, 3.186213507433422e-05, -0.15646697580814362, -0.020354362204670906, 0.17997001111507416, -0.050874821841716766, 0.05139056220650673, 0.2840878665447235, 0.2406972050666809, 0.11114953458309174, 0.12556830048561096, -0.13344740867614746, -0.0009968408849090338, 0.14443835616111755, 0.18204417824745178, -0.07815935462713242, -0.030977535992860794, 0.008820942603051662, 0.09013569355010986, -0.0013830201933160424, -0.07754795253276825, -0.0008714417926967144, -0.007358609698712826, 0.10233107954263687, -0.047356195747852325, -0.0730731338262558, 0.13862033188343048, 0.07305368036031723, -0.04271932318806648, -0.02234184555709362, -0.057159509509801865, 0.07228314131498337, -0.19286729395389557, -0.31327882409095764, -0.06652701646089554, 0.0886273980140686, 0.010450582951307297, 0.09624391049146652, 0.2855699062347412, 0.05415637046098709, 0.2084936499595642, -0.20875795185565948, 0.19123493134975433, 0.09710785001516342, -0.09090476483106613, -0.2193448394536972, 0.10586664825677872, -0.0482344850897789, -0.06043369695544243, -0.035190410912036896, 0.06729892641305923, -0.10616953670978546, -0.021732445806264877, -0.0596691370010376, 0.1924123913049698, 0.0555005818605423, 0.16252321004867554, -0.008794373832643032, -0.21546800434589386, -0.09722816199064255, 0.14736752212047577, 0.0655146986246109, 0.019511928781867027, 0.2765209972858429, 0.3338334262371063, 0.31403234601020813, 0.09156398475170135, -0.04661770164966583, 0.05988072603940964, 0.12355999648571014, 0.12868632376194, 0.1711127907037735, 0.0008109106565825641, 0.11639147996902466, -0.19046650826931, -0.12033244222402573, -0.02308102510869503, 0.08697324246168137, 0.17057402431964874, 0.17818385362625122, 0.008636056445538998, -0.08294936269521713, 0.008451846428215504, 0.10041383653879166, -0.06373896449804306, -0.0662592425942421, -0.037435248494148254, 0.08822338283061981, -0.017590997740626335, 0.15406472980976105, -0.0925634577870369, -0.0358477383852005, -0.13389354944229126, -0.024348657578229904, 0.027669493108987808, -0.0400555320084095, 0.15786004066467285, 0.006057268939912319, 0.09821034967899323, -0.055537149310112, 0.23515385389328003, -0.034456394612789154, -0.15011624991893768, 0.17548567056655884, 0.05672740936279297, 0.15649327635765076, -0.023524455726146698, 0.04390350356698036, 0.09187392145395279, 0.1651010364294052, 0.11302553862333298, -0.07978329062461853, -0.21337978541851044, 0.0813368409872055, 0.19601713120937347, -0.23091937601566315, -0.3550349771976471, 0.23798716068267822, 0.12368251383304596, 0.1322077363729477, 0.06406492739915848, 0.031523168087005615, 0.07276522368192673, 0.15881399810314178, -0.047616567462682724, -0.058534231036901474, -0.02711157128214836, -0.19426260888576508, -0.04143499955534935, 0.3006463944911957, 0.19146789610385895, -0.20943428575992584, 0.008245900273323059, -0.20061327517032623, 0.022831711918115616, -0.028695793822407722, -0.14175064861774445, -0.16775572299957275, 0.19789732992649078, 0.14773784577846527, -0.012700267136096954, -0.0024571458343416452, -0.02551252581179142, 0.23153544962406158, -0.18525555729866028, 0.0749388337135315, -0.1297999918460846, -0.1105441227555275, 0.31117188930511475, 0.27926304936408997, -0.12603023648262024, -0.075279600918293, -0.1826217770576477, -0.17640776932239532, 0.06948213279247284, 0.006382878869771957, 0.013798929750919342, -0.04371451213955879, 0.05156073346734047, -0.14070431888103485, 0.10025080293416977, 0.008538761176168919, -0.1930481642484665, -0.16389039158821106, -0.1571866273880005, 0.18189281225204468, -0.15110115706920624, -0.21426887810230255, 0.08822672069072723, 0.10118412971496582, 0.27915874123573303, -0.28394511342048645, 0.1417190581560135, 0.26851558685302734, -0.27101314067840576, -0.025511357933282852, 0.1493365466594696, -0.08101943880319595, -0.00833738874644041, -0.2685130536556244, -0.5291650295257568, -0.24248197674751282, 0.09457536786794662, 0.10012276470661163, 0.008176854811608791, 0.30708757042884827, 0.09179695695638657, 0.004026838578283787, 0.24205456674098969, 0.03671635314822197, 0.02357332408428192, 0.024446915835142136, -0.07468558847904205, -0.22221200168132782, 0.2690065801143646, 0.08596697449684143, 0.17539000511169434, 0.2435818761587143, 0.05869755148887634, 0.2795509397983551, 0.33051201701164246, 0.4029574990272522, 0.33798161149024963, -0.18035346269607544, -0.24046696722507477, 0.09096337854862213, 0.04742687568068504, 0.0057963221333920956, -0.09050863981246948, 0.17562410235404968, -0.02147318609058857, 0.027582503855228424, 0.12299150973558426, 0.48030558228492737, 0.06670630723237991, -0.12223787605762482, 0.16842204332351685, -0.06312164664268494, 0.022840797901153564, -0.24188630282878876, 0.17349402606487274, -0.18662507832050323, 0.05771046131849289, -0.29013365507125854, -0.293712317943573, 0.1459779590368271, 0.159419447183609, 0.2924819886684418, 0.22166739404201508, 0.27402424812316895, -0.0019604794215410948, -0.05377277731895447, 0.02609608694911003, -0.27336323261260986, 0.11351124197244644, -0.29526856541633606, -0.03643479943275452, -0.0992286428809166, -0.056349411606788635, -0.2481551170349121, -0.09702476114034653, -0.3391345143318176, -0.488032728433609, -0.18929973244667053, -0.4942536950111389, -0.16124974191188812, -0.14562436938285828, 0.1698128879070282, 0.15234029293060303, 0.3078188896179199, 0.20835907757282257, 0.23374125361442566, -0.3152017593383789, -0.25290805101394653, 0.24992302060127258, 0.42509961128234863, -0.14465373754501343, 0.0818139836192131, -0.20626677572727203, 0.24048970639705658, 0.0932941734790802, 0.2650544047355652, -0.3603528141975403, -0.20254601538181305, -0.17906500399112701, 0.2701025605201721, -0.26461589336395264, -0.4205305278301239, -0.3670498728752136, 0.14798571169376373, 0.36522480845451355, 0.2965531349182129, 0.3887051045894623, 0.07541955262422562, 0.1628681719303131, 0.2990013062953949, -0.2513924539089203, -0.0033393967896699905, -0.41633340716362, -0.4859291613101959, -0.09735379368066788, -0.018465446308255196, 0.2854507565498352, 0.07779503613710403, 0.03506902605295181, 0.07015425711870193, -0.009071877226233482, 0.05519072338938713, -0.17241278290748596, -0.07180358469486237, 0.2287440299987793, -0.06804162263870239, -0.209454745054245, -0.4285358488559723, 0.4200933277606964, 0.19717422127723694, 0.24484668672084808, 0.08297853916883469, 0.1731293946504593, 0.2289365977048874, -0.3521656095981598, -0.027454271912574768, -0.27539610862731934, 0.12486348301172256, -0.1337052583694458, 0.5251848697662354, 0.07945960760116577, 0.006458039861172438, -0.16429176926612854, -0.05528661981225014, 0.25892236828804016, 0.07941795140504837, -0.07407991588115692, -0.15166917443275452, 0.06900938600301743, 0.2880261242389679, 0.10302775353193283, -0.1866258680820465, 0.14600105583667755, 0.32468581199645996, -0.14010298252105713, 0.064541295170784, -0.08526620268821716, 0.20415087044239044, 0.2319270670413971, -0.020574258640408516, 0.08876661956310272, 0.10700001567602158, 0.12131289392709732, 0.32074111700057983, -0.2121140956878662, -0.10066203773021698, -0.13310423493385315, 0.2873882055282593, -0.09563571959733963, 0.17420890927314758, -0.16972357034683228, 0.05159355700016022, -0.03061617910861969, -0.16544045507907867, 0.17889979481697083, -0.0478455014526844, 0.03504281863570213, -0.10951612889766693, -0.054662078619003296, 0.32056695222854614, -0.050983402878046036, 0.1552935391664505, 0.03879156336188316, -0.09466151148080826, 0.15909387171268463, -0.12230227142572403, -0.1689368039369583, -0.3317195773124695, 0.004809706471860409, 0.014070538803935051, 0.04503059759736061, -0.0509900227189064, 0.24166442453861237, 0.1486666202545166, 0.22468146681785583, -0.0017910697497427464, 0.21287654340267181, -0.05921792611479759, 0.18995751440525055, -0.183293417096138, -0.2710227072238922, 0.07061463594436646, 0.17868414521217346, 0.10431335121393204, 0.14163723587989807, -0.07757926732301712, 0.20587290823459625, 0.001692643971182406, 0.10370739549398422, 0.16485878825187683, -0.10860463231801987, 0.24049177765846252, -0.058723319321870804, -0.16366207599639893, -0.46473753452301025, 0.07487672567367554, -0.05518656224012375, -0.15118616819381714, 0.18334145843982697, 0.04352932423353195, 0.11146176606416702, 0.16017141938209534, -0.2438281774520874, 0.07510245591402054, -0.058381371200084686, 0.025796599686145782, -0.2742622196674347, 0.0828816145658493, -0.15786482393741608, 0.18017731606960297, 0.008470998145639896, -0.10965076833963394, 0.1222795620560646, -0.08838073164224625, 0.058947931975126266, -0.33301475644111633, -0.00774471927434206, -0.2535501718521118, 0.2585844397544861, 0.12147980183362961, -0.16528096795082092, -0.060827117413282394, 0.3349252939224243, 0.1325572282075882, 0.06243355572223663, 0.20668533444404602, -0.0045071858912706375, 0.15766030550003052, -0.14047297835350037, -0.1946706771850586, 0.019325708970427513, 0.19227518141269684, 0.05195314437150955, 0.23105672001838684, -0.1052020713686943, -0.3226001262664795, -0.14272843301296234, 0.19212648272514343, 0.1969607025384903, 0.38306447863578796, 0.28127574920654297, -0.13899850845336914, -0.12324152886867523, -0.1943436861038208, 0.1363142430782318, 0.19029363989830017, -0.06249319016933441, 0.18279938399791718, 0.15836220979690552, -0.008034570142626762, 0.11913589388132095, 0.193659245967865, -0.26987239718437195, 0.015935534611344337, -0.08859375864267349, -0.13959072530269623, 0.3522716164588928, 0.07480957359075546, 0.06983473151922226, 0.1610908806324005, 0.08819738030433655, -0.2841176390647888, -0.21105913817882538, -0.1622084379196167, -0.22313377261161804, -0.1284031867980957, -0.0649673119187355, -0.16306713223457336, -0.25812244415283203, -0.15052974224090576, -0.0070313806645572186, 0.15560732781887054, 0.42011594772338867, 0.2677305042743683, -0.05836215987801552, 0.13389353454113007, 0.06732343882322311, 0.04164610803127289, 0.01942717656493187, -0.40262943506240845, -0.25958940386772156, -0.08791907131671906, -0.10889662802219391, -0.2577798664569855, -0.10796088725328445, 0.08314987272024155, 0.12780435383319855, 0.2496107518672943, 0.5550146698951721, 0.36417901515960693, 0.22541828453540802, 0.04545266926288605, 0.11136429756879807, -0.2130148559808731, 0.16582493484020233, 0.1028294488787651, -0.36620357632637024, -0.5152120590209961, -0.33281317353248596, -0.6312607526779175, -0.14667832851409912, -0.0826130285859108, -0.2560344934463501, -0.17977508902549744, -0.2542559802532196, 0.012525329366326332, 0.11601492762565613, 0.04872363060712814, 0.11925248801708221, -0.1114252433180809, 0.023328786715865135, -0.02849270962178707, -0.2682906985282898, -0.10291467607021332, -0.07442940771579742, 0.07507074624300003, 0.030029896646738052, -0.10497446358203888, -0.03916690871119499, 0.17711703479290009, 0.09319868683815002, 0.11281876266002655, -0.18852384388446808, 0.06321126222610474, 0.08611781150102615, -0.13133029639720917, -0.17444807291030884, 0.13896071910858154, -0.23670914769172668, 0.026722034439444542, -0.03694130852818489, -0.02463526278734207, 0.14353276789188385, -0.024156976491212845, 0.054010774940252304, -0.03621881827712059, -0.3205532133579254, -0.5176040530204773, -0.21685399115085602, -0.07646433264017105, -0.180999293923378, -0.04019469767808914, -0.20438940823078156, -0.19182269275188446, -0.18248263001441956, -0.019548466429114342, 0.05064506456255913, -0.023945072665810585, -0.1605609655380249, 0.09490854293107986, -0.4835960865020752, 0.06901776790618896, 0.15175840258598328, 0.2375011444091797, -0.21998821198940277, -0.07038460671901703, -0.014752720482647419, 0.057465847581624985, 0.2104855179786682, -0.043884098529815674, -0.11363489180803299, -0.08921529352664948, -0.06578465551137924, 0.07459094375371933, 0.1640177071094513, 0.18673889338970184, -0.19298499822616577, -0.1422380656003952, 0.049841489642858505, -0.1540488749742508, 0.0675259456038475, -0.1479398012161255, 0.03214660659432411, -0.04914572462439537, 0.18825823068618774, 0.24293920397758484, -0.03045724891126156, 0.17305834591388702, -0.09819647669792175, -0.04544515162706375, 0.06866025179624557, 0.21379117667675018, -0.09810591489076614, 0.11054150015115738, 0.2278512418270111, 0.028801949694752693, 0.03842897713184357, 0.11882930994033813, 0.02502734772861004, 0.20091792941093445, -0.09057292342185974, -0.09219872951507568, -0.027924945577979088, 0.11408408731222153, 0.04354304447770119, 0.18255501985549927, 0.12405221909284592, 0.1594475954771042, 0.18244650959968567, 0.2232717126607895, 0.07985721528530121, -0.021419532597064972, 0.25431016087532043, 0.20554305613040924, 0.048693884164094925, 0.016680384054780006, -0.09434252977371216, -0.03922874480485916, -0.00022511281713377684, -0.2565813660621643, -0.175795778632164, -0.300182044506073, -0.26972901821136475, 0.18098324537277222, 0.020274830982089043, -0.03487853705883026, 0.12570473551750183, -0.13506150245666504, -0.02379782684147358, -0.028593294322490692, 0.10157845169305801, 0.12272825837135315, 0.1355554163455963, 0.28361883759498596, -0.03486565873026848, 0.1574777215719223, 0.006680747028440237, 0.06745454668998718, 0.1488547921180725, -0.05909286439418793, 0.3258749544620514, -0.1056796982884407, 0.16652695834636688, -0.03489941358566284, 0.21690884232521057, 0.02694384753704071, 0.16145417094230652, 0.11260534822940826, 0.046114351600408554, 0.17381350696086884, -0.16124340891838074, -0.03594742715358734, 0.01689961552619934, -0.00920641515403986, 0.17565709352493286, 0.06079263985157013, -0.05020451918244362, -0.08696295320987701, 0.09689956903457642, -0.17467020452022552, 0.057668376713991165, -0.022213585674762726, 0.08356703072786331, 0.08798862248659134, -0.11305509507656097, 0.0442400760948658, 0.10663271695375443, 0.15800754725933075, -0.15645180642604828, 0.05939372628927231, 0.014723583124577999, 0.20678788423538208, -0.16848692297935486, -0.14478982985019684, 0.0020004722755402327, -0.011752764694392681, 0.11625410616397858, 0.125174418091774, -0.0031279067043215036, -0.10857906937599182, -0.0777592882514, 0.15379598736763, 0.0870705172419548, 0.07499794661998749, 0.33062225580215454, -0.14672179520130157, 0.10795363783836365, 0.059066567569971085, -0.07462452352046967, -0.08693279325962067, -0.15757012367248535, -0.14308978617191315, -0.007823821157217026, 0.08521141111850739, 0.26017919182777405, 0.14164017140865326, 0.04691698029637337, 0.0982193723320961, -0.07013875991106033, 0.20588785409927368, 0.09845193475484848, -0.0642278864979744, -0.20453709363937378, -0.06279760599136353, -0.09817701578140259, 0.16031211614608765, 0.09303952753543854, -0.09000841528177261, -0.07270614802837372, 0.16863495111465454, 0.23638027906417847, -0.03770049288868904, 0.06516876816749573, -0.21112748980522156, -0.013858997263014317, -0.21954044699668884, -0.031237181276082993, 0.21150647103786469, -0.053073517978191376, 0.2373809963464737, 0.12078660726547241, -0.10664565861225128, 0.1745813488960266, 0.015945469960570335, -0.12831908464431763, 0.2035834640264511, -0.031642138957977295, 0.13549892604351044, 0.07842499762773514, 0.009930824860930443, 0.07202527672052383, -0.30376842617988586, -0.19759777188301086, 0.09912876039743423, 0.16532772779464722, -0.05098609998822212, 0.03476016968488693, -0.1018185093998909, -0.16107459366321564, -0.08704778552055359, -0.032492972910404205, -0.10686952620744705, -0.2557428479194641, -0.20643635094165802, -0.11879721283912659, -0.38829952478408813, -0.3266628086566925, 0.01599876768887043, -0.24916057288646698, 0.08980923891067505, -0.18038786947727203, 0.1872466504573822, 0.05126316472887993, -0.14668035507202148, -0.2678779065608978, -0.4311118423938751, 0.2004799097776413, -0.14355136454105377, 0.21345257759094238, 0.11557728797197342, 0.18814153969287872, 0.11040472984313965, 0.1900000423192978, -0.07402023673057556, 0.10227303951978683, 0.21310749650001526, 0.13850592076778412, 0.22896167635917664, -0.16292618215084076, -0.13734562695026398, -0.07355960458517075, -0.12914079427719116, -0.20312269032001495, -0.09467713534832001, -0.19373811781406403, -0.03669820725917816, 0.09221314638853073, 0.01053749118000269, 0.0869181752204895, -0.121842160820961, 0.031996577978134155, 0.15127427875995636, 0.1066792905330658, 0.24111051857471466, 0.08306032419204712, 0.20675042271614075, -0.1911037564277649, -0.12688808143138885, -0.14912456274032593, -0.10538092255592346, 0.016538185998797417, 0.17141114175319672, 0.2786935269832611, -0.19001704454421997, 0.0147257000207901, 0.09847382456064224, -0.10418190062046051, 0.16488544642925262, -0.23308837413787842, 0.155675008893013, -0.09237745404243469, 0.2041713148355484, -0.27826589345932007, -0.006304027512669563, -0.05720331892371178, -0.0364140048623085, 0.18642035126686096, -0.017791589722037315, 0.013560394756495953, -0.3052454888820648, 0.11408328264951706, -0.2036297619342804, -0.22480349242687225, 0.09311581403017044, -0.13050729036331177, -0.16653993725776672, 0.16106393933296204, 0.053543638437986374, -0.1463465541601181, -0.18436528742313385, -0.2893245220184326, 0.1241065040230751, 0.2396257370710373, -0.020849669352173805, -0.06004081293940544, -0.023562265560030937, 0.13153548538684845, -0.16249652206897736, -0.03603878244757652, -0.19608400762081146, 0.07962845265865326, 0.0244300439953804, -0.2405441552400589, 0.08503909409046173, -0.14495892822742462, -0.10897310078144073, 0.09352269768714905, -0.006207513157278299, 0.16461971402168274, 0.23563112318515778, 0.11936020106077194, 0.0614815279841423, -0.006455627735704184, 0.23101407289505005, 0.12178371101617813, -0.2539043426513672, -0.0731373280286789, -0.21516743302345276, -0.3230934739112854, -0.07069651782512665, -0.388498455286026, 0.19121438264846802, -0.22359637916088104, 0.13766597211360931, 0.08892326056957245, 0.19067104160785675, -0.04999193549156189, 0.06752322614192963, 0.2125551849603653, -0.015437799505889416, 0.02957068383693695, -0.03943520784378052, -0.031575292348861694, -0.03131885454058647, 0.13417695462703705, -0.21068175137043, -0.030390746891498566, -0.06695445626974106, 0.028143953531980515, 0.04349319264292717, 0.04200972989201546, -0.2862229645252228, 0.26622501015663147, -0.23124824464321136, 0.1257879137992859, -0.15907137095928192, -0.3964286744594574, -0.15642012655735016, -0.23719070851802826, 0.01212499663233757, -0.3219382166862488, 0.114142507314682, -0.08672516793012619, -0.14892376959323883, 0.13670170307159424, -0.08535987138748169, -0.11260279268026352, 0.20124836266040802, -0.23900459706783295, -0.041369568556547165, 0.13907445967197418, 0.11778263747692108, -0.08573654294013977, 0.15781037509441376, -0.04018039628863335, -0.059274107217788696, 0.2531854808330536, -0.25115031003952026, 0.19635722041130066, -0.18333090841770172, 0.04571960121393204, -0.17234906554222107, 0.23014257848262787, 0.13340139389038086, -0.17488203942775726, 0.08567126840353012, -0.031578633934259415, 0.08863288164138794, -0.09556794911623001, -0.054925739765167236, -0.008230933919548988, 0.06734773516654968, 0.06380205601453781, -0.16885218024253845, 0.13528725504875183, -0.008070546202361584, -0.010371241718530655, 0.062463756650686264, -0.13889488577842712, -0.14895009994506836, 0.02568025514483452, 0.12418585270643234, 0.15898773074150085, 0.07524086534976959, 0.1211780533194542, 0.08067730814218521, -0.0304322000592947, 0.06773704290390015, -0.09967422485351562, 0.0028230869211256504, -0.12334873527288437, -0.10164157301187515, 0.06375901401042938, -0.0758722573518753, 0.20776011049747467, 0.015567971393465996, -0.11533070355653763, 0.05963855981826782, -0.2658429741859436, 0.017922140657901764, -0.07139774411916733, 0.09526500105857849, 0.023574573919177055, -0.1346181035041809, -0.2944810688495636, -0.2943360507488251, -0.06593526154756546, 0.04503433406352997, -0.18216270208358765, -0.11368667334318161, -0.14285916090011597, -0.007377950940281153, -0.10656280070543289, -0.38243985176086426, 0.20333364605903625, -0.012536384165287018, 0.011682026088237762, -0.028595570474863052, 0.1593588888645172, 0.2691790759563446, -0.06164674833416939, 0.003294178284704685, -0.20862562954425812, -0.12972167134284973, 0.004282418638467789, -0.005291986279189587, -0.09603521227836609, 0.018845878541469574, 0.2119373381137848, 0.03386063501238823, 0.2328270673751831, -0.2918325364589691, -0.26463285088539124, -0.1391439288854599, -0.10242924839258194, -0.26550665497779846, 0.06773407012224197, -0.04051031172275543, 0.05657653510570526, -0.1871899515390396, 0.21975231170654297, -0.013130469247698784, 0.11084464192390442, -0.06655210256576538, -0.0514729768037796, 0.044095609337091446, 0.09725295752286911, -0.1275268942117691, -0.08477076888084412, 0.15116430819034576, 0.11333690583705902, -0.06423766911029816, 0.2390051782131195, 0.10999247431755066, -0.26324743032455444, 0.07479450851678848, 0.14773866534233093, 0.184935063123703, 0.03870772942900658, 0.028787333518266678, 0.023170029744505882, 0.08376612514257431, 0.19833645224571228, -0.003636785550042987, -0.08460979908704758, -0.021725771948695183, 0.14477737247943878, 0.059195615351200104, -0.2630079984664917, -0.2231840342283249, -0.09313084930181503, -0.10173425078392029, 0.1944172978401184, -0.20017975568771362, -0.03838486224412918, -0.22318227589130402, -0.022951751947402954, 0.1268138438463211, -0.06444614380598068, 0.06987050175666809, 0.06694671511650085, -0.12803992629051208, 0.1607441008090973, 0.1752716451883316, 0.16563890874385834, -0.028298748657107353, -0.10683705657720566, 0.03334430977702141, -0.09320825338363647, 0.2309371680021286, -0.19704443216323853, -0.39892616868019104, 0.06716591864824295, 0.2461470365524292, -0.22505269944667816, 0.2544359564781189, -0.2665611207485199, 0.3303760588169098, -0.2554487884044647, -0.009199452586472034, 0.019947413355112076, 0.121195487678051, 0.16245168447494507, 0.028477149084210396, 0.2172667682170868, -0.016333840787410736, 0.23890824615955353, -0.07420916855335236, -0.05411317199468613, 0.16600564122200012, -0.03762831911444664, -0.12796466052532196, 0.21917381882667542, -0.13604143261909485, 0.053137727081775665, 0.10283434391021729, 0.29981544613838196, -0.23476213216781616, 0.33179646730422974, 0.06921762228012085, -0.031499963253736496, -0.008314439095556736, -0.1482415497303009, -0.061416663229465485, -0.08907385915517807, 0.18656635284423828, -0.07863758504390717, 0.2340850681066513, -0.06809329241514206, 0.08059443533420563, 0.02914515510201454, 0.11728598922491074, -0.2987681031227112, 0.10682061314582825, -0.1390029937028885, 0.2256001979112625, 0.20398752391338348, 0.35467085242271423, -0.05462593212723732, 0.00902367103844881, -0.08548502624034882, -0.04119523987174034, -0.07865949720144272, 0.058483999222517014, 0.08884835988283157, 0.12271776050329208, -0.010359972715377808, 0.12545478343963623, 0.06185739487409592, -0.19552932679653168, -0.09178360551595688, 0.09025965631008148, 0.05840030685067177, -0.2848814129829407, 0.21155373752117157, -0.17529241740703583, -0.005932683125138283, 0.10035712271928787, 0.2178645133972168, -0.08246220648288727, -0.05281837284564972, 0.10825154930353165, -0.04158039391040802, 0.2058205008506775, 0.10576976835727692, 0.1629396677017212, 0.3152068853378296, 0.3228949308395386, 0.196926549077034, 0.137125164270401, 0.04744672402739525, 0.06121594458818436, 0.16319169104099274, -0.1559520959854126, 0.0020857290364801884, -0.01686604879796505, -0.21282456815242767, -0.10797201842069626, 0.07410228997468948, 0.1139858067035675, 0.015629423782229424, 0.13266485929489136, 0.23199093341827393, 0.22395196557044983, 0.07676428556442261, 0.1337183117866516, -0.06927625089883804, -0.10390833765268326, -0.11950762569904327, -0.012434839271008968, 0.045013997703790665, 0.0204948578029871, 0.18073616921901703, 0.14935486018657684, 0.19900545477867126, 0.19202281534671783, -0.08076900243759155, -0.12198328226804733, -0.02172868698835373, 0.021303502842783928, -0.2232254594564438, -0.0027143191546201706, 0.028730979189276695, -0.19301261007785797, 0.06655064970254898, 0.1562064290046692, 0.04874216392636299, -0.03332139179110527, 0.10828496515750885, -0.023821935057640076, -0.06183385103940964, 0.03271891549229622, 0.019969215616583824, -0.1798180490732193, -0.25348976254463196, -0.22052668035030365, -0.1051880419254303, -0.09124588221311569, 0.07898618280887604, -0.26727184653282166, -0.15217146277427673, 0.28174158930778503, 0.07017475366592407, -0.024764547124505043, -0.31569626927375793, -0.42581212520599365, 0.009935243055224419, 0.18310706317424774, 0.20100639760494232, -0.2060801088809967, 0.03903729468584061, -0.11031806468963623, 0.18321186304092407, -0.06815162301063538, 0.08753038197755814, -0.26831290125846863, -0.28306859731674194, -0.11503850668668747, -0.038781389594078064, 0.2352115958929062, -0.03294329717755318, 0.08237867802381516, -0.10554398596286774, 0.2634076178073883, 0.13907934725284576, -0.0661703571677208, 0.2997688055038452, 0.2947860360145569, -0.07666561007499695, -0.015046783722937107, 0.07789511233568192, 0.1618729531764984, 0.11158221960067749, -0.008673540316522121, 0.04998902231454849, -0.04134434089064598, 0.07534999400377274, 0.3954791724681854, 0.22265583276748657, -0.13158820569515228, 0.05727565288543701, 0.11904942244291306, 0.09424620121717453, -0.2202298790216446, 0.11443088948726654, -0.11054253578186035, -0.18781040608882904, 0.014185911044478416, -0.16072474420070648, 0.10660719126462936, 0.2487412989139557, 0.28197160363197327, -0.2427060902118683, -0.2567290961742401, -0.06494742631912231, -0.18461887538433075, -0.08964105695486069, 0.01677970588207245, 0.17533522844314575, 0.09847831726074219, -0.018713509663939476, 0.15941423177719116, 0.20547883212566376, 0.12109319120645523, -0.3609175980091095, -0.194576695561409, 0.06761149317026138, -0.22557951509952545, -0.03259759396314621, -0.010956715792417526, -0.10136909782886505, 0.27213630080223083, 0.23415976762771606, 0.04707318916916847, 0.08097213506698608, -0.2472049444913864, -0.037832919508218765, -0.09872066974639893, 0.2254253327846527, -0.097884900867939, -0.0012818167451769114, 0.23003850877285004, -0.15160267055034637, -0.025978457182645798, 0.12651872634887695, 0.259046733379364, -0.20121027529239655, -0.4399034082889557, 0.21673807501792908, -0.17639395594596863, 0.13893288373947144, -0.23988640308380127, -0.11546327918767929, 0.3859694302082062, 0.009678220376372337, 0.41871482133865356, -0.3578364849090576, 0.023724349215626717, 0.17108920216560364, 0.1585899442434311, 0.06005685403943062, 0.27536213397979736, -0.09695588797330856, 0.12991614639759064, -0.13840116560459137, 0.016383590176701546, 0.025188663974404335, 0.13615094125270844, 0.31680378317832947, 0.1955012083053589, 0.12736091017723083, -0.037934403866529465, -0.13987509906291962, -0.0055366321466863155, -0.1766594797372818, -0.36084556579589844, -0.05592240020632744, 0.11764450371265411, -0.08549513667821884, 0.16195394098758698, -0.018932858482003212, 0.18130318820476532, -0.10181865096092224, 0.16311652958393097, -0.0993051752448082, -0.15760438144207, -0.26619529724121094, -0.27845942974090576, -0.12629498541355133, -0.05479448288679123, -0.012956024147570133, -0.07550864666700363, -0.07057112455368042, 0.09461213648319244, 0.2564551532268524, -0.027259651571512222, 0.159686878323555, 0.1714899241924286, -0.36939308047294617, -0.3922564685344696, -0.3948631286621094, 0.1732298582792282, 0.02332170307636261, 0.10099652409553528, -0.23060713708400726, -0.06394101679325104, 0.12461236119270325, 0.1825704723596573, 0.23469500243663788, 0.2104130983352661, 0.35603025555610657, -0.2231113761663437, 0.11328259855508804, -0.19150184094905853, -0.1441970318555832, 0.27428486943244934, 0.33988550305366516, 0.10985223948955536, 0.13115499913692474, 0.05652163550257683, 0.1888144463300705, 0.09701824188232422, 0.13817080855369568, 0.12013477087020874, -0.038549743592739105, -0.10971090197563171, 0.07136299461126328, -0.15615910291671753, -0.14621157944202423, -0.017169583588838577, -0.1745516061782837, 0.06763441115617752, -0.07139339298009872, 0.13039050996303558, -0.12550859153270721, 0.011286966502666473, -0.3291456699371338, 0.04149283468723297, -0.07492376118898392, -0.18466626107692719, -0.09851711243391037, -0.08994675427675247, -0.004608545918017626, -0.1679632067680359, -0.092287577688694, -0.03973197564482689, 0.1554819792509079, -0.1138874813914299, 0.04918960854411125, -0.11517772823572159, 0.0356576032936573, 0.04024792090058327, 0.05703098326921463, -0.03376275300979614, -0.05668741837143898, -0.010101542808115482, 0.09518364071846008, 0.19452467560768127, -0.03529776260256767, -0.07427044957876205, 0.04816816374659538, 0.23447339236736298, 0.172789067029953, -0.05757609382271767, 0.18788236379623413, -0.13994979858398438, -0.06917401403188705, 0.010471867397427559, 0.12068051844835281, 0.017910214141011238, -0.23403920233249664, 0.05332563444972038, -0.0630708858370781, 0.00978840235620737, -0.31884995102882385, -0.2285318225622177, -0.13267767429351807, 0.04301527887582779, 0.012160067446529865, -0.024661099538207054, 0.059593316167593, -0.14924725890159607, -0.13483786582946777, -0.13947486877441406, -0.1213250532746315, -0.24060457944869995, -0.15285411477088928, 0.020034100860357285, 0.06239360570907593, -0.10607896745204926, 0.05448002740740776, 0.09169132262468338, 0.08080793917179108, 0.1206241250038147, -0.148276686668396, -0.2768435776233673, 0.1617376059293747, -0.3672225773334503, -0.42310693860054016, -0.3787493407726288, -0.01726912520825863, -0.10827629268169403, 0.10727480798959732, -0.3029884696006775, 0.4683094620704651, -0.006444924511015415, -0.1552702784538269, -0.04822799190878868, 0.310486376285553, -0.3341635763645172, -0.011755543760955334, 0.2151264101266861, 0.009798521175980568, 0.3390468955039978, 0.3870452642440796, 0.2622205317020416, 0.09533362835645676, -0.30147409439086914, -0.03925732895731926, 0.17123235762119293, 0.12374449521303177, 0.019989309832453728, 0.12792082130908966, -0.2832888066768646, -0.400382399559021, 0.1619347631931305, 0.070799820125103, 0.272691011428833, -0.46668383479118347, 0.1904180347919464, 0.020644553005695343, 0.036272842437028885, 0.3117745518684387, -0.142416313290596, 0.05536793917417526, 0.09183914959430695, 0.17330820858478546, 0.11743102967739105, 0.13348840177059174, 0.1412171572446823, -0.10817398130893707, -0.12976035475730896, -0.03183772414922714, 0.09784296154975891, 0.3725346326828003, 0.17158187925815582, 0.2573554515838623, -0.012746114283800125, -0.4751659333705902, -0.34401121735572815, -0.2067364603281021, -0.27551767230033875, -0.3336118757724762, -0.1313084214925766, -0.16288894414901733, -0.09910917282104492, -0.1271752566099167, 0.045087967067956924, -0.135642409324646, 0.18863223493099213, 0.1613098680973053, -0.025245463475584984, 0.08980219811201096, 0.30463480949401855, 0.11354641616344452, 0.09670756012201309, 0.2691795825958252, 0.21741503477096558, -0.03476617857813835, -0.17447209358215332, -0.19545964896678925, 0.348554402589798, -0.49386361241340637, -0.08457543700933456, -0.3989338278770447, -0.29369473457336426, -0.07122305035591125, -0.35325369238853455, -0.23594701290130615, 0.4630107283592224, -0.43814027309417725, -0.17054562270641327, 0.01409928034991026, 0.21766354143619537, -0.12977634370326996, 0.32004275918006897, 0.2247082144021988, -0.008973957039415836, 0.08208057284355164, -0.41446080803871155, -0.11514756083488464, 0.20648393034934998, -0.006759220268577337, -0.11199609190225601, 0.15077807009220123, 0.11329618841409683, 0.032327163964509964, 0.17860622704029083, 0.2485320121049881, -0.2091520130634308, 0.3791629374027252, 0.039043128490448, -0.6317070126533508, 0.24019871652126312, -0.456481397151947, 0.10693953186273575, 0.2044760286808014, -0.4225776791572571, -0.1492910385131836, 0.21115067601203918, 0.33685627579689026, -0.0865919291973114, -0.27541831135749817, -0.3071627914905548, 0.16068758070468903, 0.21025972068309784, -0.33176591992378235, 0.09626993536949158, -0.054923366755247116, -0.6926444172859192, 0.5093385577201843, -0.07978009432554245, -0.13052159547805786, 0.3894314467906952, -0.10486248880624771, 0.35800522565841675, -0.2362147569656372, 0.16977228224277496, 0.04035807400941849, 0.2283952832221985, 0.4494335353374481, -0.07843440026044846, -0.189653679728508, 0.20517182350158691, 0.11375120282173157, -0.1644214242696762, -0.09939957410097122, 0.14330586791038513, 0.03723800554871559, 0.23743341863155365, -0.4074787497520447, 0.14979593455791473, 0.1660933792591095, -0.06378746777772903, -0.21917828917503357, -0.06986013799905777, 0.05528714880347252, -0.3704536259174347, -0.12184596061706543, -0.2523515522480011, 0.07408466190099716, -0.30344152450561523, 0.3301827907562256, -0.04994751140475273, 0.42620980739593506, -0.14036476612091064, 0.08507596701383591, 0.08304530382156372, 0.19112032651901245, -0.007515603676438332, -0.12982694804668427, -0.1101929098367691, -0.12962809205055237, 0.06000231206417084, -0.32963958382606506, -0.3147582411766052, 0.09403428435325623, 0.00962506327778101, 0.3552699387073517, 0.16244147717952728, 0.13527850806713104, -0.020478075370192528, 0.096817746758461, 0.35565876960754395, 0.00037622867967002094, -0.12835752964019775, 0.1860131025314331, 0.026353441178798676, -0.11692892760038376, -0.12236645072698593, -0.1929216831922531, 0.33886951208114624, -0.29648393392562866, 0.09474147856235504, 0.14689253270626068, 0.15184852480888367, -0.2977149486541748, 0.12934039533138275, -0.11952471733093262, -0.6431633830070496, -0.5015300512313843, -0.01945650205016136, -0.07327468693256378, 0.048260048031806946, 0.2577090859413147, 0.1557750701904297, 0.31331735849380493, 0.1492849588394165, 0.231434166431427, -0.11402976512908936, -0.12111074477434158, 0.4063069522380829, 0.3026379346847534, -0.15796782076358795, -0.4379911422729492, -0.04760685935616493, 0.14172261953353882, -0.08510340005159378, -0.09950833767652512, -0.12455793470144272, 0.0734441876411438, 0.28997328877449036, 0.027948349714279175, -0.10777999460697174, -0.18965782225131989, -0.4951595664024353, 0.21352188289165497, 0.3060745298862457, 0.19386984407901764, 0.17960649728775024, 0.09880534559488297, 0.3670773208141327, -0.13948234915733337, 0.2614152729511261, 0.10695353895425797, -0.10541996359825134, 0.3704145550727844, 0.16331836581230164, 0.2518984079360962, 0.23635807633399963, 0.11020853370428085, -0.13084574043750763, 0.18787206709384918, 0.021302996203303337, 0.10278644412755966, 0.24391579627990723, 0.07960069179534912, -0.09208576381206512, 0.12349338084459305, 0.1868923008441925, 0.013542874716222286, -0.06397772580385208, -0.17310111224651337, -0.010618720203638077, 0.055110685527324677, 0.013193934224545956, -0.03434310108423233, -0.008466199971735477, -0.07091803848743439, -0.06484834849834442, -0.13219694793224335, 0.19259688258171082, 0.3239707052707672, -6.381199636962265e-05, 0.2551157474517822, 0.08499326556921005, -0.10592064261436462, 0.004601229447871447, -0.16722123324871063, 0.07268552482128143, 0.06533858180046082, -0.2396867722272873, -0.05402849614620209, -0.14821448922157288, 0.03890267014503479, -0.09456375986337662, -0.09550748020410538, -0.0324191115796566, -0.16588908433914185, -0.1329202950000763, -0.022617176175117493, -0.1167420968413353, 0.2303711622953415, -0.054489925503730774, -0.03320568799972534, -0.0828678160905838, 0.0019080712227150798, 0.19398745894432068, -0.05407159775495529, 0.17231066524982452, -0.041541099548339844, -0.004210193641483784, -0.14362379908561707, 0.244903102517128, -0.028063476085662842, 0.1197667047381401, 0.045963529497385025, -0.13502611219882965, 0.020864252001047134, -0.010855002328753471, 0.003864394035190344, 0.10112864524126053, 0.12521646916866302, 0.16301825642585754, -0.12363278865814209, 0.0017213327810168266, 0.130476176738739, 0.019137881696224213, 0.10173317044973373, -0.0658966526389122, -0.008571918122470379, -0.1173710972070694, 0.255545049905777, 0.06276912987232208, 0.05592055991292, 0.11837625503540039, 0.14567476511001587, -0.050568319857120514, 0.08022838085889816, -0.05717094615101814, -0.2740147113800049, -0.24146133661270142, -0.09902212023735046, 0.06293637305498123, -0.10178285092115402, 0.03636077046394348, 0.11417961120605469, -0.29559800028800964, 0.30992162227630615, -0.0324171707034111, 0.004516302607953548, 0.19647274911403656, 0.09030943363904953, 0.34747424721717834, -0.10353565961122513, 0.018716173246502876, -0.003641276154667139, -0.39730507135391235, -0.17787866294384003, 0.02135360613465309, -0.29288241267204285, 0.11460696905851364, -0.10986369848251343, -0.011487290263175964, 0.08088712394237518, 0.06355279684066772, 0.09260737150907516, 0.10962314903736115, 0.2754307985305786, -0.244968444108963, 0.1715669482946396, 0.04950693994760513, 0.0924939513206482, 0.1019657626748085, -0.37461692094802856, -0.23929822444915771, 0.13835422694683075, 0.24175582826137543, -0.08633361756801605, 0.29920774698257446, 0.048001378774642944, -0.3547520637512207, 0.0161671694368124, -0.13217788934707642, 0.07539698481559753, -0.009842230007052422, -0.10881240665912628, 0.1526932269334793, -0.2847708761692047, -0.4054141342639923, 0.17188967764377594, -0.033314820379018784, 0.10965897142887115, 0.18039646744728088, -0.03261539712548256, 0.14691650867462158, -0.19451278448104858, -0.16383899748325348, 0.21878384053707123, -0.3270016610622406, 0.10934113711118698, 0.1928832232952118, -0.2906179428100586, -0.1695937216281891, 0.23725780844688416, -0.21662747859954834, 0.007926974445581436, -0.059752967208623886, -0.121416836977005, -0.18718889355659485, 0.15659619867801666, -0.3908291459083557, 0.10666057467460632, -0.09446564316749573, -0.09397055208683014, 0.15851318836212158, -0.0889056846499443, 0.018182139843702316, 0.15176662802696228, -0.04064483940601349, -0.13695307075977325, -0.09786834567785263, -0.3077573776245117, -0.22857096791267395, -0.13930514454841614, 0.21372786164283752, -0.27825742959976196, -0.14795395731925964, 0.17379827797412872, 0.16042348742485046, -0.12911805510520935, 0.11654242873191833, 0.2691705822944641, 0.2970212996006012, -0.28922608494758606, -0.25035586953163147, 0.1153777465224266, 0.08818497508764267, 0.15571723878383636, -0.003133665071800351, -0.05412039905786514, -0.08152925968170166, 0.04195798933506012, 0.336147665977478, 0.19880373775959015, -0.15507906675338745, 0.07763627916574478, 0.1314123123884201, 0.053362760692834854, -0.2014738768339157, -0.1625100076198578, 0.1751069724559784, 0.34393739700317383, 0.02924676053225994, -0.10112105309963226, -0.22425875067710876, -0.019010858610272408, 0.05494697764515877, -0.1484561711549759, -0.3203963339328766, -0.22537308931350708, -0.3751433193683624, -0.304907888174057, -0.10701017081737518, 0.19592370092868805, 0.2561929523944855, -0.009112113155424595, -0.017652003094553947, 0.1977226883172989, 0.19833429157733917, 0.1809062957763672, -0.0338154099881649, 0.02379140444099903, -0.059170108288526535, -0.3126460015773773, -0.13626287877559662, -0.14914670586585999, -0.13464365899562836, -0.24192677438259125, -0.3534786105155945, -0.185271754860878, 0.10322800278663635, 0.6016669869422913, 0.28977662324905396, -0.169088676571846, -0.2354968786239624, -0.09029750525951385, -0.23700720071792603, -0.027427662163972855, -0.10276923328638077, -0.08032220602035522, 0.07095702737569809, 0.19462090730667114, 0.0696505457162857, -0.21723003685474396, -0.09477119147777557, -0.1514938473701477, -0.4657334089279175, -0.2083648294210434, 0.057120032608509064, -0.06313412636518478, -0.172909215092659, -0.10554508864879608, 0.09544641524553299, 0.047255054116249084, 0.27577561140060425, -0.035850949585437775, 0.15833643078804016, -0.029292233288288116, 0.06165725365281105, 0.1035643145442009, -0.1019970178604126, 0.09255446493625641, -0.07992909848690033, -0.10016058385372162, 0.08496581763029099, -0.02718990668654442, -0.24063825607299805, -0.06796126067638397, -0.17539429664611816, -0.17618699371814728, -0.10362420231103897, -0.003166163805872202, -0.02259783260524273, -0.18789036571979523, -0.012635205872356892, -0.002595380414277315, 0.1902690976858139, 0.0023007316049188375, -0.06909601390361786, -0.23703038692474365, 0.15128877758979797, -0.08591107279062271, 0.04063613340258598, 0.02124023623764515, -0.05343765765428543, -0.18325459957122803, 0.06704987585544586, -0.00266117206774652, 0.15679821372032166, 0.09447147697210312, 0.1745932549238205, -0.1103474423289299, -0.08644378930330276, -0.1736760288476944, -0.12180879712104797, -0.1757504940032959, -0.09694317728281021, -0.04673374816775322, -0.018580468371510506, 0.06885457038879395, 0.08464086800813675, -0.1148238480091095, 0.047974128276109695, -0.10228130221366882, 0.08364248275756836, 0.10177362710237503, -0.19032123684883118, 0.060947664082050323, 0.002594200661405921, -0.07558143883943558, 0.12349974364042282, 0.12991361320018768, 0.0732509046792984, -0.16555900871753693, 0.0446087121963501, -0.018155405297875404, 0.05412615090608597, 0.13719592988491058, 0.03208300843834877, 0.0873672217130661, -0.15995535254478455, -0.1385631561279297, -0.15909354388713837, -0.09201425313949585, -0.07304662466049194, 0.12242572009563446, -0.010264156386256218, 0.14688588678836823, -0.0978206917643547, -0.08896254003047943, -0.3462889492511749, -0.06843278557062149, -0.05674581229686737, -0.29964348673820496, -0.177914097905159], "bias": [-0.8132430911064148, 0.25822383165359497, -0.860212504863739, -0.8782398104667664, 0.627712607383728, -0.1820305734872818, 0.5140154361724854, 0.3449622392654419, -0.694240927696228, -0.08014045655727386, -0.2041780948638916, -0.6711238026618958, -0.44017940759658813, 0.37267976999282837, 0.563023030757904, -1.0410913228988647, 0.2537606358528137, 0.18838396668434143, 0.3589422106742859, 0.4094701111316681, -0.5405298471450806, -0.7171292901039124, -0.3322652280330658, -0.26081323623657227, 0.31273967027664185, 0.12742213904857635, -0.000570639967918396, -1.0084633827209473, -0.1100541353225708, 0.4805918335914612, 0.6601775884628296, 0.6569311618804932]}, {"in": 32, "out": 64, "k": 3, "stride": 2, "pad": 1, "weight": [0.11950139701366425, 0.20868660509586334, -0.17280970513820648, -0.06506901979446411, 0.00012349708413239568, 0.04875767230987549, -0.09987933933734894, 0.04242131859064102, -0.05089682713150978, 0.01993405818939209, 0.0987800881266594, -0.18203385174274445, 0.1279187798500061, 0.06139644235372543, -0.1649641990661621, -0.23915493488311768, 0.07830684632062912, -0.18956200778484344, -0.2330152988433838, -0.1035599410533905, 0.2264513075351715, 0.13876013457775116, 0.06481607258319855, -0.058641884475946426, 0.22094668447971344, -0.048632487654685974, -0.2319871038198471, 0.04323612153530121, 0.08739188313484192, -0.13239334523677826, -0.04752219468355179, 0.08753951638936996, 0.007661955431103706, 0.312808632850647, 0.14847950637340546, 0.16420243680477142, 0.03318110108375549, -0.0026317404117435217, -0.10209924727678299, -0.10342644155025482, -0.051916614174842834, -0.0023288570810109377, -0.22788594663143158, 0.15120545029640198, -0.08520928770303726, -0.027447454631328583, -0.015679845586419106, -0.03764406964182854, 0.09986381232738495, 0.09216535836458206, 0.12322821468114853, 0.10262328386306763, -0.25864577293395996, 0.1087300181388855, -0.0009251220035366714, 0.18492048978805542, 0.10508879274129868, 0.087118960916996, -0.1947546899318695, 0.0753171518445015, -0.07448415458202362, 0.08461924642324448, 0.05127348750829697, 0.17462266981601715, -0.2078528106212616, 0.028923239558935165, -0.0554838553071022, -0.08348622173070908, 0.0492212176322937, 0.10961539298295975, -0.09784243255853653, -0.2252212017774582, 0.060503728687763214, -0.08738107234239578, 0.02568231336772442, -8.279895700979978e-05, -0.09780442714691162, -0.03583630546927452, 0.05270131304860115, -0.18890254199504852, -0.05391436070203781, -0.17941780388355255, -0.025576665997505188, 0.1459433138370514, -0.3291774094104767, -0.023161794990301132, 0.027610259130597115, 0.17135953903198242, 0.06542102992534637, 0.1100994274020195, -0.057092390954494476, 0.07527201622724533, 0.09066493809223175, 0.019121481105685234, 0.03631962835788727, 0.3365679383277893, -0.12719178199768066, -0.02814338728785515, 0.0393393374979496, 0.1371641904115677, 0.09260758012533188, 0.07547297328710556, 0.12070813030004501, -0.0069144112057983875, -0.05158006399869919, 0.108934685587883, 0.07457153499126434, 0.11214231699705124, 0.08170151710510254, -0.20732949674129486, -0.12314042448997498, -0.2044590562582016, -0.04075814038515091, -0.0027863066643476486, -0.12656211853027344, -0.031770117580890656, -0.2006755769252777, 0.02698083594441414, 0.0157255120575428, 0.12693585455417633, 0.09046414494514465, -0.0406976081430912, -0.2346552163362503, -0.011638354510068893, -0.1569385677576065, 0.01475341897457838, 0.03280506655573845, -0.23187212646007538, -0.008662335574626923, 0.11845218390226364, 0.13547579944133759, -0.10994011163711548, 0.08407227694988251, -0.016682719811797142, 0.006665405817329884, -0.026467014104127884, -0.15681615471839905, -0.06689371913671494, -0.1985073983669281, -0.13382594287395477, -0.016246585175395012, 0.16955149173736572, 0.1318480521440506, 0.00711929053068161, -0.049451686441898346, 0.0018423338187858462, -0.2849954068660736, 0.0648493617773056, -0.0539136603474617, 0.008116548880934715, -0.18783752620220184, 0.05149659886956215, 0.017009884119033813, 0.1271665245294571, 0.15828712284564972, -0.0653512254357338, 0.18121492862701416, 0.15930356085300446, 0.026202088221907616, -0.13337640464305878, -0.30066415667533875, -0.3077954351902008, -0.02866758406162262, 0.06793829798698425, -0.09392337501049042, -0.07562839239835739, -0.20753616094589233, 0.01393184531480074, -0.06403622776269913, -0.07968679070472717, -0.002880942542105913, 0.05966721475124359, 0.12508966028690338, 0.021234849467873573, 0.028195029124617577, 0.09199966490268707, 0.02912505902349949, 0.008101318031549454, 0.2967243492603302, 0.2068542242050171, -0.17160244286060333, -0.0668531209230423, -0.08311282843351364, -0.20747415721416473, -0.14165355265140533, -0.0908619835972786, -0.232023686170578, -0.2216009795665741, -0.2979506254196167, 0.05435344576835632, -0.04227825254201889, -0.1606895923614502, 0.001591487554833293, 0.11631342023611069, 0.09846686571836472, -0.15035958588123322, 0.008661743253469467, 0.0648106038570404, -0.13800932466983795, -0.005086113233119249, -0.01712491363286972, -0.08544465899467468, -0.07371608912944794, -0.03122696839272976, -0.19858160614967346, 0.04585692286491394, 0.021595381200313568, -0.2024870663881302, -0.16929693520069122, -0.24547892808914185, -0.13978324830532074, 0.0415300577878952, -0.048565030097961426, -0.024340389296412468, -0.1425790935754776, -0.002710898406803608, -0.1578933298587799, 0.0015256686601787806, -0.06838417798280716, -0.17620980739593506, -0.09560851752758026, -0.16079142689704895, 0.00739268958568573, 0.14920203387737274, -0.17268994450569153, -0.0769631490111351, -0.26980525255203247, -0.11904780566692352, -0.04318452626466751, 0.0007524854154326022, 0.14925497770309448, -0.1853209137916565, -0.012657216750085354, -0.12297341227531433, -0.06817957013845444, 0.030326619744300842, -0.03984334319829941, -0.038416787981987, 0.10397583246231079, 0.12299695611000061, 0.14245198667049408, 0.0468100942671299, 0.024154849350452423, -0.05273357406258583, 0.0898810550570488, 0.1321113407611847, -0.1508854180574417, -0.02622264437377453, -0.017917653545737267, 0.01763322204351425, 0.09093446284532547, -0.11706580221652985, -0.033005449920892715, 0.06944973766803741, 0.08708088845014572, -0.13253669440746307, -0.22338883578777313, -0.05310498923063278, -0.001633440493606031, -0.08099902421236038, -0.051918402314186096, -0.0800882875919342, 0.1011204645037651, -0.008640523068606853, 0.16566167771816254, 0.09018970280885696, 0.13136328756809235, -0.08802399784326553, 0.1897697150707245, 0.18359407782554626, -0.0794493779540062, -0.1498880684375763, -0.04316044971346855, 0.20725172758102417, 0.17852182686328888, 0.21040624380111694, -0.10797770321369171, -0.04638957977294922, -0.008647115901112556, -0.03786645084619522, 0.024851791560649872, -0.07010468095541, 0.028579160571098328, -0.09824418276548386, -0.08959770202636719, -0.15180708467960358, 0.09237953275442123, 0.04769516736268997, -0.038634736090898514, -0.2656317353248596, 0.005117055494338274, -0.01186064537614584, -0.12497558444738388, -0.09758742898702621, -0.16564787924289703, -0.2728765308856964, 0.0054486519657075405, 0.18340671062469482, -0.18181061744689941, -0.09898955374956131, -0.2187013030052185, 0.3063422441482544, -0.3358006775379181, 0.02008495107293129, -0.004494558088481426, 0.24335458874702454, -0.13322965800762177, 0.02955356240272522, -0.02742670103907585, -0.33916378021240234, -0.4330733120441437, 0.026170868426561356, 0.24155563116073608, -0.02992989495396614, -0.048465728759765625, -0.16038073599338531, 0.029174964874982834, 0.0391153059899807, -0.055096335709095, -0.03264859691262245, 0.10830182582139969, 0.015862341970205307, 0.1260940581560135, -0.13169996440410614, -0.20716071128845215, 0.0013510579010471702, 0.19472311437129974, -0.07820626348257065, 0.11163996160030365, 0.11514311283826828, 0.16219869256019592, 0.3260897994041443, 0.21634453535079956, 0.13232605159282684, 0.30205801129341125, 0.06419535726308823, 0.13863006234169006, 0.1560872197151184, -0.09811322391033173, 0.03354859724640846, -0.03409862145781517, 0.021262608468532562, -0.09929021447896957, -0.2917657494544983, 0.1737068146467209, -0.19680507481098175, -0.17231185734272003, 0.11851521581411362, -0.29289835691452026, 0.0612330362200737, -0.0020774805452674627, -0.03945082053542137, 0.006634355057030916, 0.05105620622634888, 0.22808709740638733, 0.02108815871179104, 0.14656825363636017, -0.09791981428861618, -0.07369206100702286, 0.0012754702474921942, 0.21747924387454987, -0.07741884887218475, 0.2802121937274933, 0.11950476467609406, 0.11668027192354202, -0.09332585334777832, 0.2114604264497757, -0.02073499746620655, -0.16034027934074402, 0.05423722416162491, 0.17666630446910858, 0.16403445601463318, 0.007400470785796642, 0.10411826521158218, 0.30210497975349426, -0.32449787855148315, -0.03281718119978905, 0.13630744814872742, -0.30861490964889526, 0.2199682891368866, 0.22924552857875824, -0.10249310731887817, 0.2642512321472168, 0.16142146289348602, -0.05993807688355446, 0.013168325647711754, -0.10899168252944946, -0.3679841160774231, -0.29687488079071045, -0.31429558992385864, -0.043228041380643845, -0.23431052267551422, -0.16925816237926483, 0.1031392440199852, -0.10754192620515823, 0.08912251144647598, -0.1925373375415802, -0.21839851140975952, -0.02528640441596508, 0.15662048757076263, -0.1260487139225006, -0.23635204136371613, -0.10628685355186462, 0.1239362508058548, 0.06914421916007996, 0.0705331489443779, 0.31159645318984985, 0.22202005982398987, -0.12731952965259552, 0.1383284628391266, 0.14745883643627167, -0.0901697650551796, -0.10380616039037704, -0.18312516808509827, 0.012420415878295898, 0.17939406633377075, -0.06241603568196297, -0.1591997742652893, -0.153852179646492, 0.12414030730724335, 0.0002547227486502379, 0.05606547370553017, 0.07945692539215088, 0.06343593448400497, -0.041612811386585236, 0.09096402674913406, -0.027323700487613678, 0.06954749673604965, 0.2071809321641922, -0.04891784116625786, 0.23495593667030334, -0.07893873751163483, -0.008797893300652504, -0.2012251615524292, -0.04003011807799339, 0.048509299755096436, 0.0038362075574696064, 0.26451367139816284, 0.16310055553913116, 0.1511482298374176, -0.04367973282933235, 0.17332027852535248, -0.1261359304189682, -0.06504424661397934, -0.0032829875126481056, -0.02646215260028839, 0.0010797304566949606, -0.0935952216386795, -0.3119785189628601, -0.2958849370479584, -0.006446271203458309, 0.036341048777103424, 0.17630966007709503, 0.08253081887960434, -0.1343378722667694, -0.057644352316856384, -0.021180618554353714, 0.12200456857681274, -0.042995959520339966, -0.16398295760154724, -0.13826151192188263, -0.09116379171609879, 0.16137689352035522, 0.10805440694093704, -0.12918061017990112, 0.08820118755102158, 0.23227889835834503, 0.2832569479942322, 0.07425632327795029, -0.1914435476064682, -0.2122792899608612, 0.1888832151889801, 0.08770246803760529, 0.031621046364307404, 0.1597287654876709, -0.10732673108577728, 0.08699580281972885, 0.09885328263044357, -0.11256203800439835, 0.13998347520828247, -0.09087025374174118, -0.01880081556737423, 0.33857089281082153, 0.00033085193717852235, -0.060487110167741776, 0.12294846773147583, 0.07203004509210587, -0.17661210894584656, 0.014019008725881577, -0.23571419715881348, -0.09628139436244965, -0.07412824779748917, 0.2074340134859085, 0.08754856884479523, 0.27232983708381653, 0.12173701822757721, 0.03672657161951065, -0.15233799815177917, -0.3573433458805084, 0.1929100751876831, 0.03276224434375763, 0.1794392168521881, 0.23046542704105377, 0.04980171099305153, 0.16714663803577423, 0.32906919717788696, 0.033267732709646225, 0.12135718017816544, -0.1629643440246582, -0.2321695238351822, 0.11749705672264099, 0.1576167643070221, -0.019487880170345306, -0.25774094462394714, -0.05132993310689926, 0.17585675418376923, 0.26969850063323975, 0.08547160029411316, -0.21359285712242126, 0.18173442780971527, 0.08377742022275925, 0.22486816346645355, 0.21816687285900116, 0.1358666867017746, 0.33504143357276917, -0.4113101661205292, -0.33130162954330444, -0.11183580756187439, 0.006154910661280155, -0.014614883810281754, -0.023765064775943756, -0.018597910180687904, 0.16157658398151398, 0.036993980407714844, -0.06863518059253693, -0.3490805923938751, -0.11687726527452469, -0.22956930100917816, 0.13142214715480804, 0.0489543080329895, 0.10505117475986481, 0.19034792482852936, 0.12664133310317993, -0.3145276606082916, -0.07822271436452866, 0.22593539953231812, 0.36711385846138, 0.3161473572254181, -0.04575406759977341, -0.015492856502532959, 0.2910007834434509, 0.14161701500415802, -0.102842777967453, 0.2804378867149353, -0.21388933062553406, 0.003964932169765234, 0.09573141485452652, 0.16307854652404785, 0.1999778002500534, 0.2603929042816162, 0.3018415570259094, 0.07742144167423248, 0.27162477374076843, 0.12201517075300217, 0.45403119921684265, -0.3513607382774353, -0.48863592743873596, 0.5550073981285095, -0.015907390043139458, 0.21835418045520782, 0.32407549023628235, -0.3530813157558441, 0.14322365820407867, -0.047830063849687576, -0.251443088054657, 0.1383078545331955, -0.17642132937908173, -0.12648728489875793, 0.023262083530426025, 0.12800830602645874, 0.16822397708892822, 0.04350009933114052, -0.2635798752307892, -0.16771413385868073, 0.02710777521133423, -0.08613666146993637, -0.20183221995830536, 0.404654324054718, -0.1936967372894287, 0.028181247413158417, -0.1323254555463791, -0.023820972070097923, 0.03337820619344711, 0.05583669990301132, -0.19150622189044952, -0.21580427885055542, -0.054241351783275604, 0.002323475666344166, -0.058455225080251694, 0.13542114198207855, -0.2261500358581543, -0.12733404338359833, 0.004958232864737511, 0.12247423082590103, -0.03062368556857109, 0.073381207883358, -0.15898598730564117, -0.06612120568752289, 0.03427720069885254, 0.06325110048055649, -0.055619217455387115, -0.023379230871796608, -0.3478865921497345, 0.04747145250439644, -0.1771915704011917, -0.11594691127538681, 0.21403415501117706, -0.22213272750377655, 0.07918622344732285, -0.016598431393504143, -0.059861920773983, -0.15577223896980286, -0.010959651321172714, 0.04363280162215233, -0.005140450783073902, 0.12584111094474792, 0.2271411120891571, 0.013310047797858715, -0.31261852383613586, 0.12875162065029144, 0.044572241604328156, -0.07112271338701248, -0.12744145095348358, 0.11186996102333069, -0.008526160381734371, 0.12326615303754807, -0.11937546730041504, -0.0946880653500557, -0.051249679177999496, -0.05259690806269646, -0.04081699997186661, 0.14594103395938873, -0.0270569808781147, -0.16212323307991028, -0.10243530571460724, -0.28839775919914246, -0.11640220880508423, -0.05590543895959854, -0.10827484726905823, 0.0167531855404377, 0.036370959132909775, -0.14747478067874908, -0.004011804703623056, 0.25430577993392944, 0.06536176800727844, 0.0611741803586483, 0.04660780727863312, 0.24747607111930847, -0.13036349415779114, 0.046385593712329865, 0.21141625940799713, -0.07508556544780731, 0.01923924684524536, -0.01932719722390175, 0.09325535595417023, -0.2606270909309387, 0.17389264702796936, -0.4000890851020813, 0.1664023995399475, -0.0006881142617203295, -0.2535361051559448, 0.13912352919578552, -0.041290752589702606, 0.016220849007368088, -0.0659884661436081, -0.0387006476521492, 0.10249476879835129, 0.12166712433099747, -0.07691168785095215, 0.018321949988603592, -0.12694543600082397, -0.022467797622084618, -0.09114465862512589, -0.07074153423309326, 0.011493743397295475, 0.03063157945871353, -0.13129639625549316, -0.06617020070552826, 0.0707935094833374, 0.18440504372119904, -0.09746962785720825, -0.03187952935695648, -0.012679945677518845, -0.02919931150972843, 0.13227397203445435, 0.08623851835727692, -0.18443815410137177, -0.11349374055862427, -0.25253570079803467, -0.0855390727519989, -0.07252555340528488, -0.17663274705410004, -0.21946945786476135, -0.11627288162708282, 0.06831067055463791, -0.05795855447649956, -0.03595347702503204, -0.2633458077907562, -0.04589211568236351, 0.12327155470848083, 0.03766687586903572, -0.10667166113853455, -0.2664547264575958, -0.09257137775421143, 0.2390427589416504, 0.02989051677286625, 0.06581613421440125, -0.04545067995786667, -0.14142194390296936, 0.16692715883255005, 0.024778082966804504, 0.19264188408851624, 0.19442632794380188, 0.1265876442193985, 0.24868306517601013, 0.17249946296215057, 0.2701472342014313, -0.09912095963954926, -0.06050300598144531, 0.02628028206527233, 0.08801422268152237, 0.09074829518795013, -0.023500725626945496, 0.1111869141459465, 0.23539245128631592, 0.07773588597774506, 0.07121631503105164, -0.060447826981544495, -0.1394759565591812, 0.004440167918801308, -0.19715723395347595, -0.16766585409641266, -0.009893014095723629, -0.10295385122299194, -0.006388860289007425, -0.0845176950097084, 0.0023979265242815018, 0.045698098838329315, -0.03826821595430374, -0.1330229789018631, 0.1424580067396164, 0.1434410661458969, 0.28941553831100464, -0.16412422060966492, -0.3482966721057892, -0.11751288175582886, -0.18050925433635712, 0.03295727074146271, 0.10543028265237808, 0.10527678579092026, 0.12949074804782867, -0.010723691433668137, -0.2382436841726303, -0.1377018541097641, -0.09133289754390717, 0.14563512802124023, 0.01495247334241867, 0.07811486721038818, -0.1388949751853943, 0.0258740596473217, -0.13431189954280853, -0.07416387647390366, -0.1657545119524002, 0.036367300897836685, -0.12953972816467285, -0.23435719311237335, -0.23384439945220947, -0.02203046903014183, -0.1750272959470749, 0.11493571102619171, 0.02112298458814621, -0.09476736932992935, -0.0726860985159874, 0.14682815968990326, 0.22593526542186737, -0.07253427058458328, 0.2682785987854004, -0.07472136616706848, -0.003178258426487446, -0.3019934594631195, 0.08320498466491699, -0.0976351723074913, -0.044207118451595306, 0.16287466883659363, -0.15633763372898102, -0.13191699981689453, -0.14247553050518036, -0.09120941162109375, -0.15360751748085022, -0.1853330433368683, -0.21560725569725037, -0.09846272319555283, -0.2526552677154541, -0.03071824461221695, -0.054819706827402115, -0.027068933472037315, 0.022930050268769264, 0.13432130217552185, 0.2948668301105499, -0.1502014845609665, -0.07211928069591522, 0.08684727549552917, 0.10539671033620834, -0.14729826152324677, -0.0990639179944992, -0.10270441323518753, 0.012468045577406883, -0.08913040161132812, 0.028590265661478043, 0.18262402713298798, 0.11837076395750046, 0.06334807723760605, 0.042489197105169296, -0.24682696163654327, -0.24226073920726776, -0.09974216669797897, 0.10473804920911789, -0.0353160984814167, -0.16500593721866608, -0.07575958967208862, -0.1606011539697647, 0.06954848021268845, -0.10398867726325989, 0.11016864329576492, -0.08044206351041794, 0.06226925179362297, -0.09968170523643494, 0.15843483805656433, 0.25670549273490906, 0.13239292800426483, 0.05848570168018341, 0.01852121576666832, -0.04407196491956711, 0.05233897268772125, 0.16142073273658752, 0.10486208647489548, 0.13309147953987122, -0.039433956146240234, -0.10085789859294891, 0.09419222176074982, 0.11779385805130005, 0.10752736032009125, 0.1592961847782135, 0.052224718034267426, 0.059969428926706314, -0.04046277329325676, -0.1884605586528778, -0.047447167336940765, 0.14478810131549835, 0.21588699519634247, 0.06436783075332642, -0.07729094475507736, 0.10926955938339233, 0.05591128021478653, -0.011746437288820744, -0.12394094467163086, 0.21977432072162628, -0.08087659627199173, -0.03789550065994263, -0.09253346174955368, -0.0431172251701355, -0.1973952203989029, 0.06563911586999893, -0.20596861839294434, -0.15451525151729584, 0.019585348665714264, 0.007076631765812635, 0.0692979022860527, 0.11298441886901855, 0.09906767308712006, -0.27774953842163086, 0.19914694130420685, -0.11898839473724365, -0.24433380365371704, 0.19103050231933594, -0.012850684113800526, -0.024503374472260475, 0.039123259484767914, 0.19527988135814667, -0.17021459341049194, 0.07561498880386353, 0.13202284276485443, -0.16911792755126953, 0.04850084334611893, -0.1921171396970749, 0.0021438621915876865, 0.06569181382656097, -0.24959446489810944, 0.25518301129341125, 0.02668122388422489, 0.12822282314300537, -0.20043271780014038, 0.0413690060377121, -0.22231167554855347, -0.1044621393084526, -0.2971420884132385, -0.10671477764844894, -0.07074830681085587, 0.08897590637207031, -0.16201481223106384, -0.005865039303898811, 0.09706493467092514, -0.05315770208835602, -0.19336707890033722, 0.1052907332777977, 0.10366828739643097, -0.07871823757886887, 0.06744454056024551, -0.04640641435980797, -0.14159394800662994, -0.00798706989735365, 0.16533823311328888, -0.04773314669728279, 0.05716802924871445, -0.08441608399152756, -0.14097461104393005, 0.208892822265625, 0.06396380066871643, -0.1635458767414093, -0.08024324476718903, 0.3654853105545044, -0.16606570780277252, -0.08394104987382889, 0.06928735971450806, -0.20309333503246307, -0.2139943391084671, 0.10610231012105942, -0.25568604469299316, -0.0783868134021759, 0.11297092586755753, -0.12384213507175446, -0.11021791398525238, 0.017621012404561043, 0.1364509016275406, 0.21919527649879456, -0.03992638736963272, -0.2280498594045639, -0.2746050953865051, 0.1369199901819229, -0.056212615221738815, 0.11623097956180573, 0.04664072021842003, 0.029846008867025375, 0.13035880029201508, -0.15101101994514465, -0.04900979995727539, 0.1334138959646225, 0.0345134362578392, 0.05195077508687973, -0.10736018419265747, -0.2998013496398926, -0.11777953058481216, -0.06372135877609253, -0.018225422129034996, -0.015561031177639961, -0.1604412943124771, 0.14197799563407898, 0.1685989946126938, 0.10733550786972046, 0.15084783732891083, -0.11328751593828201, 0.04272634536027908, 0.05865149945020676, -0.08097575604915619, 0.0285574309527874, -0.05292652174830437, -0.11070563644170761, 0.10795344412326813, 0.03762814775109291, -0.10538357496261597, 0.08011981844902039, -0.1517646163702011, -0.005848901346325874, 0.07001478224992752, 0.04173478111624718, -0.038661252707242966, 0.05519302934408188, 0.04702242463827133, -0.11495991051197052, 0.04186750948429108, 0.12237270176410675, 0.14992739260196686, 0.23401957750320435, 0.10695219039916992, 0.04204726591706276, -0.11518780887126923, 0.2424100637435913, 0.08908556401729584, 0.1094648689031601, -0.043394025415182114, -0.22673210501670837, -0.15314723551273346, -0.07115205377340317, 0.1696902960538864, 0.07324013859033585, 0.1254209280014038, -0.013475560583174229, 0.13431961834430695, -0.07278083264827728, -0.24291640520095825, 0.08616644144058228, -0.23279596865177155, 0.09755680710077286, -0.048937562853097916, -0.05677643418312073, 0.055646710097789764, -0.05876397341489792, 0.08425550162792206, 0.11424259096384048, -0.046126946806907654, 0.09870447218418121, -0.183629110455513, -0.1607920229434967, 0.0202325526624918, -0.06460312008857727, 0.08272138237953186, 0.08967165648937225, 0.21241959929466248, -0.05956079065799713, 0.08919957280158997, 0.009662800468504429, 0.18264628946781158, 0.11686544120311737, -0.09757404029369354, 0.07908717542886734, -0.18482676148414612, -0.09217043220996857, -0.1468726545572281, 0.18553043901920319, 0.07362725585699081, 0.16372419893741608, -0.04790226370096207, -0.043224334716796875, 0.07494614273309708, 0.10039865225553513, 0.02011791430413723, -0.0874793529510498, -0.049003973603248596, -0.1681644767522812, 0.07062054425477982, -0.08605628460645676, 0.005421148147433996, -0.1748182475566864, -0.059965915977954865, -0.234817236661911, -0.12489620596170425, -0.27534762024879456, -0.11786587536334991, -0.15135428309440613, -0.2691347301006317, -0.2525288760662079, 0.008245836943387985, -0.08111593872308731, -0.09474018961191177, 0.1531832069158554, 0.07581130415201187, 0.09753017127513885, 0.00011638256546575576, 0.17928043007850647, -0.07413214445114136, 0.16428662836551666, 0.05935828015208244, 0.01913795992732048, -0.07438226044178009, -0.20175836980342865, -0.0053977626375854015, -0.07638779282569885, -0.1253073513507843, -0.2855048179626465, -0.1271698772907257, -0.21004213392734528, -0.13820403814315796, -0.19918137788772583, -0.17964768409729004, -0.12842579185962677, 0.14343340694904327, 0.03195170313119888, 0.06974134594202042, -0.0211957897990942, 0.019557278603315353, -0.17030753195285797, -0.0281793475151062, -0.21691329777240753, -0.04553384333848953, -0.02023746632039547, 0.028140559792518616, -0.08259955793619156, -0.2342522293329239, -0.1268867403268814, -0.11830222606658936, -0.10506920516490936, 0.13309422135353088, 0.0770227313041687, 0.22068317234516144, 0.24474114179611206, 0.00932800117880106, 0.16293293237686157, -0.08223935216665268, 0.21771515905857086, -0.16069123148918152, 0.06838152557611465, -0.06748174130916595, -0.13068951666355133, 0.040990762412548065, 0.030719222500920296, -0.03145913407206535, 0.03806683421134949, -0.14164069294929504, 0.04399339482188225, 0.04987030103802681, -0.07247413694858551, 0.2194584459066391, 0.06665085256099701, 0.02543533407151699, 0.20046471059322357, 0.009541552513837814, 0.13056373596191406, 0.1667725294828415, -0.04001671448349953, 0.006321113556623459, 0.044288355857133865, 0.06434933841228485, 0.29349133372306824, 0.20449255406856537, 0.12862662971019745, 0.28603601455688477, 0.1308278739452362, -0.22792330384254456, 0.17914903163909912, -0.09972517192363739, 0.0766691043972969, -0.04594414308667183, 0.09976010769605637, 0.11650200188159943, 0.03421594575047493, 0.07754120230674744, -0.6077929139137268, -0.1667538732290268, -0.09819510579109192, -0.01457417942583561, 0.22676822543144226, -0.07106482237577438, 0.2523399591445923, -0.1886843591928482, -0.07526738196611404, -0.09392726421356201, -0.005322514567524195, -0.1391667276620865, 0.002064066706225276, -0.10461036115884781, -0.09085354208946228, 0.38871124386787415, -0.13062210381031036, -0.06196753308176994, 0.6646022796630859, 0.544974148273468, -0.4517742395401001, 0.2269168347120285, -0.2726256251335144, -0.07559762895107269, 0.024939218536019325, 0.24431313574314117, -0.13361404836177826, 0.2611129879951477, 0.01387220062315464, -0.024256614968180656, 0.12540659308433533, -0.28930002450942993, 0.17344319820404053, -0.02009589783847332, 0.2657076120376587, 0.02375066839158535, 0.03930816799402237, 0.08373582363128662, 0.09003247320652008, 0.24893923103809357, 0.03367526829242706, -0.2231854945421219, -0.16181474924087524, -0.010210096836090088, -0.04744953289628029, -0.08262569457292557, 0.41119080781936646, -0.1204768717288971, 0.007808240130543709, 0.1529008001089096, -0.33572444319725037, -0.3253288269042969, 0.2016257792711258, -0.09335246682167053, 0.2680310904979706, 0.18683820962905884, -0.15611860156059265, -0.0509975291788578, -0.10266095399856567, -0.08685894310474396, -0.19799913465976715, 0.2540718913078308, -0.14223207533359528, -0.1350097805261612, -0.2689606845378876, -0.13970474898815155, 0.1557820439338684, -0.1388348639011383, -0.04564531520009041, 0.24993519484996796, -0.08380607515573502, -0.18221823871135712, 0.1557752937078476, -0.24800345301628113, 0.03955348953604698, 0.19902926683425903, 0.03412242606282234, -0.07114680856466293, -0.1351461559534073, -0.01656464859843254, -0.08291571587324142, 0.370992511510849, 0.34301626682281494, -0.018328482285141945, -0.262971967458725, -0.02534553036093712, 0.10409072786569595, 0.08640866726636887, 0.04732661321759224, -0.052053265273571014, -0.2460087686777115, 0.05433855205774307, 0.043506089597940445, -0.09223327785730362, 0.05092955008149147, -0.2576189339160919, 0.014381300657987595, 0.38112685084342957, -0.20251213014125824, 0.2612430453300476, -0.2955809533596039, -0.19640874862670898, 0.016343193128705025, -0.03277916833758354, -0.11521291732788086, -0.043621841818094254, 0.05646459758281708, -0.061816856265068054, -0.10557457059621811, -0.10741481184959412, -0.37464022636413574, 0.13191302120685577, 0.05063682049512863, -0.22863486409187317, -0.12841889262199402, -0.15849673748016357, 0.0438818596303463, 0.12290732562541962, 0.0778641402721405, 0.027101881802082062, 0.1355479508638382, 0.12752562761306763, -0.12121497094631195, 0.029170939698815346, 0.27606865763664246, -0.25775080919265747, 0.11751435697078705, -0.15952461957931519, -0.2167709469795227, -0.05658528208732605, 0.12431004643440247, -0.05321751534938812, -0.015087118372321129, -0.20683777332305908, -0.13620950281620026, -0.015513673424720764, 0.0072969612665474415, -0.05145668238401413, -0.08402523398399353, -0.06014639511704445, 0.15032264590263367, -0.008566020056605339, -0.30841025710105896, -0.04809865728020668, -0.15538203716278076, -0.0716199278831482, -0.12221497297286987, -0.159537672996521, -0.04398277774453163, -0.15125417709350586, -0.01611216552555561, -0.06694093346595764, 0.09564230591058731, -0.04542120546102524, -0.035969093441963196, -0.08849716931581497, 0.0671185702085495, 0.06449544429779053, -0.08956775814294815, -0.07923758774995804, -0.05717438459396362, -0.22463539242744446, 0.05071207880973816, 0.040244054049253464, -0.027624040842056274, 0.1758342832326889, 0.1254630982875824, -0.0984293594956398, -0.050844334065914154, 0.13175101578235626, 0.012238998897373676, -0.1452275961637497, -0.15635177493095398, 0.11521350592374802, 0.06295901536941528, 0.010819919407367706, 0.14506873488426208, -0.010474534705281258, -0.15157830715179443, -0.16155403852462769, 0.13040265440940857, -0.04634777083992958, -0.028357110917568207, 0.044479139149188995, -0.2598773241043091, -0.08866585046052933, -0.02561408281326294, 0.12419862300157547, -0.03230240195989609, -0.04252615571022034, -0.12136413156986237, -0.14526531100273132, 0.24385783076286316, 0.13998615741729736, -0.25611764192581177, 0.10646549612283707, -0.07995933294296265, -0.24491183459758759, 0.10177835077047348, 0.04683111235499382, 0.05980740115046501, -0.007930384948849678, -0.10894101113080978, -0.058593008667230606, -0.061270687729120255, -0.03611522912979126, -0.21094177663326263, 0.025425894185900688, 0.09428206831216812, 0.25562864542007446, 0.01921982876956463, 0.2557915449142456, 0.13034361600875854, 0.10925674438476562, 0.25873062014579773, -0.21861281991004944, -0.236330047249794, -0.11847784370183945, 0.07901030778884888, 0.1410953551530838, 0.009241991676390171, 0.08405116945505142, -0.06801135092973709, -0.031067444011569023, -0.050201598554849625, 0.3277120292186737, 0.08761949092149734, 0.0018568879459053278, 0.003666730597615242, 0.16717202961444855, -0.06272057443857193, -0.058834586292505264, 0.04104819521307945, -0.3250623941421509, 0.243387371301651, 0.06733809411525726, 0.0032166943419724703, -0.14270341396331787, -0.17400425672531128, 0.06313696503639221, 0.2417953610420227, 0.1503671109676361, 0.015725141391158104, -0.11119399964809418, -0.019364437088370323, -0.1127123013138771, -0.1363649219274521, 0.06792856007814407, -0.13442392647266388, -0.03204359859228134, 0.005001516547054052, 0.010069300420582294, -0.026757819578051567, -0.03514000400900841, -0.037752170115709305, -0.03537537530064583, -0.26323291659355164, -0.294255793094635, 0.18425680696964264, -0.085995152592659, -0.0013370112283155322, 0.02546187862753868, -0.0360574908554554, -0.05994043126702309, -0.02040489763021469, -0.10719523578882217, 0.24529579281806946, 0.10537226498126984, 0.17762061953544617, -0.056073032319545746, 0.0895329937338829, -0.012462534941732883, -0.07331808656454086, -0.08138419687747955, -0.044838905334472656, 0.15331974625587463, -0.026440603658556938, 0.051245950162410736, 0.13858403265476227, 0.22187133133411407, 0.34958982467651367, 0.1984967738389969, 0.10046841204166412, 0.02502894401550293, -0.13085366785526276, -0.13921740651130676, -0.03934227302670479, -0.28562068939208984, 0.22862274944782257, 0.27283382415771484, 0.010990181006491184, -0.023911094292998314, 0.16262991726398468, 0.05352562665939331, -0.2978137731552124, 0.1237470731139183, 0.022034937515854836, -0.19231145083904266, -0.0464794859290123, 0.07052506506443024, 0.09851733595132828, -0.06734886020421982, -0.3157151937484741, -0.222873255610466, 0.07728724926710129, 0.047461122274398804, 0.06525783240795135, -0.00026634871028363705, 0.010965841822326183, 0.06243804842233658, 0.2050691545009613, 0.21756352484226227, 0.0012113101547583938, -0.267304003238678, -0.058109477162361145, -0.04423435032367706, 0.00534741161391139, -0.14452551305294037, -0.2871685028076172, 0.10911668837070465, -0.057613812386989594, -0.1265101134777069, -0.08070818334817886, 0.06289912015199661, -0.07571669667959213, -0.18233077228069305, -0.03128375485539436, -0.003948190249502659, 0.10050497949123383, 0.1250639408826828, -0.025369882583618164, -0.14281417429447174, -0.14330366253852844, -0.038344189524650574, -0.10817597806453705, -0.06368663907051086, 0.09482752531766891, 0.06155397370457649, 0.21977607905864716, -0.11557067930698395, 0.2455739825963974, 0.019586971029639244, 0.01622292771935463, 0.029955854639410973, 0.11495230346918106, -0.09017534554004669, -0.018801145255565643, -0.15457351505756378, 0.13367095589637756, 0.030928391963243484, 0.07022792845964432, 0.12596894800662994, -0.19261761009693146, 0.024076100438833237, -0.007363082841038704, 0.1555444747209549, 0.08447010815143585, -0.05505762994289398, -0.06850225478410721, -0.25584879517555237, -0.16446517407894135, -0.17142504453659058, -0.005148238502442837, -0.037376515567302704, -0.01646401360630989, 0.03523443266749382, 0.06895428150892258, -0.011193864978849888, 0.0815591812133789, -0.049124155193567276, 0.06069440394639969, 0.1301928162574768, 0.08372312039136887, -0.10978414118289948, 0.016852736473083496, -0.3860112428665161, -0.08216264098882675, -0.10751635581254959, -0.021988408640027046, -0.011419570073485374, -0.11956415325403214, 0.09286253154277802, -0.09796988219022751, -0.009989270940423012, -0.009880730882287025, -0.08356867730617523, -0.07841415703296661, -0.1700771600008011, -0.05620662122964859, -0.17125926911830902, 0.06424666196107864, -0.053832992911338806, 0.17976181209087372, 0.1475578099489212, 0.3627036511898041, 0.25327810645103455, -0.03608318418264389, -0.22178146243095398, 0.012487778440117836, -0.2545328438282013, 0.18469281494617462, 0.10812834650278091, -0.08718825876712799, 0.16910769045352936, 0.10032925009727478, -0.20890040695667267, 0.08625059574842453, 0.2677578330039978, 0.27942535281181335, 0.12445961683988571, 0.07976924628019333, -0.3351665437221527, 0.10987517982721329, 0.24271260201931, 0.17842696607112885, 0.31336188316345215, -0.02915186621248722, -0.16861902177333832, 0.2108679562807083, 0.09027274698019028, -0.19728048145771027, -0.07000062614679337, -0.07127399742603302, 0.28670790791511536, 0.09728061407804489, -0.09948185831308365, 0.2246628999710083, -0.01859324984252453, 0.08596009761095047, -0.1239866092801094, -0.3667534291744232, -0.34346452355384827, -0.06341522932052612, 0.047891516238451004, 0.16380861401557922, -0.09342692792415619, 0.08911322057247162, -0.06784459203481674, 0.02128792367875576, 0.11446671932935715, -0.18427233397960663, -0.19592712819576263, 0.050715137273073196, 0.1995142102241516, -0.10998565703630447, 0.11072489619255066, 0.22967204451560974, -0.04847631976008415, -0.0956006795167923, 0.026865672320127487, 0.06894736737012863, 0.23998500406742096, 0.06863726675510406, -0.09172191470861435, -0.05469580367207527, 0.2624640166759491, 0.11335691809654236, -0.02209503762423992, -0.01628364995121956, 0.1718888282775879, -0.33958882093429565, -0.1279437243938446, 0.17584511637687683, -0.015177678316831589, 0.0675482377409935, 0.11671885848045349, -0.23650901019573212, -0.16642217338085175, -0.04944658651947975, -0.20051535964012146, 0.17050562798976898, -0.13725487887859344, -0.3546845316886902, 0.051121361553668976, 0.2683130204677582, -0.022585611790418625, -0.08916697651147842, 0.12643778324127197, -0.18260012567043304, 0.1448725312948227, -0.37687328457832336, -0.015004478394985199, -0.17065277695655823, -0.04540916904807091, -0.14491146802902222, -0.2775425910949707, -0.03525165095925331, 0.10869695991277695, 0.09876863658428192, 0.06601472198963165, -0.15035168826580048, 0.1855461597442627, -0.08689700812101364, 0.2581577003002167, -0.043586377054452896, -0.03159679099917412, -0.03346070274710655, 0.09918913245201111, 0.03165647014975548, 0.09963801503181458, 0.0687892884016037, -0.1987457573413849, -0.008735407143831253, -0.06977493315935135, 0.04872911050915718, -0.14303778111934662, 0.1349887251853943, -0.03314605727791786, -0.11577555537223816, -0.12098357826471329, -0.024763882160186768, -0.08703317493200302, 0.07031937688589096, -0.08404823392629623, -0.12134335190057755, -0.0943198949098587, 0.08494286984205246, -0.17049235105514526, 0.121582992374897, 0.015627069398760796, -0.08384976536035538, 0.003906345926225185, -0.1615140289068222, 0.14232471585273743, -0.1459134817123413, -0.19815409183502197, -0.05602358654141426, -0.10748104751110077, -0.08484496176242828, 0.15334752202033997, 0.17128156125545502, 0.11047615110874176, -0.10040711611509323, -0.02630458027124405, -0.11182048171758652, 0.017852691933512688, 0.01426166482269764, 0.05184556171298027, -0.22299857437610626, -0.005250242538750172, 0.16837216913700104, -0.07246153056621552, -0.06408839672803879, -0.1319759339094162, 0.10473909974098206, 0.0863388255238533, 0.00509568490087986, -0.0906081274151802, 0.10642655938863754, -0.255208283662796, -0.10416986793279648, -0.19654038548469543, -0.07844389230012894, 0.2091449350118637, 0.011648472398519516, -0.21640987694263458, 0.07950788736343384, 0.0132669722661376, -0.05587903410196304, -0.20005299150943756, 0.047920722514390945, -0.08172690868377686, 0.1136709675192833, -0.0952276736497879, 0.12516051530838013, -0.1676342934370041, 0.22389158606529236, -0.24778741598129272, 0.06849505752325058, -0.014455572701990604, -0.12113835662603378, -0.1276511251926422, -0.19567158818244934, 0.02620779164135456, -0.1212477907538414, -0.030784951522946358, 0.003967639524489641, 0.010405086912214756, -0.13087306916713715, 0.15540693700313568, -0.08281244337558746, 0.16650432348251343, 0.1053830236196518, 0.010764733888208866, -0.043275702744722366, -0.104065902531147, 0.10671935230493546, -0.10013020038604736, 0.12861368060112, 0.159269317984581, -0.03983675315976143, 0.006570806261152029, -0.03603457286953926, 0.16786858439445496, 0.035768020898103714, 0.04714072495698929, -0.04352550953626633, 0.006001433357596397, -0.04008375480771065, -0.03645145893096924, 0.1892581433057785, 0.06630212068557739, -0.12654688954353333, -0.08091951161623001, -0.05461897328495979, 0.1644727885723114, -0.05535249039530754, 0.04588409885764122, -0.09104538708925247, -0.03185032308101654, -0.01343472208827734, 0.2034202516078949, -0.20055636763572693, 0.055205464363098145, -0.2386024296283722, -0.07482205331325531, -0.07294300198554993, -0.014042875729501247, -0.042710207402706146, 0.08462796360254288, -0.007044832222163677, 0.09423472732305527, 0.07239826768636703, 0.03338358551263809, -0.07732073217630386, -0.12494084984064102, -0.07649248838424683, -0.23688951134681702, -0.09661158174276352, -0.06653305888175964, 0.0004383281629998237, -0.04954597353935242, -0.05231141671538353, -0.17399486899375916, -0.1102454736828804, -0.13855814933776855, 0.07030976563692093, -0.0916009470820427, 0.03621958941221237, -0.05185961723327637, 0.12791772186756134, -0.0696147009730339, -0.14774641394615173, -0.20768104493618011, -0.27806463837623596, 0.019913582131266594, -0.056008681654930115, -0.10848379135131836, -0.2885027229785919, -0.26124459505081177, -0.09335623681545258, -0.0183574166148901, 0.11060693114995956, -0.05471635237336159, -0.1404954493045807, -0.09849710017442703, -0.07003308087587357, 0.07690437138080597, 0.093605637550354, -0.007621572818607092, 0.0073242224752902985, 0.03623168542981148, -0.04226203262805939, -0.14494509994983673, 0.07257790863513947, -0.10877728462219238, 1.5813750451343367e-06, -0.05519075691699982, -0.08860176801681519, 0.10473079979419708, -0.017295099794864655, -0.1817774474620819, 0.23754730820655823, 