{"input_len": 1024, "embed_dim": 32, "n_features": 12, "preprocess": {"l_out": 1024, "target_frac": 0.5, "nfft": 512, "energy_edge": 0.005, "noise_floor_scale": 1.44, "smooth": 5}, "pool": "mean_std", "convs": [{"in": 2, "out": 16, "k": 7, "stride": 2, "pad": 3, "weight": [-0.447743684053421, -0.38099122047424316, -0.04844347760081291, 0.0048261783085763454, -0.08688101172447205, -0.042043399065732956, 0.028585903346538544, 0.4872875213623047, 0.06999330967664719, -0.34316518902778625, 0.2560221254825592, -0.4069547653198242, -0.4541948437690735, -0.2895481288433075, -0.3091566562652588, -0.2977082431316376, 0.05097610503435135, -0.3202899098396301, -0.2998216450214386, -0.016598904505372047, -0.15044613182544708, -0.1422477513551712, -0.10641390085220337, -0.42668136954307556, 0.1729939579963684, -0.09161878377199173, -0.31954851746559143, 0.07593324035406113, -0.43276461958885193, 0.48760735988616943, -0.12558938562870026, 0.4685767889022827, 0.4175354242324829, -0.4503171741962433, -0.3736729025840759, -0.3857634365558624, 0.29485073685646057, 0.07781563699245453, -0.3375130295753479, -0.5110956430435181, -0.22800104320049286, -0.3680950999259949, 0.4694991707801819, -0.28901171684265137, -0.2504422664642334, -0.815128743648529, -0.27519071102142334, -0.17106495797634125, 0.5507736802101135, 0.6415031552314758, -0.299151748418808, 0.17230290174484253, 0.31963595747947693, 0.5037354230880737, -0.157922625541687, -0.5862562656402588, 0.04125314950942993, 0.21231065690517426, 0.2869431674480438, 0.2946118414402008, 0.4775104820728302, -0.09685071557760239, 0.20608502626419067, -0.19231382012367249, -0.08224058151245117, -0.031924132257699966, 0.3709757626056671, 0.2118375301361084, -0.2036903202533722, 0.31491804122924805, -0.09783867746591568, 0.15127867460250854, -0.3152027726173401, -0.4229012727737427, -0.03372890129685402, 0.2724442183971405, -0.490946501493454, 0.4562079608440399, -0.6431763768196106, -0.021010110154747963, 0.2854026257991791, -0.2752305865287781, -0.43151938915252686, -0.46650931239128113, 0.03654172271490097, 0.04237650707364082, -0.03180183097720146, -0.27131450176239014, -0.41760125756263733, -0.5466398000717163, 0.20634984970092773, -0.5771498084068298, -0.47906219959259033, -0.41337743401527405, 0.4570220410823822, 0.13316169381141663, 0.1794925332069397, 0.4154057502746582, -0.7376768589019775, -0.5211504101753235, 0.6847116351127625, 0.37950295209884644, 0.3212474286556244, 0.58439701795578, -0.4117031693458557, -0.5156646966934204, 0.6472058892250061, -0.34207555651664734, -0.2839403748512268, 0.1084136813879013, -0.3330216109752655, -0.33081844449043274, -0.04082951694726944, 0.5725259780883789, -0.7123436331748962, -0.10069024562835693, 0.2570928633213043, 0.5696139931678772, 0.19487012922763824, 0.4015883207321167, 0.20153111219406128, 0.5767006278038025, -0.7925781607627869, 0.3581976294517517, 0.14255797863006592, 0.3928263485431671, -0.07626260071992874, 0.15609335899353027, 0.035906072705984116, 0.0632176548242569, 0.29297634959220886, 0.48253685235977173, 0.2982443571090698, -0.06994026154279709, 0.524887204170227, 0.3450344204902649, -0.44422388076782227, 0.2843724191188812, -0.4925778806209564, -0.0975402370095253, -0.1932849884033203, -0.13606038689613342, 0.2826267182826996, -0.07006888836622238, 0.027622580528259277, -0.023909449577331543, 0.1264168620109558, 0.17560644447803497, 0.030821578577160835, 0.2857116460800171, 0.4708021283149719, -0.06790046393871307, 0.3933452069759369, 0.4699232578277588, 0.6987653374671936, -0.49752575159072876, -0.7886863946914673, 0.6138636469841003, 0.8635153770446777, 0.597456693649292, -1.1893107891082764, -0.2598898410797119, -0.46977075934410095, -0.16844144463539124, -0.03247449919581413, 0.7710704207420349, -0.5119906663894653, 0.7912156581878662, 0.14558658003807068, -0.8362147212028503, 0.26864007115364075, 0.6770532131195068, 0.3262770473957062, 0.21078746020793915, 0.05224400386214256, 0.3357238471508026, -0.2952348589897156, 0.05564471334218979, 0.49623796343803406, 0.43016737699508667, -0.3505691885948181, 0.0677761659026146, -0.7908817529678345, -0.4870466887950897, -0.6735073924064636, 0.9132807850837708, -0.508327305316925, 0.1325245201587677, 0.4791104197502136, -0.7828464508056641, 0.20704808831214905, 0.8226191401481628, -0.48012828826904297, 0.09271495044231415, 0.3551270067691803, -0.42126619815826416, 0.2918221652507782, -0.10741512477397919, -0.05557498335838318, 0.5335750579833984, -0.6020904779434204, 0.370105117559433, -0.3950676918029785, -0.5233176946640015, 0.507556140422821, 0.8800694346427917, 0.26286157965660095, 0.7919166684150696, -0.4501137435436249, -0.8892018795013428, 1.2647680044174194, -1.6089136600494385, 0.9806979298591614, 0.8714079856872559, -0.624240517616272, -0.6395434737205505, 0.20660018920898438, -0.04372003301978111, -1.1244680881500244, -0.09689432382583618, 0.7163034081459045, 0.22195686399936676, 0.5734583139419556, -0.7595665454864502], "bias": [-0.06927608698606491, 0.00516330823302269, -0.01717480644583702, -0.05602949857711792, -0.10631094872951508, 0.010318559594452381, -0.010879432782530785, -0.12540021538734436, 0.02008819580078125, -0.055747710168361664, -0.04082449525594711, -0.09185442328453064, -0.053579181432724, -0.009807471185922623, -0.0535726398229599, -0.009453002363443375]}, {"in": 16, "out": 32, "k": 5, "stride": 2, "pad": 2, "weight": [0.19012629985809326, -0.07627196609973907, 0.061361219733953476, -0.23675258457660675, 0.006048301234841347, 0.10368935018777847, -0.14967092871665955, -0.2238890677690506, -0.06954972445964813, 0.05005543678998947, -0.05853788182139397, -0.16901931166648865, 0.01529514417052269, 0.0346604585647583, 0.11895310133695602, 0.04326920956373215, 0.0794253945350647, 0.08285703510046005, 0.013759991154074669, -0.1102636530995369, -0.06817290931940079, -0.17946884036064148, -0.17916326224803925, 0.10711772739887238, -0.10159225016832352, -0.1345096379518509, -0.05736168101429939, 0.07685603201389313, -0.10337229818105698, -0.023022973909974098, -0.18128953874111176, -0.2568819224834442, 0.04935213550925255, -0.16802799701690674, -0.07869551330804825, -0.15830935537815094, -0.07096777111291885, 0.15714223682880402, 0.05263729766011238, 0.14015448093414307, -0.17013771831989288, 0.09793681651353836, -0.0974477231502533, 0.07079532742500305, 0.09234863519668579, -0.3016645014286041, -0.21010711789131165, -0.30881214141845703, -0.22608134150505066, 0.17185576260089874, -0.08500455319881439, 0.08692185580730438, -0.05288643389940262, 0.13876213133335114, 0.13827234506607056, -0.11790844053030014, 0.020670369267463684, -0.0015581134939566255, -0.01873578131198883, -0.3404310941696167, 0.03836376219987869, 0.11176478117704391, -0.029322229325771332, 0.2199704945087433, 0.09687415510416031, -0.1999680995941162, 0.1078009083867073, -0.058999788016080856, -0.018044397234916687, -0.0461394302546978, -0.1153329610824585, -0.24748927354812622, -0.0613999143242836, 0.11077649146318436, 0.006672732997685671, 0.24269725382328033, 0.15894708037376404, 0.22818417847156525, -0.23082499206066132, -0.04266810044646263, 0.17835430800914764, 0.09949390590190887, 0.0540645457804203, 0.19475460052490234, -0.22438189387321472, -0.22591090202331543, 0.15622828900814056, 0.13347680866718292, 0.037052277475595474, -0.3472524881362915, -0.16558252274990082, -0.08424753695726395, 0.1878150850534439, 0.13729751110076904, -0.3191712498664856, -0.04349282383918762, 0.22433316707611084, 0.046333570033311844, 0.045521073043346405, 0.023544184863567352, 0.2654726207256317, 0.22264273464679718, -0.19321252405643463, 0.06550903618335724, 0.16332274675369263, -0.03247068449854851, 0.05587956681847572, -0.18281862139701843, -0.34871846437454224, -0.13701225817203522, 0.1566142439842224, 0.0024751450400799513, -0.09235180914402008, 0.2540089786052704, -0.09472113847732544, 0.15560679137706757, 0.29730939865112305, 0.2937341630458832, 0.012537548318505287, -0.4043726623058319, -0.21341173350811005, -0.17204593122005463, -0.10298022627830505, -0.2478005439043045, -0.26546168327331543, -0.08013837784528732, 0.11434486508369446, 0.10142285376787186, 0.08429434150457382, -0.3150489032268524, 0.2448037713766098, 0.09225834906101227, 0.09363378584384918, -0.31641924381256104, 0.08593843132257462, 0.24701499938964844, -0.27728551626205444, -0.12738017737865448, 0.004842069465667009, 0.22070658206939697, 0.34557393193244934, 0.08831097185611725, 0.02356957085430622, -0.19581231474876404, 0.09872674196958542, -0.3027070164680481, 0.09984750300645828, 0.056209638714790344, -0.03833409398794174, 0.03374034911394119, 0.05041119456291199, -0.08516214787960052, 0.17254361510276794, -0.30609995126724243, 0.07033541798591614, 0.14403437077999115, -0.16668207943439484, -0.06711682677268982, -0.1604401022195816, 0.14595431089401245, -0.008580799214541912, 0.09263630956411362, 0.15003181993961334, -0.24571135640144348, 0.1442319005727768, -0.3749663233757019, -0.1346597522497177, -0.07308046519756317, 0.17246150970458984, 0.18504349887371063, -0.063814677298069, -0.24842281639575958, 0.023867430165410042, 0.04993954300880432, -0.04016077518463135, 0.062407027930021286, -0.11494946479797363, -0.3137214481830597, -0.20920027792453766, -0.18406584858894348, 0.008715739473700523, 0.0659896656870842, 0.16753463447093964, -0.22375018894672394, -0.02217312529683113, 0.09213025122880936, -0.01342841051518917, -0.016556911170482635, 0.057174813002347946, -0.30390214920043945, -0.3949316143989563, -0.08073170483112335, -0.02039589360356331, 0.12323381006717682, 0.2598261833190918, -0.14081569015979767, 0.33084836602211, 0.013083158992230892, -0.1422012448310852, 0.16472263634204865, -0.08876410126686096, -0.017262954264879227, -0.08857456594705582, -0.13949927687644958, -0.05702405795454979, 0.07285860925912857, 0.14098873734474182, -0.15359503030776978, -0.18456144630908966, -0.05512300133705139, -0.16686873137950897, -0.1221715658903122, 0.09640105813741684, -0.11674036830663681, 0.045915164053440094, -0.213399276137352, -0.18131384253501892, -0.19852279126644135, -0.2846693694591522, -0.2327035665512085, 0.1838696300983429, 0.013999315910041332, 0.09165535122156143, -0.015117263421416283, 0.11916982382535934, 0.10505571216344833, -0.238533154129982, 0.3204961121082306, 0.1812380701303482, -0.17435215413570404, 0.25588124990463257, 0.2628220021724701, 0.06336886435747147, -0.16381919384002686, 0.11590222269296646, -0.17488716542720795, 0.09035550802946091, -0.11208149045705795, -0.1788329780101776, -0.29039666056632996, 0.20924915373325348, -0.2487258017063141, 0.2596023380756378, 0.12223734706640244, -0.02665223553776741, -0.17235542833805084, 0.17822608351707458, 0.0555841438472271, 0.1362219750881195, -0.026842951774597168, 0.04829997941851616, 0.19120314717292786, 0.07915758341550827, -0.15235738456249237, 0.12377949059009552, -0.2737748920917511, -0.10041414946317673, 0.3792143166065216, 0.10732041299343109, 0.04082636162638664, -0.06068090721964836, 0.21080069243907928, 0.3388758599758148, -0.06108865514397621, -0.23510506749153137, -0.1904628723859787, 0.29280564188957214, 0.17015688121318817, -0.07391507923603058, 0.1271386295557022, -0.10962097346782684, 0.12747672200202942, 0.17889003455638885, -0.3645760118961334, 0.03978000581264496, 0.09504304081201553, 0.21570681035518646, 0.07862669974565506, -0.18418550491333008, -0.22962231934070587, 0.08429359644651413, 0.41572505235671997, 0.20000368356704712, -0.16517257690429688, 0.11406448483467102, -0.04174888879060745, 0.15968064963817596, -0.12881246209144592, -0.11949758231639862, 0.19813570380210876, 0.09826035797595978, 0.036785807460546494, 0.3183634281158447, -0.19002732634544373, -0.25646719336509705, 0.1346738040447235, -0.10593772679567337, -0.3318891227245331, 0.048984259366989136, 0.022071730345487595, -0.05458618700504303, 0.2212042510509491, 0.26179757714271545, 0.13629423081874847, -0.362998366355896, 0.082074835896492, -0.26516371965408325, -0.16857030987739563, 0.12072911113500595, -0.1741945892572403, -0.4404623806476593, 0.33813294768333435, 0.23495371639728546, -0.18313002586364746, -0.05342131480574608, -0.2164669632911682, -0.13528577983379364, -0.12215781956911087, 0.09620089828968048, 0.2213350236415863, -0.12052476406097412, -0.01921779476106167, -0.06455649435520172, 0.08099931478500366, -0.012869292870163918, -0.0943601131439209, -0.11303926259279251, -0.07601867616176605, -0.0959179475903511, -0.21512773633003235, 0.13189314305782318, 0.034144263714551926, 0.2057046741247177, -0.06632304936647415, -0.08290844410657883, 0.08020437508821487, 0.06164737790822983, -0.018713098019361496, -0.23738105595111847, -0.13669264316558838, -0.04756547138094902, 0.03697742894291878, 0.04182140529155731, -0.01860012114048004, 0.10350652784109116, 0.005508993286639452, -0.006008710712194443, 0.08144782483577728, -0.014595440588891506, -0.07469634711742401, -0.20588955283164978, -0.049883078783750534, 0.11028384417295456, -0.2726416289806366, -0.30312618613243103, -0.024231670424342155, 0.1267061084508896, 0.03344062343239784, -0.09237927198410034, -0.10411198437213898, 0.059767574071884155, 0.04510045424103737, -0.09413869678974152, -0.026866065338253975, 0.18163760006427765, 0.08893664181232452, 0.1293787956237793, -0.09844454377889633, 0.16413931548595428, -0.16348318755626678, 0.13705338537693024, -0.033432912081480026, 0.05463872849941254, 0.14090083539485931, 0.0776144340634346, -0.04495886340737343, -0.18215319514274597, 0.07421795278787613, 0.2702486515045166, 0.1442532241344452, -0.15486904978752136, -0.04756980016827583, 0.1770206093788147, 0.15693338215351105, -0.027760185301303864, -0.016463715583086014, -0.059716105461120605, 0.057139910757541656, -0.0016740121645852923, -0.19454306364059448, 0.022834574803709984, 0.11531460285186768, -0.1177903339266777, 0.15131796896457672, -0.04209783673286438, 0.11431731283664703, -0.13583502173423767, 0.07018356025218964, -0.15880145132541656, -0.11544620245695114, -0.07834640890359879, 0.05352611094713211, -0.2279028594493866, 0.13270966708660126, 0.13881775736808777, 0.1105278804898262, -0.299041748046875, 0.06298371404409409, 0.20937339961528778, -0.03013957105576992, -0.4598110318183899, -0.30098757147789, -0.19054779410362244, 0.18953609466552734, 0.08811070770025253, -0.15841448307037354, 0.2470107078552246, 0.20229631662368774, -0.1659112274646759, 0.26003754138946533, 0.05903071537613869, -0.005725271068513393, -0.019003570079803467, 0.16827332973480225, 0.027222370728850365, 0.06100951507687569, -0.05997953936457634, 0.19546715915203094, 0.22307513654232025, -0.1850956529378891, 0.09554558992385864, -0.21156944334506989, 0.06916201114654541, -0.009460272267460823, 0.0636705532670021, 0.13851644098758698, -0.2877712547779083, -0.15249601006507874, 0.011603213846683502, 0.10928892344236374, 0.1758374571800232, -0.12134863436222076, 0.18930375576019287, -0.05285748094320297, 0.3121946156024933, -0.15854164958000183, 0.11313273757696152, 0.10522852838039398, -0.02917492389678955, 0.05572323501110077, -0.08862335979938507, -0.20861297845840454, -0.17545023560523987, -0.0490354560315609, -0.25225284695625305, 0.30486059188842773, -0.07411747425794601, 0.06134336069226265, -0.27108630537986755, -0.18241342902183533, 0.1963369995355606, 0.010845175012946129, -0.1630929559469223, 0.30259501934051514, -0.0013471855781972408, 0.033107586205005646, -0.08307952433824539, -0.19296808540821075, 0.1035543903708458, 0.19550064206123352, -0.2187202274799347, 0.003910369705408812, -0.15973001718521118, -0.18391112983226776, -0.36332255601882935, 0.02227986790239811, 0.04737332835793495, -0.249169260263443, 0.25585898756980896, -0.2020152509212494, 0.031301144510507584, 0.0779045820236206, -3.1229497835738584e-05, -0.16222631931304932, 0.21184970438480377, 0.022309739142656326, 0.06961676478385925, 0.11762766540050507, -0.2184964120388031, 0.003960483707487583, -0.1195870190858841, 0.058008406311273575, -0.09506811946630478, 0.06325504183769226, 0.0918671041727066, 0.06271617859601974, 0.11285736411809921, 0.19139936566352844, 0.07417728751897812, -0.0591336190700531, 0.13330510258674622, 0.01713554747402668, -0.02645958960056305, 0.024530157446861267, -0.059778619557619095, -0.1279647946357727, -0.041751883924007416, -0.17340558767318726, 0.015382153913378716, -0.09751801192760468, 0.2488756626844406, 0.16295096278190613, 0.05969554930925369, 0.07010450214147568, -0.0032166671007871628, 0.17956310510635376, 0.23765616118907928, 0.08591651171445847, -0.20812594890594482, -0.015971483662724495, -0.191319078207016, 0.03227028623223305, 0.06240649148821831, -0.2572789490222931, -0.013578887097537518, -0.1344454437494278, 0.18255741894245148, 0.04882070794701576, 0.05821416154503822, 0.10191299021244049, -0.16928903758525848, -0.07520148903131485, -0.41280117630958557, -0.2899949550628662, -0.3221554458141327, -0.005234524141997099, 0.11827248334884644, 0.16859832406044006, -0.11682610213756561, -0.12870074808597565, 0.15261763334274292, -0.0670984759926796, 0.12551206350326538, -0.24109481275081635, 0.16544121503829956, -0.17877455055713654, -0.0866379365324974, 0.0038016573525965214, 0.039976056665182114, 0.1996704787015915, 0.15174001455307007, -0.18202923238277435, -0.3188423216342926, -0.23557649552822113, 0.07259572297334671, -0.2648797929286957, -0.21050098538398743, 0.17484381794929504, 0.15935233235359192, 0.19932223856449127, -0.1355455070734024, 0.0005128797492943704, 0.09746070951223373, -0.23909907042980194, -0.12018488347530365, -0.19457638263702393, -0.24570442736148834, -0.024303440004587173, 0.07230684161186218, 0.14146091043949127, 0.16550083458423615, 0.21668939292430878, -0.31063029170036316, -0.020898250862956047, -0.1965835839509964, 0.012105307541787624, 0.27634087204933167, -0.027005236595869064, 0.3140285611152649, 0.004126707091927528, 0.021005958318710327, 0.19584642350673676, -0.010597405955195427, 0.0029039871878921986, -0.16556885838508606, -0.172170028090477, 0.2448376566171646, -0.03204139322042465, -0.26713845133781433, 0.07423463463783264, -0.15625806152820587, -0.23715917766094208, 0.03933320939540863, 0.16652777791023254, -0.055077895522117615, -0.1172461286187172, 0.23063121736049652, 0.21037903428077698, -0.09626521170139313, -0.0986221507191658, 0.04388057067990303, -0.14137886464595795, -0.2903359532356262, 0.07264317572116852, 0.09166238456964493, 0.2854475975036621, -0.07322463393211365, -0.08655816316604614, 0.0351678803563118, 0.04328082501888275, 0.14830242097377777, 0.036070317029953, 0.003006368177011609, -0.08570022135972977, -0.07785816490650177, -0.09821482002735138, 0.23398777842521667, -0.131931871175766, 0.21832577884197235, -0.25771036744117737, 0.17960964143276215, 0.037016455084085464, -0.15975119173526764, 0.04508352652192116, 0.04265047609806061, 0.16125881671905518, 0.1024332344532013, 0.10884783416986465, 0.06496647745370865, 0.2041560411453247, 0.16193141043186188, 0.20499849319458008, -0.07381520420312881, 0.0934312716126442, -0.015650754794478416, 0.18224628269672394, 0.09325496852397919, 0.2666916251182556, -0.068983294069767, 0.21776989102363586, 0.28816959261894226, -0.0637153834104538, 0.25964781641960144, -0.22616660594940186, -0.09762075543403625, 0.1542942225933075, 0.037449195981025696, -0.07144986838102341, -0.06732462346553802, -0.05699411779642105, -0.1347808837890625, 0.01627328060567379, -0.03816604241728783, 0.19924257695674896, -0.1626487374305725, 0.28539520502090454, -0.17597906291484833, -0.27699920535087585, -0.05952249839901924, -0.01343141682446003, -0.19732464849948883, 0.0018194849835708737, 0.17614948749542236, 0.17967589199543, -0.12724928557872772, 0.27249786257743835, 0.08532080799341202, 0.08597996830940247, -0.09587923437356949, 0.023943353444337845, 0.02933691442012787, -0.15392057597637177, 0.07997453212738037, 0.004952370189130306, 0.010018626227974892, 0.15440760552883148, 0.08559377491474152, -0.02712453342974186, 0.257659375667572, 0.030128907412290573, 0.11419429630041122, -0.22799229621887207, -0.2375381886959076, -0.3026648759841919, -0.17751748859882355, 0.22452133893966675, -0.1945999711751938, -0.05857545882463455, 0.14710062742233276, 0.04419347643852234, -0.01329859159886837, 0.047964658588171005, 0.036237481981515884, -0.1732187569141388, -0.005571027752012014, -0.055532339960336685, -0.34917181730270386, 0.026120111346244812, 0.081663578748703, 0.011313906870782375, -0.2270130068063736, 0.1164674386382103, -0.037505198270082474, -0.17615802586078644, -0.013867015019059181, -0.1987791210412979, -0.11122637242078781, 0.20815986394882202, 0.04570547491312027, -0.2642747759819031, 0.14616639912128448, -0.003964483737945557, 0.15176498889923096, 0.024135317653417587, -0.140454962849617, 0.17527304589748383, -0.1701233983039856, -0.08848248422145844, -0.2555939555168152, 0.09963783621788025, 0.12073390185832977, 0.1258627325296402, -0.2754305601119995, -0.3839201033115387, -0.25094926357269287, 0.3017963767051697, 0.137503519654274, 0.04197448492050171, 0.03586500138044357, 0.11291686445474625, -0.18193989992141724, -0.49686819314956665, -0.32029837369918823, -0.2630068063735962, -0.12969714403152466, 0.2882057726383209, -0.11961516737937927, 0.10206427425146103, 0.3130258619785309, -0.30539458990097046, -0.31743124127388, -0.11757580935955048, 0.2238241732120514, 0.17115633189678192, 0.06827536970376968, -0.20656859874725342, 0.04080900922417641, -0.0924520194530487, -0.26366397738456726, 0.24894970655441284, -0.22860196232795715, -0.1623142808675766, -0.07108591496944427, -0.01121524814516306, 0.3504306674003601, 0.22165369987487793, 0.2729078531265259, -0.0829935371875763, 0.12864458560943604, 0.2097848355770111, -0.1464027762413025, 0.12265300750732422, 0.15136690437793732, -0.1436525285243988, -0.16587242484092712, -0.08659510314464569, 0.12870675325393677, -0.25980260968208313, -0.22402317821979523, 0.14848676323890686, -0.5509623289108276, -0.25363704562187195, -0.13517767190933228, -0.1585748940706253, -0.05238255113363266, 0.2992313504219055, 0.059840183705091476, 0.3005593717098236, -0.06995417177677155, -0.0660371258854866, 0.13761453330516815, -0.1632896363735199, 0.11636341363191605, 0.17334102094173431, 0.2214391529560089, 0.12363243103027344, 0.25045469403266907, 0.06580352038145065, -0.13495270907878876, -0.44094038009643555, 0.23738175630569458, 0.002642956795170903, 0.026300795376300812, 0.24089372158050537, -0.23771031200885773, 0.20741485059261322, 0.19405856728553772, -0.0908600315451622, 0.18385562300682068, 0.1691557765007019, 0.11082202941179276, 0.005221501458436251, -0.013978113420307636, -0.10007978230714798, 0.12232235074043274, -0.22219014167785645, -0.16017144918441772, -0.2615000903606415, 0.1355118453502655, -0.16886058449745178, -0.1721630096435547, 0.23285014927387238, -0.23424957692623138, -0.25389763712882996, 0.14167194068431854, -0.17665234208106995, 0.16791462898254395, 0.16694794595241547, -0.13668836653232574, -0.3218136429786682, 0.3514631688594818, 0.10464270412921906, -0.10437147319316864, -0.15829427540302277, -0.07415501028299332, -0.17191120982170105, -0.019834276288747787, -0.1933988779783249, 0.09253957122564316, -0.007643082179129124, 0.1925351470708847, -0.07663393020629883, 0.2935769259929657, 0.023247454315423965, -0.025478186085820198, 0.17084906995296478, -0.0893239825963974, -0.1319456547498703, 0.08856624364852905, 0.04875149950385094, -0.03731187433004379, -0.15684975683689117, 0.12767380475997925, 0.09579180181026459, -0.1114986315369606, 0.16040119528770447, 0.02557673119008541, -0.14247708022594452, 0.017220325767993927, -0.23290646076202393, -0.02409873902797699, -0.02383231744170189, 0.045887913554906845, 0.14236949384212494, 0.19533686339855194, 0.3008480668067932, 0.10462435334920883, -0.2415197193622589, -0.0661819651722908, -0.06786242127418518, 0.20594103634357452, -0.2342355102300644, 0.09222308546304703, 0.05531322956085205, -0.11319674551486969, -0.20166093111038208, -0.010038740932941437, 0.06050654873251915, 0.09801176935434341, -0.21803340315818787, 0.07688774913549423, 0.1852063536643982, -0.1610221415758133, -0.042925991117954254, -0.2703637480735779, 0.23380054533481598, 0.031673580408096313, -0.3889157176017761, -0.05753912404179573, 0.18760427832603455, -0.18174488842487335, -0.2184228003025055, -0.0988524779677391, -0.12308964878320694, 0.23131977021694183, -0.048349905759096146, -0.3715571463108063, -0.07839741557836533, 0.0988973081111908, -0.05309251695871353, 0.006597031373530626, -0.21953214704990387, 0.03823084384202957, 0.10271256417036057, -0.0898328498005867, -0.03762942552566528, -0.1718808263540268, 0.1749582290649414, -0.025113016366958618, 0.17443959414958954, -0.2826249599456787, -0.13697589933872223, 0.23700375854969025, -0.12920747697353363, -0.07944077998399734, 0.20822522044181824, 0.05416400358080864, -0.1870100051164627, -0.049379583448171616, -0.18105481564998627, 0.04272319748997688, -0.2744969427585602, 0.05359802395105362, -0.011590550653636456, -0.28260502219200134, 0.24907635152339935, 0.15234804153442383, 0.03629940003156662, -0.07839702069759369, -0.030276186764240265, -0.1798238754272461, -0.10226128250360489, 0.12580953538417816, 0.18551866710186005, -0.19588223099708557, 0.01231392566114664, -0.0008754119044169784, 0.03379381448030472, -0.2150927633047104, 0.016385169699788094, -0.0504613071680069, 0.10854103416204453, 0.24326559901237488, -0.26213428378105164, -0.309702605009079, 0.03227948024868965, 0.057774197310209274, -0.16190694272518158, -0.1101023480296135, -0.37902891635894775, 0.028012413531541824, -0.07905378937721252, 0.22965151071548462, 0.23447681963443756, -0.18121519684791565, 0.32329583168029785, 0.3090706467628479, 0.1819329410791397, 0.014407702721655369, -0.16067788004875183, -0.17095305025577545, -0.10729286074638367, -0.052489280700683594, 0.15425992012023926, 0.11146881431341171, -0.049421150237321854, -0.1570231020450592, 0.25926685333251953, -0.07660592347383499, -0.029369201511144638, -0.23316992819309235, 0.04198482260107994, 0.2807203531265259, -0.029613299295306206, 0.10977940261363983, 0.10479693114757538, -0.2139212042093277, 0.005543977487832308, -0.2558917999267578, -0.34427744150161743, 0.04438723623752594, 0.12751297652721405, 0.1790992021560669, -0.23348021507263184, 0.0521867610514164, 0.10379868000745773, -0.018649309873580933, 0.31754419207572937, -0.2277209758758545, -0.12591996788978577, 0.1748645305633545, 0.23458229005336761, 0.129246786236763, -0.22336642444133759, -0.18459735810756683, -0.11796161532402039, 0.14075198769569397, 0.1534028798341751, -0.23820024728775024, 0.10180927067995071, 0.17321787774562836, 0.28687232732772827, -0.22519056499004364, 0.02611403353512287, -0.35433924198150635, -0.1726452112197876, 0.17312148213386536, -0.35631927847862244, -0.2820631265640259, 0.07050132006406784, -0.15253980457782745, 0.07914090901613235, -0.2184140831232071, -0.10158848762512207, 0.14415518939495087, 0.3414064943790436, -0.09950843453407288, 0.03763381391763687, -0.2229037880897522, 0.2610121965408325, -0.018592948094010353, 0.19083093106746674, 0.06582534313201904, -0.34187620878219604, 0.15272273123264313, 0.13637495040893555, 0.25417935848236084, 0.3120938539505005, -0.14386872947216034, -0.06848540157079697, -0.2758263945579529, -0.12813837826251984, -0.26642170548439026, -0.07138340175151825, 0.03423500433564186, 0.20400768518447876, 0.027408726513385773, 0.04300140216946602, 0.20448726415634155, -0.4536571204662323, -0.020672278478741646, -0.009043799713253975, -0.10772399604320526, 0.24227192997932434, -0.3088341951370239, -0.319709450006485, 0.09636923670768738, 0.26695942878723145, -0.024162406101822853, -0.3459225594997406, 0.08158610016107559, -0.07218427211046219, 0.14554768800735474, -0.12344669550657272, 0.1130804494023323, 0.189596489071846, 0.0008882703259587288, -0.19995912909507751, -0.2649502456188202, -0.1606803834438324, -0.13885138928890228, 0.07465304434299469, -0.2948911488056183, -0.29696428775787354, -0.24486561119556427, -0.10778671503067017, 0.014428967610001564, -0.10613765567541122, 0.3439558446407318, 0.060152340680360794, 0.2880251109600067, -0.11921320110559464, 0.05423983186483383, 0.20360657572746277, -0.21431124210357666, -0.17164510488510132, -0.12738722562789917, 0.024840235710144043, -0.03788198158144951, -0.14508867263793945, 0.23245511949062347, -0.21227732300758362, -0.03422396630048752, -0.1765093207359314, 0.03861120715737343, 0.24504107236862183, 0.033457428216934204, 0.10569166392087936, -0.21807821094989777, -0.02013261429965496, -0.026358049362897873, -0.044731419533491135, 0.17414163053035736, -0.09663932025432587, -0.1901721954345703, 0.08113054931163788, 0.027660204097628593, 0.2891477048397064, -0.08824697136878967, -0.2546108365058899, 0.16829176247119904, -0.3043912351131439, 0.09944339096546173, 0.12254325300455093, 0.020258920267224312, -0.22803813219070435, 0.0977940559387207, 0.2547736167907715, 0.18184484541416168, -0.22042697668075562, -0.013133546337485313, -0.11583204567432404, -0.21440795063972473, -0.13983505964279175, -0.03167345002293587, -0.14240561425685883, 0.27623555064201355, 0.198805570602417, -0.09794461727142334, 0.037385493516922, 0.1531045287847519, 0.2236151248216629, -0.0701087936758995, -0.17613674700260162, -0.19130095839500427, -0.25282564759254456, 0.091862253844738, -0.32008588314056396, 0.09497998654842377, -0.0707341879606247, -0.30790168046951294, 0.062360092997550964, 0.32118484377861023, 0.05571645125746727, 0.10918622463941574, 0.18855661153793335, 0.13386288285255432, -0.019345056265592575, -0.024111228063702583, 0.2148354947566986, 0.02948988601565361, -0.2772451937198639, 0.15396848320960999, -0.13475854694843292, 0.26530978083610535, -0.34563449025154114, 0.1760571449995041, -0.0042800153605639935, 0.13420960307121277, 0.24947011470794678, -0.03924591466784477, 0.09624186158180237, 0.033932995051145554, 0.20567895472049713, -0.20156016945838928, -0.2672532796859741, 0.10116345435380936, -0.02113272063434124, 0.19195415079593658, -0.16002526879310608, -0.0668407529592514, 0.20066902041435242, -0.20424649119377136, 0.06083226576447487, -0.00889912061393261, 0.11339707672595978, 0.0534181073307991, -0.015245708636939526, 0.30619123578071594, 0.26840904355049133, 0.12580469250679016, -0.06999838352203369, 0.1864086389541626, 0.09239711612462997, -0.22453315556049347, -0.06781847029924393, -0.14932726323604584, -0.21074455976486206, 0.02553791180253029, 0.017703410238027573, -0.06480755656957626, -0.06593643873929977, -0.15626168251037598, 0.18774978816509247, 0.08968454599380493, 0.12089347094297409, 0.18907399475574493, 0.06538260728120804, -0.416187047958374, -0.19201327860355377, 0.17322401702404022, 0.1686287373304367, -0.10858600586652756, 0.0983693078160286, 0.06629816442728043, -0.14660774171352386, -0.029062647372484207, -0.10330396145582199, -0.19314217567443848, 0.039737530052661896, 0.02121485210955143, 0.24229715764522552, -0.17243468761444092, 0.010183403268456459, 0.1497378647327423, 0.10520004481077194, 0.29901137948036194, 0.24541418254375458, -0.3991638123989105, -0.19407042860984802, 0.03081466630101204, 0.0433056466281414, 0.09859854727983475, -0.05163572356104851, -0.034920834004879, -0.31453871726989746, 0.13983334600925446, -0.1772088259458542, -0.1251993626356125, -0.11916418373584747, -0.056459907442331314, 0.04546734690666199, -0.2032770961523056, -0.07567787170410156, 0.01801958493888378, 0.02223787270486355, -0.06166572868824005, 0.08022842556238174, 0.2926083505153656, 0.1310347318649292, 0.09497389942407608, 0.11313030868768692, 0.15953442454338074, -0.06750163435935974, 0.09747374057769775, -0.25204113125801086, 0.04317566007375717, -0.010029085911810398, 0.10293707996606827, -0.11263811588287354, 0.019300421699881554, -0.1204792931675911, 0.14431816339492798, -0.2327306866645813, 0.11207444965839386, -0.004661474376916885, -0.23536214232444763, -0.1876235157251358, -0.11424897611141205, -0.03197212144732475, -0.11170835047960281, -0.16700631380081177, -0.04432520270347595, -0.021779540926218033, 0.13791204988956451, 0.019379576668143272, -0.20645137131214142, 0.05220601707696915, 0.10887395590543747, 0.027402494102716446, -0.1681915670633316, -0.23419733345508575, -0.08214141428470612, 0.0056909844279289246, -0.1358795464038849, 0.13867083191871643, -0.2801138460636139, -0.18872728943824768, -0.0598570741713047, 0.11561789363622665, 0.26104485988616943, -0.10110849887132645, 0.146514430642128, 0.07457077503204346, -0.07170460373163223, -0.195601686835289, -0.1152457594871521, 0.02764686569571495, 0.08856935054063797, -0.13925819098949432, 0.13622139394283295, -0.009907164610922337, -0.040721453726291656, 0.20627550780773163, 0.3011839985847473, 0.22637969255447388, -0.1554538458585739, 0.07845205068588257, -0.255766898393631, -0.20303772389888763, -0.03244420140981674, -0.0658443421125412, -0.07555506378412247, 0.09663461893796921, 0.028013058006763458, 0.2608150243759155, 0.13178350031375885, 0.1652558445930481, -0.3032960891723633, -0.1568937599658966, -0.3487488627433777, -0.03541877493262291, 0.1916540116071701, 0.2950175106525421, 0.12752202153205872, 0.30232900381088257, -0.05903312936425209, 0.13729283213615417, -0.06091924384236336, 0.15772117674350739, -0.1780085265636444, -0.25522714853286743, 0.09083504974842072, -0.2852054834365845, -0.13643202185630798, -0.1741311103105545, -0.12493458390235901, -0.14103353023529053, 0.18642482161521912, 0.10318773984909058, -0.21998310089111328, 0.330182284116745, 0.4409390389919281, -0.20743201673030853, 0.10582650452852249, -0.33289289474487305, -0.16575118899345398, 0.2963241636753082, 0.15654830634593964, -0.11270341277122498, 0.1397961676120758, -0.30781522393226624, 0.06914918124675751, 0.23741669952869415, 0.18946406245231628, 0.04890204221010208, 0.2027668058872223, 0.040327247232198715, -0.1875356137752533, -0.2553670406341553, -0.1574271023273468, -0.10446454584598541, -0.2831456959247589, 0.29506468772888184, -0.1759437471628189, 0.1322113275527954, 0.24104852974414825, 0.0019748040940612555, 0.27277377247810364, -0.14787515997886658, -0.04219686612486839, -0.35895296931266785, -0.08141918480396271, 0.2791004776954651, -0.2468303143978119, -0.1963529884815216, -0.3911985158920288, -0.06114538758993149, -0.28437742590904236, -0.19153760373592377, 0.2981564998626709, -0.2148793786764145, 0.22344429790973663, 0.19757507741451263, -0.03576720133423805, -0.14394618570804596, 0.3784651756286621, -0.10292842984199524, -0.3469195067882538, -0.15616464614868164, -0.1198364794254303, -0.01375479158014059, -0.22727008163928986, -0.17562779784202576, -0.15548059344291687, -0.056209687143564224, -0.057438526302576065, -0.1980973333120346, -0.1670496165752411, -0.19743674993515015, -0.020292380824685097, -0.033564042299985886, -0.15508924424648285, -0.2525005042552948, 0.05886612460017204, 0.03325194865465164, 0.05209769308567047, -0.1369127780199051, -0.13106870651245117, 0.08379226922988892, -0.09631947427988052, -0.07787103205919266, -0.05981992185115814, -0.08023848384618759, 0.07954220473766327, 0.062382228672504425, 0.008008661679923534, -0.1501399129629135, -0.024190882220864296, -0.071343794465065, -0.02346874587237835, -0.027177076786756516, 0.06925570219755173, -0.012629702687263489, 0.16646385192871094, 0.09892690926790237, 0.05840904265642166, -0.028303349390625954, -0.14964638650417328, 0.19586047530174255, -0.151983380317688, 0.1548488438129425, -0.028658367693424225, 0.11926889419555664, -0.18996793031692505, 0.0940883606672287, 0.07941074669361115, 0.05455698072910309, -0.1024426519870758, -0.09012102335691452, -0.2243085354566574, -0.2684310972690582, -0.03569301217794418, -0.20373398065567017, 0.09172595292329788, 0.06250490993261337, 0.05877705663442612, 0.12246500700712204, 0.072329081594944, 0.08840647339820862, 0.05796707794070244, 0.07497938722372055, 0.1322270780801773, -0.03783893585205078, 0.15969835221767426, 0.03394841402769089, 0.1309812068939209, -0.13117197155952454, 0.05993783101439476, 0.1485304981470108, -0.10833148658275604, 0.07555680721998215, -0.020971283316612244, -0.08618918061256409, 0.11211161315441132, -0.059320058673620224, 0.07652918249368668, -0.08298072218894958, -0.0976879820227623, 0.0037953134160488844, 0.011883886530995369, -0.10114504396915436, 0.001897906418889761, -0.17665168642997742, 0.1119314581155777, 0.18059135973453522, 0.1928778439760208, -0.05870334059000015, 0.13540424406528473, -0.13370555639266968, 0.24616296589374542, -0.04676279053092003, 0.049665745347738266, 0.04696223512291908, 0.02065972425043583, -0.14321719110012054, -0.1430322825908661, -0.3999156653881073, 0.17708079516887665, -0.29237449169158936, -0.3128668963909149, -0.14160223305225372, -0.35860371589660645, -0.36835071444511414, -0.04073074832558632, 0.14397381246089935, 0.26734068989753723, 0.05748613923788071, -0.2619694769382477, -0.2335856705904007, -0.08222393691539764, 0.0592348650097847, 0.17667929828166962, -0.01664956659078598, 0.011703822761774063, 0.10805296897888184, -0.036758873611688614, 0.0834098532795906, 0.14196138083934784, -0.1643674522638321, 0.1796085685491562, 0.14647524058818817, -0.05625246837735176, -0.022224361076951027, 0.45115426182746887, -0.03489762917160988, 0.02677646465599537, -0.02905586175620556, -0.4158383309841156, 0.11432057619094849, -0.16438886523246765, 0.11705616861581802, -0.17637167870998383, 0.15508487820625305, -0.03875967860221863, 0.2981926500797272, 0.26293230056762695, 0.1853562593460083, -0.2233199179172516, 0.21561473608016968, 0.035346973687410355, 0.0246279314160347, 0.03185521066188812, 0.07699460536241531, 0.16789282858371735, 0.1668579876422882, 0.13492587208747864, -0.3638709783554077, -0.11083551496267319, -0.02837810479104519, 0.20470857620239258, 0.07120399177074432, 0.12671369314193726, 0.13715936243534088, -0.15689390897750854, 0.18906019628047943, -0.09903503209352493, 0.18496258556842804, 0.1500982940196991, -0.1891389638185501, 0.026439925655722618, 0.19589339196681976, 0.07560810446739197, 0.024052610620856285, -0.15492448210716248, -0.028309758752584457, -0.18277429044246674, -0.011119024828076363, 0.023469332605600357, -0.191364586353302, -0.13900089263916016, 0.03086739219725132, 0.10579225420951843, 0.08456728607416153, -0.044483061879873276, -0.24226947128772736, -0.14062489569187164, -0.14129628241062164, 0.30178597569465637, 0.009469650685787201, -0.20076918601989746, -0.026176726445555687, 0.13445059955120087, -0.04801247641444206, 0.2696973979473114, 0.09546013921499252, 0.19289396703243256, -0.045576661825180054, 0.09304624795913696, -0.05574813112616539, -0.06227622553706169, -0.17692314088344574, -0.07100185006856918, 0.17124028503894806, -0.1668250411748886, -0.12630832195281982, -0.05199485644698143, -0.10684604942798615, 0.13836687803268433, -0.038736492395401, -0.23586982488632202, -0.22880564630031586, 0.05027730390429497, 0.3882080912590027, 0.09805275499820709, -0.025960681959986687, 0.07620063424110413, 0.09227652847766876, -0.025188187137246132, -0.030419722199440002, -0.15790940821170807, 0.008529633283615112, 0.13585089147090912, -0.13484802842140198, -0.07785894721746445, -0.2174275517463684, 0.21227775514125824, -0.1278335452079773, -0.025516806170344353, 0.062062449753284454, -0.25949203968048096, -0.17004652321338654, -0.06196381151676178, 0.011262267827987671, 0.3602863550186157, 0.20868505537509918, 0.06765193492174149, -0.18456268310546875, 0.05960715562105179, 0.26952457427978516, 0.0715513601899147, -0.34931203722953796, -0.11705761402845383, -0.13884998857975006, -0.15230105817317963, -0.32657235860824585, -0.19726377725601196, -0.12241523712873459, 0.07425088435411453, 0.143552765250206, 0.022614220157265663, 0.04015038534998894, -0.11248703300952911, -0.1707914024591446, -0.0975695252418518, -0.08368570357561111, -0.06921114772558212, 0.05508747696876526, -0.10351963341236115, -0.16799825429916382, 0.04860653728246689, 0.015016806311905384, -0.1330828070640564, 0.03327607363462448, -0.020690273493528366, -0.048430368304252625, -0.25324296951293945, 0.21058239042758942, -0.052159909158945084, 0.08079009503126144, -0.15792252123355865, -0.09276772290468216, -0.037819430232048035, -0.060335755348205566, -0.007951490581035614, 0.08759984374046326, -0.07199117541313171, -0.05073779076337814, 0.023683123290538788, -0.08890805393457413, 0.03758396953344345, 0.020839156582951546, -0.029045982286334038, 0.13357529044151306, -0.16757901012897491, 0.2274668961763382, -0.06195316091179848, 0.09565596282482147, 0.10190242528915405, 0.051158688962459564, -0.07103712111711502, 0.15219102799892426, -0.039878424257040024, -0.1554110050201416, 0.17483627796173096, 0.009471270255744457, -0.03866332024335861, -0.07299674302339554, 0.06348926573991776, 0.13502979278564453, -0.08740613609552383, 0.015541921369731426, -0.19559946656227112, -0.20531783998012543, 0.04009908810257912, -0.18115738034248352, -0.11770302802324295, 0.037663914263248444, 0.17286868393421173, 0.15667998790740967, 0.15143994987010956, -0.13839998841285706, -0.03993149474263191, -0.08073882758617401, -0.06983538717031479, -0.034149155020713806, -0.13607625663280487, -0.15235744416713715, 0.08166559040546417, -0.05243254452943802, 0.08004418760538101, -0.1996442675590515, 0.052863892167806625, -0.02132566086947918, -0.12798772752285004, -0.2517346739768982, -0.12555593252182007, -0.018650852143764496, -0.05460193753242493, -0.16043266654014587, -0.012842440977692604, 0.08021233975887299, -0.033331844955682755, -0.022197477519512177, 0.05125871300697327, 0.12371788173913956, 0.16864743828773499, 0.11516699194908142, 0.0746096670627594, 0.0464814268052578, 0.29373687505722046, 0.13988271355628967, 0.01744939386844635, -0.1632707267999649, -0.09476466476917267, 0.11340127140283585, 0.03659912943840027, 0.1522650122642517, -0.13920626044273376, -0.07394985854625702, -0.008371423929929733, 0.17849960923194885, 0.20901145040988922, 0.19877752661705017, 0.014811987057328224, -0.029857322573661804, 0.09238118678331375, 0.06744443625211716, 0.15213829278945923, -0.2254982590675354, 0.138030543923378, 0.23767514526844025, 0.1570141613483429, -0.21534495055675507, -0.24225012958049774, 0.13745279610157013, -0.16749082505702972, -0.16757343709468842, 0.19915682077407837, -0.12482322007417679, 0.10227672755718231, -0.24505308270454407, -0.12809480726718903, 0.13161705434322357, -0.03651457652449608, 0.01862991973757744, 0.14547599852085114, 0.003140533808618784, -0.02806033194065094, -0.03744972497224808, -0.13107390701770782, 0.1209200993180275, 0.1328858584165573, 0.20314086973667145, 0.10602884739637375, -0.1748201996088028, -0.2995172441005707, 0.13870351016521454, -0.1418888419866562, -0.3523033559322357, 0.05516202747821808, -0.1642840951681137, -0.08711609244346619, 0.10775011032819748, 0.004591256380081177, 0.03386826440691948, 0.19590380787849426, 0.25788187980651855, 0.09074866771697998, -0.22392010688781738, -0.1599052995443344, -0.12420126795768738, 0.11786580830812454, -0.1709306538105011, -0.11718979477882385, 0.2005886733531952, -0.049949683248996735, 0.13989418745040894, -0.1060299202799797, 0.098747618496418, -0.061308376491069794, -0.22245821356773376, 0.0820595845580101, -0.06608764827251434, 0.020010164007544518, 0.14426226913928986, -0.19962061941623688, 0.09709833562374115, 0.08443508297204971, 0.04984166473150253, 0.265803724527359, -0.17806798219680786, -0.18424254655838013, -0.239021435379982, 0.1104082241654396, -0.016887348145246506, -0.08807480335235596, 0.19076231122016907, -0.05335737019777298, 0.22700995206832886, -0.1306183934211731, 0.06712251156568527, -0.02326240763068199, -0.042741209268569946, -0.13448069989681244, 0.08853840827941895, -0.16244561970233917, -0.11371522396802902, -0.2561458349227905, -0.08393149077892303, 0.13141867518424988, 0.10801076143980026, -0.07543788850307465, 0.06013305112719536, -0.13675637543201447, 0.23629826307296753, -0.22630538046360016, 0.09774935990571976, -0.18788039684295654, 0.2403588891029358, 0.1689162403345108, 0.15101595222949982, -0.22791333496570587, 0.05522970110177994, -0.25478869676589966, -0.17568545043468475, 0.07095295190811157, -0.18853750824928284, -0.07316242158412933, -0.22611631453037262, -0.03581039980053902, 0.17370358109474182, 0.2116861641407013, 0.012995966710150242, -0.20108257234096527, 0.12017268687486649, 0.18179111182689667, -0.03300952911376953, -0.13879747688770294, 0.14814653992652893, -0.004735436290502548, -0.05985516309738159, -0.03631257638335228, -0.17678363621234894, 0.0321248434484005, -0.11035165190696716, -0.20440804958343506, -0.27357757091522217, 0.11718330532312393, 0.10339675843715668, -0.06905040889978409, 0.060432422906160355, 0.2591588795185089, -0.0632673054933548, 0.0321170873939991, -0.01835210993885994, -0.07618364691734314, 0.040892742574214935, -0.10398775339126587, -0.07868608087301254, 0.019172390922904015, 0.1036406084895134, -0.0742262452840805, -0.17682015895843506, -0.07735106348991394, -0.07058707624673843, -0.1806839406490326, -0.049995649605989456, -0.1226610541343689, 0.006476446520537138, -0.030162625014781952, 0.04958391934633255, -0.09719227999448776, 0.09771483391523361, 0.053808294236660004, -0.16783228516578674, 0.049505334347486496, -0.004713874310255051, 0.01696472056210041, -0.007266229949891567, 0.001115234917961061, -0.10354723036289215, -0.05082741379737854, -0.09066370874643326, 0.13882175087928772, 0.01336108148097992, 0.14031276106834412, -0.09877816587686539, 0.06584801524877548, 0.022217420861124992, -0.04393135756254196, -0.08166886121034622, 0.1337682455778122, -0.055666446685791016, -0.007881364785134792, 0.15912321209907532, -0.05042653530836105, 0.09891500324010849, 0.022212516516447067, -0.017124293372035027, -0.0010733832605183125, -0.07129554450511932, -0.09944473952054977, 0.11342765390872955, 0.04459533840417862, 0.08621802181005478, 0.03760746493935585, 0.0514804907143116, 0.11246450245380402, 0.062430400401353836, -0.1751943975687027, -0.22367703914642334, -0.22898590564727783, -0.11764190346002579, -0.2699979245662689, -0.062053751200437546, -0.011390874162316322, -0.13977718353271484, 0.07117626070976257, 0.039427198469638824, 0.06384819746017456, 0.052033014595508575, -0.0023632885422557592, 0.10053355246782303, -0.031970638781785965, 0.08487369865179062, -0.11143692582845688, 0.020979925990104675, 0.06090865656733513, 0.1160135418176651, -0.018300265073776245, -0.1168573871254921, -0.2004784494638443, -0.25853100419044495, -0.16431750357151031, -0.18242201209068298, -0.11614084243774414, -0.14239314198493958, 0.09641724824905396, -0.1399770975112915, -0.1935848742723465, -0.22466132044792175, -0.09428359568119049, -0.16203723847866058, -0.22087596356868744, 0.0331026092171669, -0.14826524257659912, -0.015683606266975403, -0.13322831690311432, -0.15796591341495514, 0.06470179557800293, -0.15044264495372772, 0.028323214501142502, 0.03757422789931297, 0.0017397794872522354, -0.03948860615491867, 0.033280666917562485, 0.09061550348997116, -0.027491748332977295, 0.18947148323059082, 0.051788441836833954, 0.11423962563276291, 0.09834706783294678, 0.02159113623201847, 0.09290554374456406, -0.11925815790891647, -0.1947728395462036, -0.15103383362293243, 0.007710549049079418, 0.045061465352773666, -0.18012495338916779, 0.07041724026203156, -0.06366678327322006, -0.010690048336982727, 0.041584599763154984, 0.10724665224552155, -0.09552867710590363, 0.10590974986553192, -0.013246528804302216, -0.020210949704051018, 0.05112292617559433, -0.0462290458381176, -0.020146667957305908, 0.20044633746147156, -0.12638972699642181, -0.1335018277168274, 0.02988787554204464, 0.009821740910410881, 0.0425545796751976, -0.10575269907712936, -0.0544796921312809, 0.05116494372487068, -0.07771231979131699, -0.08332110941410065, 0.11210555583238602, -0.06868220120668411, 0.03801669552922249, 0.0667816698551178, 0.2204921841621399, -0.029357746243476868, 0.11776255816221237, -0.14804677665233612, -0.11144343763589859, -0.07001551240682602, 0.08751475065946579, -0.08412504941225052, -0.021632084622979164, 0.018645979464054108, 0.1767662763595581, -0.006679811980575323, -0.1495290994644165, -0.12389656156301498, -0.10841318219900131, 0.10958218574523926, -0.16289912164211273, 0.01443032082170248, -0.11805850267410278, 0.12087903916835785, 0.00607423298060894, -0.17237521708011627, -0.03138670325279236, -0.29730430245399475, -0.11642129719257355, 0.08887989819049835, -0.2415040135383606, 0.011531610041856766, -0.038403674960136414, 0.09772025793790817, -0.04094223305583, -0.11515843868255615, -0.10272877663373947, -0.08701416850090027, -0.060772303491830826, 0.08736958354711533, -0.1029621809720993, -0.10470222681760788, 0.15246842801570892, 0.0320119708776474, 0.257644385099411, 0.12419584393501282, -0.04318742826581001, -0.09908957034349442, -0.002623257925733924, 0.14955200254917145, 0.08070776611566544, 0.062372028827667236, -0.02278921566903591, -0.02224365621805191, -0.04991051182150841, -0.1415502279996872, -0.34689855575561523, 0.0777592584490776, 0.13087479770183563, -0.04360054060816765, -0.18024857342243195, -0.06239008530974388, -0.08629032969474792, 0.11475619673728943, -0.03146279603242874, 0.20092733204364777, 0.18313659727573395, 0.015334523282945156, -0.21672168374061584, -0.13012494146823883, -0.07347546517848969, -0.04950251802802086, 0.14411553740501404, -0.1934572011232376, 0.01953696645796299, 0.10868898779153824, -0.15491251647472382, -0.14758698642253876, -0.2785789668560028, 0.1415076106786728, -0.33700305223464966, -0.25227683782577515, 0.043141867965459824, 0.3538111448287964, -0.2929821312427521, 0.2346954643726349, 0.15262766182422638, -0.11425131559371948, -0.05763566493988037, 0.008040388114750385, 0.12587560713291168, 0.00761092733591795, 0.08397610485553741, -0.09570599347352982, -0.087101049721241, 0.08888249844312668, -0.0959535464644432, -0.04553927481174469, -0.07299904525279999, -0.32056185603141785, -0.3795546591281891, -0.05240587145090103, 0.10117114335298538, 0.19270792603492737, 0.1044648215174675, 0.21932752430438995, -0.04375613108277321, 0.04795074090361595, -0.31376421451568604, -0.07659231126308441, -0.05227062478661537, -0.25917938351631165, 0.10406744480133057, 0.00332992454059422, 0.08394287526607513, -0.19170445203781128, -0.022137947380542755, 0.22585539519786835, 0.08951549232006073, -0.11094079911708832, -0.06698229908943176, 0.2574690282344818, 0.3522011935710907, 0.026623159646987915, -0.08666791021823883, 0.16476333141326904, -0.08522633463144302, 0.03917250409722328, 0.25511255860328674, 0.19429904222488403, -0.08726265281438828, 0.02013494074344635, -0.3181891441345215, -0.05495983734726906, -0.212357297539711, -0.28629010915756226, 0.04567800462245941, -0.11518985778093338, 0.13835081458091736, -0.26670968532562256, -0.23540157079696655, 0.10814140737056732, 0.14373023808002472, -0.27074605226516724, 0.0711471289396286, -0.12116808444261551, -0.23069354891777039, -0.13464879989624023, 0.14294633269309998, -0.11521211266517639, -0.09841983765363693, -0.2149796187877655, 0.014789682812988758, 0.004624545108526945, -0.05528182163834572, 0.1556897759437561, -0.02406531199812889, 0.20440924167633057, -0.17027465999126434, 0.04026200622320175, -0.19013482332229614, -0.3231726288795471, -0.13266079127788544, 0.24288217723369598, -0.08084246516227722, 0.17255491018295288, 0.09431740641593933, -0.02175011858344078, 0.05442437157034874, 0.18500879406929016, 0.07107860594987869, -0.0076341754756867886, 0.010821389965713024, 0.17570416629314423, 0.202478289604187, 0.15120558440685272, 0.21572574973106384, -0.14664384722709656, 0.15869295597076416, 0.3225201368331909, 0.19825227558612823, -0.12212049216032028, 0.27189889550209045, -0.1369258165359497, 0.3826398551464081, 0.13620805740356445, 0.23061135411262512, -0.23548635840415955, 0.1309618502855301, -0.13674676418304443, 0.059023790061473846, -0.04151565581560135, 0.12126806378364563, 0.04800788685679436, -0.2485247105360031, 0.2365035116672516, 0.023205168545246124, -0.02525506168603897, -0.17955951392650604, -0.26609188318252563, -0.0186004638671875, -0.381051629781723, 0.308056503534317, 0.10410363972187042, -0.08010464906692505, -0.059635549783706665, 0.2102098912000656, 0.2137386053800583, -0.06880932301282883, 0.13665083050727844, -0.13703937828540802, -0.21767635643482208, 0.3230665624141693, 0.30164289474487305, -0.20112380385398865, -0.220937117934227, 0.1761905550956726, 0.039881281554698944, 0.4412153661251068, 0.06167244538664818, 0.072243332862854, -0.09385446459054947, -0.11413218826055527, -0.06518074870109558, 0.23939713835716248, -0.45357415080070496, 0.31765368580818176, 0.13733705878257751, 0.24507804214954376, -0.23633715510368347, 0.32993951439857483, 0.23885740339756012, -0.2919006943702698, 0.1254582554101944, -0.08424516022205353, -0.13196395337581635, -0.0767221599817276, -0.011779313907027245, -0.30605366826057434, 0.06128551810979843, -0.04832642152905464, 0.09897680580615997, -0.09490243345499039, 0.1757536381483078, 0.0657096728682518, -0.2109726071357727, -0.13483944535255432, -0.19835816323757172, -0.027959562838077545, -0.19750961661338806, -0.01190113928169012, -0.12085062265396118, -0.4126318693161011, -0.04862920939922333, -0.04216679185628891, 0.16920100152492523, 0.1560450941324234, -0.3478040099143982, 0.06357816606760025, -0.3360242247581482, 0.11935271322727203, -0.08785929530858994, -0.0455557219684124, -0.10036876797676086, 0.11747696250677109, 0.22552408277988434, 0.008733822032809258, 0.05944450944662094, -0.1967228800058365, 0.126597598195076, -0.19196438789367676, -0.002766667166724801, -0.10942096263170242, 0.03989860787987709, -0.1314004361629486, -0.19244305789470673, 0.029024718329310417, 0.2341519296169281, 0.07853969186544418, 0.022595304995775223, -0.11595667898654938, 0.2645746171474457, -0.2354496866464615, 0.05622453987598419, 0.0702454075217247, 0.08839109539985657, 0.06031140312552452, -0.025144563987851143, 0.17050467431545258, -0.2786880135536194, -0.06396591663360596, 0.282131165266037, -0.3395704925060272, 0.13911204040050507, 0.06370513886213303, 0.05672138184309006, 0.07584605365991592, -0.19223721325397491, -0.15989206731319427, 0.20422381162643433, -0.2273448407649994, -0.022465229034423828, 0.10756036639213562, 0.05066614970564842, 0.11813008785247803, -0.19042399525642395, -0.23669512569904327, -0.2761939764022827, 0.04341587424278259, -0.023648150265216827, 0.10772562772035599, 0.07046349346637726, -0.25374549627304077, 0.020076513290405273, -0.14693816006183624, 0.24541200697422028, 0.007913789711892605, -0.11091341078281403, -0.3512269854545593, 0.21741662919521332, -0.15729795396327972, 0.22781959176063538, -0.01532064750790596, -0.20636120438575745, 0.15797215700149536, 0.3041902482509613, 0.06985995918512344, 0.2445734143257141, 0.023104142397642136, -0.14586292207241058, -0.2243957668542862, -0.14489233493804932, 0.314170777797699, -0.16569475829601288, 0.14779648184776306, 0.33329126238822937, -0.22418120503425598, 0.19724242389202118, -0.09480379521846771, -0.03320254385471344, -0.3831873834133148, -0.0067117782309651375, 0.25841450691223145, -0.0999390259385109, 0.026518523693084717, 0.17632466554641724, 0.060889143496751785, -0.06916966289281845, 0.02441604621708393, 0.11111307889223099, 0.09024502336978912, -0.16092728078365326, 0.05488511174917221, 0.035573508590459824, 0.06416823714971542, 0.174833744764328, 0.08119352906942368, 0.03688252717256546, -0.008457876741886139, -0.0110015869140625, 0.15243421494960785, 0.15561257302761078, -0.13675956428050995, -0.19901178777217865, -0.2167920619249344, -0.18716475367546082, -0.10789193958044052, 0.0050016059540212154, 0.21798370778560638, 0.18536584079265594, 0.025270216166973114, 0.019633281975984573, -0.13052812218666077, -0.10715167969465256, 0.08199357241392136, -0.018518812954425812, -0.06859184801578522, -0.06934734433889389, 0.1970905214548111, 0.2307511866092682, 0.19331654906272888, -0.09310944378376007, 0.0010635055368766189, 0.25220152735710144, -0.12165778875350952, -0.3079685866832733, 0.0902193933725357, -0.16479754447937012, 0.003909868188202381, -0.09962290525436401, 0.16914717853069305, 0.0760643482208252, 0.24969011545181274, 0.16051335632801056, -0.24511952698230743, -0.11423923075199127, 0.03214418143033981, -0.12444870918989182, -0.1174708902835846, 0.0590721033513546, 0.1351337879896164, -0.20603269338607788, -0.2118227779865265, 0.10670541971921921, 0.08446016162633896, 0.3067988157272339, 0.11266319453716278, 0.1884322166442871, -0.04294300079345703, -0.0410911850631237, 0.049672890454530716, -0.029183901846408844, 0.0378071665763855, -0.21448461711406708, -0.06510505080223083, -0.01918799802660942, 0.05978764221072197, 0.14422738552093506, -0.16103261709213257, -0.08221256732940674, -0.05224290490150452, 0.08776560425758362, -0.28771016001701355, -0.09428147971630096, 0.07437407225370407, 0.048582252115011215, -0.14511926472187042, -0.07533745467662811, 0.10750678926706314, 0.06723040342330933, -0.26465827226638794, 0.17716829478740692, 0.04706179350614548, -0.07632749527692795, 0.0869140774011612, 0.08889017254114151, 0.17533862590789795, 0.13811543583869934, -0.0018771470058709383, 0.2446286827325821, 0.23822645843029022, -0.30071842670440674, 0.055920034646987915, 0.07862898707389832, -0.15636026859283447, 0.02190626971423626, 0.2132694274187088, 0.0050468663685023785, -0.04570680111646652, -0.24135641753673553, -0.16413100063800812, -0.14822690188884735, -0.05673684552311897, -0.1085272878408432, -0.1761418581008911, -0.23945780098438263, 0.22917543351650238, 0.1365860253572464, -0.16644065082073212, -0.055905379354953766, 0.11809860169887543, -0.03693120926618576, -0.13130487501621246, -0.05667836219072342, 0.1683482825756073, 0.03718221187591553, -0.046578604727983475, 0.18070797622203827, -0.04140882566571236, -0.0031541038770228624, -0.21074095368385315, -0.02904551476240158, 0.12965872883796692, -0.2340926229953766, 0.1746981292963028, 0.028710275888442993, -0.16527651250362396, -0.2073000818490982, -0.21277688443660736, -0.1311263144016266, 0.1624889373779297, 0.08954687416553497, 0.030231153592467308, 0.12969368696212769, -0.1462148129940033, -0.035189103335142136, 0.10444585233926773, -0.09950707852840424, -0.2276102751493454, -0.13036112487316132, -0.08185212314128876, 0.36302244663238525, 0.3595627546310425, -0.17632201313972473, -0.03175150975584984, 0.21555301547050476, 0.115656778216362, 0.36047330498695374, -0.2100563496351242, -0.27595725655555725, -0.030002502724528313, 0.0666460320353508, 0.18878048658370972, 0.3533198833465576, -0.2648863196372986, -0.2078363299369812, 0.14109255373477936, -0.18900111317634583, 0.06215647980570793, -0.11246608942747116, 0.2398035079240799, -0.023015553131699562, -0.09099087119102478, -0.14471851289272308, 0.07659327238798141, -0.06696698814630508, -0.1408986896276474, -0.1262948215007782, 0.13467828929424286, -0.058654844760894775, -0.03200516477227211, -0.20664598047733307, 0.006100890226662159, 0.041040852665901184, -0.11388663947582245, 0.019538365304470062, 0.03153974935412407, 0.11756854504346848, -0.12298256158828735, -0.06600067019462585, 0.10239088535308838, -0.08280779421329498, 0.042281217873096466, 0.19203200936317444, 0.17696966230869293, -0.021914789453148842, 0.01769925467669964, -0.027444126084446907, -0.04269888624548912, -0.19838836789131165, -0.01012788712978363, 0.03331852704286575, 0.173869788646698, -0.2276412695646286, -0.2843233346939087, -0.036141544580459595, 0.12556810677051544, -0.07962864637374878, -0.06572534888982773, -0.004930096212774515, -0.0902024358510971, 0.16046246886253357, -0.01574523374438286, -0.12101750820875168, -0.2017837017774582, 0.022599685937166214, -0.026795582845807076, -0.038920994848012924, 0.050348348915576935, 0.03417752683162689, -0.22445645928382874, 0.20357060432434082, 0.14421120285987854, -0.03790467604994774, -0.07768414169549942, -0.14918434619903564, -0.0516117624938488, 0.23777340352535248, -0.11985224485397339, -0.12712930142879486, -0.04735668748617172, -0.06103115901350975, -0.20134498178958893, -0.16416822373867035, -0.266796350479126, -0.17294616997241974, 0.09116485714912415, 0.2603099048137665, 0.16087162494659424, -0.09199211746454239, -0.0235799178481102, -0.06805607676506042, -0.058454569429159164, 0.18204976618289948, 0.07669331878423691, -0.18968908488750458], "bias": [0.5488201379776001, -0.029273882508277893, 0.7304337024688721, -0.3781561255455017, 0.052819862961769104, 0.1992756724357605, 0.060568295419216156, -0.5069423913955688, 0.36706408858299255, -0.09071078896522522, 0.26646846532821655, 0.44653117656707764, 0.35086750984191895, 0.5102906823158264, -0.4431266188621521, 0.41383039951324463, 0.2132776528596878, 0.3290921151638031, -0.3161107897758484, 0.28692325949668884, 0.525439441204071, -0.2827662527561188, 0.32661446928977966, 0.4676409959793091, 0.2998412847518921, 0.34957385063171387, -0.33029815554618835, 0.08134054392576218, -0.059297289699316025, -0.15229851007461548, -0.13656912744045258, 0.4201800525188446]}, {"in": 32, "out": 64, "k": 3, "stride": 2, "pad": 1, "weight": [-0.13322632014751434, -0.1603447049856186, 0.17499718070030212, 0.14438492059707642, 0.01013775635510683, 0.11331552267074585, -0.10162876546382904, -0.13440705835819244, 0.006828841287642717, -0.04091436415910721, -0.001895244582556188, -0.03891116753220558, 0.16814982891082764, -0.22959819436073303, 0.1679922640323639, -0.062107186764478683, 0.13414259254932404, -0.1620778888463974, 0.11134961247444153, -0.31556591391563416, 0.2050023078918457, -0.357399046421051, 0.032367147505283356, -0.03921911492943764, -0.2354390174150467, 0.1861933320760727, 0.4019641876220703, -0.008012036792933941, 0.11134500056505203, 0.20472979545593262, 0.38106903433799744, -0.15780185163021088, 0.35278335213661194, 0.1990920454263687, 0.08855566382408142, -0.0680900290608406, 0.17706498503684998, -0.09237797558307648, -0.15068334341049194, 0.26295867562294006, 0.3072567582130432, 0.04336938634514809, -0.0909651517868042, 0.010742880403995514, 0.24425767362117767, 0.1265086680650711, 0.014321896247565746, 0.2086396962404251, 0.04503504931926727, 0.3103239834308624, 0.1509479582309723, 0.16786567866802216, 0.24223192036151886, -0.3794980049133301, 0.05879497528076172, 0.22401908040046692, -0.07907839119434357, -0.1882822960615158, -0.047533661127090454, -0.22076861560344696, 0.08850426971912384, -0.168868288397789, 0.3647501468658447, 0.18634161353111267, -0.21698524057865143, 0.04871301352977753, -0.06284376233816147, 0.12216080725193024, -0.25364574790000916, 0.02091614343225956, -0.3672793507575989, 0.1341380774974823, -0.16025468707084656, -0.1448671817779541, -0.047866255044937134, 0.1491764485836029, -0.12553590536117554, -0.06932999193668365, 0.3824857175350189, -0.31811830401420593, -0.047205064445734024, 0.19546788930892944, -0.1566493809223175, -0.017781011760234833, -0.20033465325832367, 0.26049160957336426, 0.07346587628126144, -0.10595092922449112, 0.12555792927742004, -0.19431816041469574, 0.1106802374124527, -0.14320501685142517, -0.11673338711261749, -0.2507960796356201, -0.062147106975317, -0.20647285878658295, -0.02666330151259899, 0.11270549148321152, 0.19180870056152344, -0.10952339321374893, 0.03393201902508736, 0.09479141235351562, 0.07523861527442932, -0.028865540400147438, 0.02512229233980179, -0.16508257389068604, -0.05381986126303673, -0.1748581826686859, -0.17754194140434265, 0.06881194561719894, 0.20347417891025543, -0.26679277420043945, 0.19170579314231873, -0.29222890734672546, 0.07369256019592285, -0.2834714651107788, -0.000552963640075177, -0.04634913057088852, -0.03611847758293152, -0.033099737018346786, 0.022370416671037674, 0.0798269733786583, 0.04487799108028412, 0.2311030626296997, 0.10185685753822327, 0.07032879441976547, -0.028573909774422646, -0.007065351586788893, 0.3012513518333435, 0.03142930567264557, 0.06567157804965973, -0.016523780301213264, 0.1241365596652031, 0.08591470867395401, -0.22696980834007263, -0.04612908139824867, -0.07076051831245422, -0.026226865127682686, -0.07196013629436493, 0.10684971511363983, -0.27021750807762146, -0.21971285343170166, 0.18616361916065216, 0.05515388399362564, 0.04161931946873665, 0.14596818387508392, 0.08515764027833939, 0.10930044949054718, -0.02955939806997776, 0.022292831912636757, 0.07940313220024109, -0.06818550825119019, -0.11153300851583481, -0.09995388984680176, -0.06670235842466354, 0.08928975462913513, -0.0016922183567658067, 0.0086625711992383, 0.04831545054912567, -0.10743850469589233, -0.10922613739967346, 0.060597021132707596, 0.18899257481098175, -0.07061751931905746, 0.0537971593439579, 0.08850443363189697, -0.06162691488862038, -0.12784823775291443, -0.12419390678405762, -0.016338028013706207, -0.10528711974620819, -0.2073991745710373, 0.13840368390083313, -0.07544174790382385, -0.1272960901260376, -0.1556500792503357, 0.008587535470724106, -0.018189815804362297, 0.16393688321113586, -0.056036800146102905, 0.07825152575969696, -0.2100197821855545, -0.0711250826716423, 0.0359099879860878, -0.2722381055355072, -0.11305006593465805, -0.0644904226064682, 0.016729796305298805, -0.09065428376197815, 0.07545626163482666, -0.04854777082800865, -0.2634478807449341, 0.04445294663310051, 0.09346894919872284, 0.3931052088737488, 0.10238463431596756, 0.10029985755681992, 0.017066314816474915, -0.3041081130504608, -0.17315496504306793, -0.280123233795166, -0.2936084270477295, 0.11566191911697388, 0.25601547956466675, -0.10433830320835114, -0.06965489685535431, 0.18560409545898438, 0.3495701849460602, 0.21551258862018585, 0.07695970684289932, -0.10280479490756989, -0.22263608872890472, 0.22930896282196045, 0.1762091964483261, 0.1265648752450943, -0.21419957280158997, -0.1793467104434967, -0.061731766909360886, -0.06303063780069351, 0.04226279631257057, 0.3301723003387451, 0.1412479728460312, 0.2790313959121704, -0.018872350454330444, -0.11397209763526917, 0.04630911350250244, 0.24094617366790771, -0.03769855946302414, -0.02430715039372444, -0.21252760291099548, 0.2782406806945801, 0.11353261768817902, -0.3175007700920105, -0.19949442148208618, 0.1787468045949936, -0.23744238913059235, 0.1402083933353424, 0.04441079497337341, 0.15033911168575287, 0.1362318992614746, 0.12496455013751984, 0.018740516155958176, 0.06089821457862854, 0.19575375318527222, 0.02248436026275158, 0.040111273527145386, -0.1185598075389862, 0.06464750319719315, 0.05049031600356102, -0.1567099690437317, -0.08367954194545746, -0.31750109791755676, 0.004646004177629948, 0.33060184121131897, 0.18407009541988373, -0.128011554479599, 0.22078578174114227, -0.20899471640586853, -0.05085538327693939, 0.4718312919139862, -0.032482657581567764, 0.2812017500400543, 0.22085659205913544, -0.3367484509944916, 0.17256683111190796, -0.12102191895246506, -0.20963607728481293, 0.08767262101173401, 0.24956102669239044, -0.05336662754416466, -0.006169336382299662, 0.19836106896400452, 0.1617548018693924, -0.26997867226600647, 0.30189961194992065, 0.2018883228302002, 0.04822169989347458, -0.06077000871300697, 0.16984586417675018, -0.44150418043136597, -0.02115735411643982, -0.3919335901737213, -0.14829441905021667, 0.2682153880596161, 0.058055754750967026, 0.04664599522948265, -0.2637161910533905, -0.2427816092967987, 0.17504030466079712, 0.13940106332302094, 0.0728640928864479, 0.11591628938913345, 0.17448139190673828, 0.15988889336585999, -0.11851229518651962, 0.3326697051525116, 0.2935660481452942, 0.23226965963840485, -0.024470875039696693, 0.11510762572288513, -0.12132800370454788, 0.09941178560256958, -0.08423078805208206, -0.003871942637488246, -0.16792495548725128, 0.03621765226125717, 0.1071423664689064, 0.027836022898554802, -0.03743474557995796, -0.25491800904273987, 0.3930499255657196, 0.08828609436750412, -0.2578478157520294, 0.44939282536506653, -0.1383131593465805, 0.025345200672745705, 0.3380464017391205, -0.3506064713001251, 0.4380687177181244, -0.09105531871318817, -0.11872844398021698, -0.11872077733278275, -0.1739821583032608, -0.28556007146835327, -0.2590809166431427, -0.06907014548778534, -0.13871511816978455, 0.2665390372276306, -0.014542370103299618, -0.20445014536380768, -0.023711031302809715, -0.14563089609146118, 0.11010710895061493, -0.07714269310235977, 0.2663327753543854, -0.26355627179145813, 0.19719073176383972, 0.12079550325870514, -0.3983062207698822, -0.10611937940120697, 0.2268776148557663, -0.19333600997924805, 0.14929720759391785, -0.095737986266613, 0.18742814660072327, 0.10205692797899246, 0.05315179377794266, 0.10848574340343475, 0.26102498173713684, -0.23106813430786133, 0.30940794944763184, -0.09464412182569504, 0.17701870203018188, 0.3544243276119232, -0.07186439633369446, 0.106343574821949, -0.13811860978603363, 0.3407505750656128, 0.048449091613292694, -0.21321140229701996, -0.12617258727550507, 0.003684954484924674, 0.4616532623767853, 0.07564390450716019, 0.07633660733699799, -0.34098201990127563, -0.03877915441989899, 0.1360539048910141, -0.3041751980781555, -0.20328494906425476, -0.33906859159469604, -0.139043390750885, 0.06999284029006958, -0.09699428826570511, -0.02774800918996334, -0.11849316209554672, -0.04257874935865402, 0.01018416229635477, 0.3970390856266022, -0.2230956107378006, 0.25886446237564087, -0.2994176149368286, 0.18868745863437653, 0.27460798621177673, -0.2720673978328705, -0.10432519018650055, -0.23460614681243896, -0.006676702760159969, 0.029773078858852386, 0.2244991958141327, -0.0818294882774353, 0.09517663717269897, -0.2642872929573059, 0.010729844681918621, -0.060949474573135376, 0.09609991312026978, 0.10311529785394669, 0.010616399347782135, -0.12133820354938507, -0.15253287553787231, -0.21085450053215027, 0.17548318207263947, 0.16773894429206848, -0.15673239529132843, 0.10577737540006638, -0.28290292620658875, -0.4050164818763733, -0.04729974642395973, -0.24321021139621735, -0.04741264879703522, -0.25176164507865906, -0.03578617423772812, 0.015944374725222588, 0.09714916348457336, -0.33840033411979675, -0.1734476387500763, 0.019487015902996063, -0.11509552597999573, -0.17332080006599426, -0.20408952236175537, -0.16538773477077484, -0.27296847105026245, -0.0032658884301781654, 0.10274668782949448, -0.07300271093845367, 0.0075638010166585445, 0.02991536632180214, 0.2493303120136261, -0.13563507795333862, 0.04883977398276329, 0.043737106025218964, -0.09495899081230164, -0.04662320390343666, 0.2646915018558502, -0.21643255650997162, 0.150814026594162, 0.16278024017810822, 0.29938051104545593, -0.09771640598773956, 0.1341414600610733, -0.19167497754096985, 0.2962833046913147, -0.389523446559906, 0.0851726084947586, -0.14122872054576874, 0.1496254950761795, -0.028138859197497368, -0.2832983732223511, -0.2525998651981354, 0.059380412101745605, -0.0006743609555996954, -0.1815507411956787, -0.07262119650840759, -0.007437046617269516, -0.0066363196820020676, 0.1549326479434967, -0.17653141915798187, 0.015583108179271221, 0.03516491502523422, 0.04607575759291649, 0.09874400496482849, -0.2858523726463318, -0.14127658307552338, -0.11036098748445511, -0.10932684689760208, -0.25918468832969666, -0.013657131232321262, -0.038034774363040924, -0.0831550657749176, -0.28681403398513794, -0.045184239745140076, -0.14229591190814972, 0.011083133518695831, 0.10582922399044037, -0.0876183733344078, -0.011073926463723183, 0.06358642131090164, -0.08738261461257935, -0.4319334626197815, 0.09450755268335342, -0.1561121940612793, -0.11621958762407303, -0.19860228896141052, -0.17244988679885864, -0.23469410836696625, 0.0654783770442009, -0.19650696218013763, 0.11212627589702606, -0.0051911999471485615, -0.12484853714704514, 0.16413606703281403, 0.16010519862174988, 0.14092577993869781, -0.20557671785354614, 0.05018734186887741, 0.0903906300663948, 0.22300367057323456, 0.2662132680416107, -0.2128559648990631, -0.16728942096233368, -0.2644994854927063, -0.2073807418346405, -0.11580055207014084, -0.12993988394737244, -0.25145426392555237, -0.2403700351715088, 0.2558090090751648, -0.24235326051712036, -0.15953196585178375, -0.22059565782546997, 0.010523495264351368, -0.24357250332832336, -0.16935399174690247, -0.09561041742563248, 0.08175306767225266, 0.25527337193489075, 0.10688316822052002, -0.2355787605047226, 0.12301556766033173, 0.07719854265451431, -0.2007768750190735, -0.29359856247901917, -0.15591475367546082, 0.2267126441001892, -0.2211737036705017, 0.051244623959064484, 0.2005709856748581, -0.18273504078388214, 0.026275338605046272, -0.015459288842976093, -0.2602231502532959, -0.0575387068092823, -0.2736506462097168, -0.11627435684204102, -0.04582567512989044, 0.11862747371196747, -0.23247268795967102, -0.005826093722134829, -0.1624210923910141, -0.049153052270412445, -0.08319288492202759, 0.05444096401333809, -0.2926056683063507, 0.0696134865283966, -0.2749751806259155, 0.19044624269008636, 0.025910841301083565, 0.21843668818473816, -0.10913679748773575, -0.10433680564165115, -0.0993882492184639, -0.22947770357131958, 0.22199279069900513, -0.1945246011018753, 0.16678543388843536, 0.14353616535663605, -0.14789029955863953, -0.006494112778455019, 0.08690343052148819, -0.2192995399236679, 0.31308865547180176, 0.11062125861644745, 0.14907300472259521, -0.23922111093997955, 0.14646568894386292, 0.14827169477939606, 0.04783068969845772, 0.019740350544452667, -0.08399685472249985, -0.14813469350337982, -0.06974148750305176, -0.21938946843147278, -0.01955895684659481, 0.015427638776600361, 0.015026136301457882, -0.032204970717430115, 0.11612798273563385, -0.21201545000076294, -0.177938312292099, -0.056225020438432693, -0.12800295650959015, 0.3813398778438568, 0.028169790282845497, -0.5561390519142151, 0.1687685251235962, -0.3588118851184845, 0.022860389202833176, 0.06945037096738815, 0.16045141220092773, 0.13918893039226532, -0.29134970903396606, 0.15985549986362457, 0.16988475620746613, 0.2575124204158783, -0.17198723554611206, 0.32833755016326904, 0.15981431305408478, -0.1809191256761551, 0.2992294430732727, -0.2636818587779999, 0.05975518003106117, -0.2541336119174957, -0.0737094134092331, 0.014148600399494171, -0.19898353517055511, -0.13990995287895203, -0.11190212517976761, -0.39334532618522644, -0.11757171899080276, -0.08200907707214355, -0.10020428150892258, 0.21471010148525238, 0.4081878066062927, -0.4442831873893738, 0.31455734372138977, -0.08146460354328156, -0.1390371024608612, 0.2781841456890106, 0.23827001452445984, -0.082058846950531, 0.3739866614341736, 0.08887398988008499, -0.14296145737171173, 0.09228850901126862, -0.2243313491344452, 0.20908333361148834, 0.11874058097600937, -0.1039058268070221, -0.11682424694299698, -0.40528979897499084, -0.24827657639980316, -0.4101618230342865, 0.09281440079212189, -0.20479373633861542, 0.18684718012809753, 0.23849892616271973, 0.06540016829967499, -0.32547637820243835, -0.03583685681223869, -0.42967256903648376, -0.13298527896404266, 0.3096418082714081, -0.44942936301231384, 0.38467156887054443, 0.1820722371339798, 0.11269643902778625, 0.43922728300094604, 0.03731931000947952, -0.21349187195301056, -0.23355884850025177, -0.17791953682899475, 0.2306424230337143, -0.2576850354671478, -0.3304843306541443, -0.15546146035194397, -0.4076758623123169, -0.20103029906749725, -0.03964148834347725, 0.11818479001522064, 0.11807835847139359, 0.02365713380277157, -0.20293007791042328, 0.2707836925983429, 0.1353122889995575, -0.23499329388141632, 0.11438291519880295, 0.36698004603385925, -0.1521231085062027, 0.23964309692382812, 0.15943476557731628, 0.0955650806427002, -0.26088738441467285, -0.1986677646636963, -0.028058325871825218, -0.18977391719818115, 0.007889912463724613, -0.18876084685325623, 0.051512207835912704, 0.009940935298800468, -0.2736043930053711, -0.12764903903007507, -0.06297873705625534, 0.14140377938747406, -0.3851816952228546, -0.0168510302901268, 0.014481563121080399, -0.0380900613963604, -0.09428952634334564, 0.100180484354496, -0.03743213042616844, 0.08488678187131882, -0.1425347775220871, -0.08146703243255615, -0.2638058066368103, -0.10402358323335648, -0.10152515769004822, -0.12175679206848145, -0.08981461822986603, 0.24353085458278656, -0.1544485092163086, -0.025254804641008377, -0.21234600245952606, -0.14649726450443268, -0.10742927342653275, 0.17512796819210052, 0.0913550853729248, -0.25560617446899414, -0.11654680967330933, -0.1146746277809143, 0.008945539593696594, -0.05920543149113655, -0.17963095009326935, -0.12474091351032257, 0.14934609830379486, -0.05883464217185974, 0.004051875323057175, -0.18532173335552216, 0.009992036037147045, 0.04166196286678314, -0.16333284974098206, -0.03972766175866127, 0.16804556548595428, 0.17085537314414978, 0.11131764948368073, -0.14885780215263367, 0.09530951082706451, -0.06776480376720428, 0.05934717506170273, 0.016126057133078575, -0.18883496522903442, -0.033019326627254486, 0.011516164056956768, -0.20456328988075256, 0.05220900475978851, -0.10553402453660965, -0.005270848516374826, -0.15823648869991302, -0.23748371005058289, -0.26061320304870605, -0.0696825161576271, -0.03382810577750206, -0.06926882266998291, -0.014560234732925892, -0.12319248914718628, -0.01154530979692936, 0.027668088674545288, -0.1267940253019333, -0.14716751873493195, 0.1630769819021225, -0.07456538081169128, -0.0016969963908195496, 0.11215072870254517, -0.20146724581718445, -0.13925813138484955, 0.1351698786020279, -0.052771590650081635, -0.10640453547239304, -0.03536190092563629, 0.10009892284870148, -0.24263790249824524, -0.0527915395796299, -0.12834639847278595, -0.24957981705665588, -0.053947340697050095, -0.031085366383194923, -0.2342042177915573, -0.045413415879011154, -0.29707640409469604, 0.1234891414642334, 0.06315568089485168, 0.0834997147321701, -0.061567749828100204, 0.2716386616230011, 0.0959232971072197, 0.5582687854766846, 0.604705810546875, 0.36956289410591125, 0.28698962926864624, -0.29026558995246887, 0.12622971832752228, -0.22000522911548615, 0.2659909427165985, 0.3031589388847351, 0.03547612950205803, 0.14036951959133148, -0.268813818693161, -0.20596496760845184, 0.1141405925154686, 0.07499027997255325, 0.17160798609256744, 0.0008067290764302015, -0.0932483822107315, -0.060097381472587585, 0.0029516981448978186, -0.01460677944123745, -0.14272703230381012, 0.14945417642593384, -0.296200692653656, -0.2729697823524475, 0.13860423862934113, 0.043279390782117844, 0.06182798743247986, -0.04287360981106758, 0.25810742378234863, 0.0877452939748764, -0.34875911474227905, 0.17258372902870178, -0.03681761398911476, 0.28343671560287476, 0.2791637182235718, 0.3325921893119812, 0.014805641025304794, -0.1689090132713318, -0.05406169965863228, 0.010603337548673153, 0.1617954671382904, -0.03574032336473465, -0.30016306042671204, -0.19154350459575653, -0.35678449273109436, 0.30889493227005005, -0.08425372838973999, 0.05104002356529236, -0.1797146499156952, -0.30321016907691956, 0.16275498270988464, -0.15069550275802612, 0.24413029849529266, -0.0266506876796484, -0.2978711426258087, 0.03537752479314804, 0.07365257292985916, 0.21995368599891663, -0.158372700214386, -0.050099316984415054, 0.22604988515377045, -0.32691365480422974, -0.3185860216617584, -0.31738853454589844, -0.1142449751496315, 0.07913967967033386, -0.07222672551870346, -0.03068135678768158, -0.2665276527404785, 0.03899309039115906, 0.17550475895404816, -0.06736937165260315, 0.18134427070617676, 0.2706848382949829, 0.06445198506116867, 0.006366895046085119, -0.2775893807411194, -0.2627299726009369, 0.3187912702560425, -0.0036220119800418615, 0.23137646913528442, 0.13460764288902283, 0.3041340410709381, 0.2521466314792633, 0.2490936517715454, 0.15918895602226257, 0.07580239325761795, -0.2984006702899933, -0.16553674638271332, 0.18449515104293823, 0.20105411112308502, -0.017676226794719696, -0.4221187233924866, 0.15280066430568695, -0.11603114008903503, 0.33159735798835754, 0.32464686036109924, -0.21779651939868927, -0.14170502126216888, 0.31367480754852295, 0.2600403130054474, -0.299170583486557, 0.10211235284805298, -0.0050977496430277824, 0.16914226114749908, -0.014981239102780819, 0.05522332340478897, -0.14985984563827515, -0.08624333888292313, 0.25847479701042175, -0.14046220481395721, 0.30250540375709534, 0.326443076133728, 0.17370925843715668, 0.10511080175638199, -0.15155267715454102, 0.2325555682182312, -0.01582828350365162, 0.06927639991044998, 0.04771564528346062, -0.3492599427700043, -0.08010630309581757, 0.27145591378211975, -0.05392293259501457, 0.09625240415334702, -0.050194572657346725, -0.22894828021526337, -0.24785973131656647, 0.25972744822502136, -0.04614875465631485, -0.3140185475349426, 0.2708326578140259, 0.04653549939393997, -0.0752972960472107, -0.10939756035804749, 0.46008825302124023, -0.052995484322309494, -0.051252253353595734, 0.02316693775355816, 0.007875398732721806, -0.275563508272171, 0.10377377271652222, -0.007473396603018045, 0.17581462860107422, -0.037706684321165085, -0.32042163610458374, 0.2878929078578949, -0.2986716032028198, 0.04785554111003876, -0.1212570071220398, 0.38094884157180786, 0.2824140787124634, 0.3052738308906555, 0.2810429632663727, -0.2063000202178955, -0.20009875297546387, -0.14861416816711426, -0.1852337121963501, -0.020490070804953575, 0.08806705474853516, 0.028383290395140648, 0.2862836718559265, 0.020666372030973434, -0.17622192203998566, -0.13773588836193085, 0.141816645860672, -0.17619766294956207, -0.007332568522542715, 0.2068561315536499, 0.32500240206718445, 0.08316287398338318, 0.12977856397628784, 0.33935317397117615, 0.008229139260947704, -0.2686283588409424, -0.27646520733833313, -0.32463324069976807, 0.29374754428863525, -0.10501006990671158, -0.2791658937931061, 0.24136091768741608, 0.2066272497177124, 0.11234129965305328, 0.06836250424385071, 0.05835943669080734, 0.19198475778102875, 0.23069003224372864, -0.029474368318915367, -0.2721480131149292, -0.11367574334144592, 0.23766069114208221, -0.27503547072410583, -0.4765271246433258, 0.38803935050964355, -0.08172067254781723, -0.28650107979774475, 0.17428132891654968, -0.46803492307662964, -0.4908299446105957, -0.10443656891584396, 0.38488176465034485, 0.2609575390815735, -0.1361657828092575, 0.00046349174226634204, -0.01795814372599125, 0.18986773490905762, -0.22049374878406525, -0.1323082149028778, 0.04598287120461464, 0.15398363769054413, -0.12601731717586517, -0.21080277860164642, -0.14097049832344055, 0.2562284469604492, -0.05407722666859627, -0.026829682290554047, 0.23490597307682037, 0.31797900795936584, 0.13893374800682068, -0.43255487084388733, 0.0488147996366024, 0.00944820512086153, -0.0695134699344635, 0.442927747964859, 0.11054084450006485, -0.02327626198530197, -0.03459404781460762, -0.07045552879571915, 0.09339422732591629, 0.10218056291341782, -0.13021834194660187, -0.0014107917668297887, -0.15946371853351593, -0.30800479650497437, 0.40995463728904724, 0.20591633021831512, 0.07327203452587128, -0.2046683132648468, -0.16507700085639954, 0.04681573063135147, 0.28183111548423767, 0.07541408389806747, -0.23814794421195984, 0.1430695801973343, -0.14613203704357147, 0.31959253549575806, -0.1311633139848709, -0.10371917486190796, 0.12774688005447388, -0.42445454001426697, -0.30251649022102356, 0.11182484030723572, 0.23755531013011932, -0.1498299092054367, 0.02355545572936535, -0.09922537952661514, 0.12014185637235641, 0.10039877146482468, 0.19983705878257751, 0.08731929212808609, -0.32299134135246277, -0.10653110593557358, 0.37231507897377014, -0.13936586678028107, -0.6466695666313171, 0.43842846155166626, -0.19224458932876587, 0.06739966571331024, -0.2520464360713959, 0.2012663185596466, -0.18874499201774597, 0.25230488181114197, -0.06725878268480301, -0.09374835342168808, 0.430308997631073, 0.28602951765060425, 0.10719945281744003, -0.36650142073631287, -0.01655641756951809, -0.2057764232158661, 0.22494177520275116, 0.01693124510347843, -0.17311879992485046, 0.020446954295039177, -0.2607091963291168, 0.21265366673469543, 0.23153556883335114, 0.2763262093067169, -0.07640619575977325, 0.048292454332113266, -0.2212381213903427, 0.09896033257246017, -0.1466350555419922, -0.31807267665863037, 0.005398578010499477, 0.0857100859284401, -0.32746121287345886, 0.23212717473506927, -0.15730638802051544, -0.19265806674957275, -0.07392632961273193, 0.09702066332101822, -0.026787033304572105, -0.10481902211904526, 0.21779508888721466, -0.24191758036613464, -0.049005065113306046, 0.1306336224079132, 0.0046341088600456715, -0.22675380110740662, -0.21684536337852478, -0.15629665553569794, 0.049105845391750336, -0.10613588243722916, 0.36603844165802, 0.10698197782039642, -0.11849381774663925, 0.10506556928157806, -0.30354994535446167, 0.1656327247619629, 0.018002979457378387, 0.2785002291202545, -0.1295507550239563, -0.21116048097610474, -0.06069139018654823, 0.24244371056556702, 0.1369640827178955, -0.13604402542114258, -0.17362841963768005, 0.014500843361020088, 0.19709588587284088, 0.05399736016988754, -0.018380114808678627, 0.23510193824768066, 0.17209000885486603, 0.19281943142414093, -0.10263371467590332, -0.20812372863292694, 0.026000680401921272, -0.1958666741847992, 0.158730611205101, 0.4131467044353485, 0.0917011946439743, -0.10884715616703033, 0.14547842741012573, -0.07228013128042221, -0.11712687462568283, 0.01748996041715145, 0.08802702277898788, 0.15826921164989471, 0.23011495172977448, -0.21132774651050568, -0.2728688716888428, -0.15011465549468994, -0.17703509330749512, -0.10533027350902557, -0.3224750757217407, -0.0331556610763073, -0.057296860963106155, 0.13881191611289978, -0.2844943106174469, 0.02345731481909752, 0.14336253702640533, 0.018262216821312904, -0.11388972401618958, -0.1952306032180786, -0.07455677539110184, 0.14764545857906342, -0.09232374280691147, 0.17173250019550323, 0.23457640409469604, -0.002689066343009472, -0.19913555681705475, 0.09472744911909103, 0.1904885619878769, -0.07266688346862793, 0.08193805068731308, -0.10387496650218964, -0.26607316732406616, -0.20413605868816376, -0.011341695673763752, -0.04605550691485405, -0.06789232790470123, -0.14312048256397247, -0.08659765124320984, -0.009250765666365623, 0.3675042688846588, 0.3089943528175354, 0.14383815228939056, 0.051834024488925934, -0.10029524564743042, -0.19857557117938995, 0.10261917114257812, -0.15591327846050262, -0.07923956960439682, 0.23977653682231903, 0.08467082679271698, 0.1609918624162674, 0.2835303843021393, 0.0112123629078269, 0.01694253459572792, 0.2058311253786087, -0.11490084230899811, 0.06167708337306976, 0.0746970996260643, -0.06952892243862152, -0.1223493441939354, 0.16613921523094177, 0.29424431920051575, 0.2864406406879425, 0.24634550511837006, -0.07984800636768341, 0.13886961340904236, 0.30384746193885803, 0.13700559735298157, -0.25387027859687805, 0.29673218727111816, 0.11113345623016357, -0.06154121086001396, 0.02181508205831051, -0.08728206902742386, -0.27572327852249146, -0.007868805900216103, -0.20397336781024933, -0.09877853840589523, -0.20628172159194946, 0.032645199447870255, 0.061657220125198364, -0.10545423626899719, -0.21985960006713867, -0.3470718562602997, -0.05924958363175392, 0.2787002623081207, 0.2608600854873657, -0.17241719365119934, -0.18614378571510315, 0.02120235562324524, -0.25869837403297424, -0.11791647970676422, 0.20356085896492004, -0.32211583852767944, -0.16021603345870972, 0.1062692329287529, -0.16475480794906616, -0.02014552243053913, 0.16455252468585968, -0.1618347465991974, 0.0052100480534136295, -0.0524660125374794, 0.345156729221344, 0.07742615789175034, 0.011906716041266918, -0.0744459480047226, 0.09580040723085403, -0.012402701191604137, -0.11874918639659882, 0.06287023425102234, -0.2952505350112915, 0.2418241649866104, 0.10790187865495682, 0.06000858172774315, -0.12341228127479553, -0.3017902970314026, -0.17986716330051422, 0.17629824578762054, -0.07453920692205429, 0.16873517632484436, -0.2348274439573288, 0.2063409388065338, 0.033825360238552094, 0.027548769488930702, 0.3873072564601898, -0.06086505204439163, -0.22281193733215332, 0.14697428047657013, -0.2882659435272217, -0.06459923088550568, -0.3901827335357666, -0.0004510733997449279, 0.007496979553252459, 0.30562540888786316, 0.07770905643701553, -0.05424654111266136, 0.0012777934316545725, 0.11809966713190079, -0.13218818604946136, -0.03797808289527893, 0.08514775335788727, 0.15680699050426483, 0.2535983622074127, 0.18749983608722687, -0.28904837369918823, -0.3622402250766754, -0.188995361328125, -0.04051220417022705, -0.20501179993152618, -0.04158135876059532, 0.18504969775676727, -0.04911666736006737, -0.2066819667816162, 0.2442159354686737, 0.3199837803840637, -0.12158156931400299, -0.4843854010105133, -0.2626136541366577, -0.18453457951545715, 0.1282218098640442, 0.02980063483119011, 0.19448021054267883, -0.4084669053554535, -0.06734360009431839, 0.1771627515554428, -0.251202255487442, 0.303318053483963, -0.04346977546811104, -0.028151599690318108, 0.13148102164268494, -0.32488885521888733, -0.04564928635954857, 0.09220778197050095, -0.12368689477443695, 0.016090575605630875, 0.3116926848888397, -0.044906921684741974, 0.06923063844442368, 0.34622013568878174, -0.04332980886101723, 0.11665575951337814, 0.0671192854642868, 0.11938025057315826, 0.054592542350292206, -0.14461512863636017, -0.268996924161911, 0.061185166239738464, -0.01166235189884901, 0.046242713928222656, 0.12364049255847931, -0.006983674131333828, 0.008573746308684349, -0.1724790632724762, -0.127659410238266, 0.2057884931564331, -0.20590436458587646, 0.022757478058338165, 0.15285205841064453, 0.1969558298587799, -0.05614936351776123, 0.1580711007118225, 0.11470312625169754, 0.2747800946235657, -0.09235268831253052, -0.4190264642238617, 0.15212084352970123, 0.08052419871091843, 0.1513768434524536, -0.2049790918827057, 0.12900817394256592, -0.2579091489315033, 0.17379696667194366, 0.31796762347221375, -0.34576332569122314, 0.28909561038017273, 0.09064491838216782, -0.15299347043037415, -0.12593625485897064, -0.08758509904146194, -0.18224556744098663, -0.22285151481628418, -0.06760206818580627, 0.08433819562196732, 0.10757184773683548, 0.012778155505657196, 0.1556100994348526, 0.06768816709518433, 0.16967631876468658, 0.19669115543365479, 0.026996294036507607, -0.2526065409183502, -0.06977540999650955, -0.18884949386119843, 0.1338105946779251, -0.1873345673084259, 0.20157338678836823, 0.06384412944316864, 0.14812792837619781, 0.22254891693592072, -0.1785675287246704, 0.2508707344532013, 0.15118463337421417, -0.17775081098079681, -0.08705595135688782, -0.04405493661761284, 0.02793370559811592, -0.2361568808555603, 0.024012668058276176, -0.16942277550697327, -0.129046231508255, -0.043238893151283264, 0.4230439066886902, 0.03296323120594025, 0.09571412205696106, 0.09094458073377609, -0.08456278592348099, -0.22815319895744324, 0.3789914548397064, 0.28911447525024414, 0.22365392744541168, 0.006277626380324364, -0.1623297482728958, -0.24813513457775116, 0.46265608072280884, -0.00017685633793007582, -0.27645304799079895, 0.09140751510858536, 0.006765490863472223, 0.1652785837650299, 0.26899412274360657, -0.17339208722114563, 0.22661258280277252, 0.18304093182086945, 0.18780648708343506, -0.017359275370836258, -0.13290967047214508, -0.2608968913555145, 0.07098806649446487, 0.16403800249099731, 0.24866169691085815, 0.3313685655593872, -0.12705408036708832, 0.17123247683048248, -0.30319178104400635, -0.2269267439842224, 0.14760878682136536, 0.05024125054478645, 0.0032806016970425844, -0.27232447266578674, -0.04134661704301834, -0.4963797926902771, 0.13558141887187958, 0.12652303278446198, -0.20203466713428497, -0.13531266152858734, -0.059414591640233994, -0.095664381980896, 0.23224060237407684, 0.021563095971941948, 0.0026278437580913305, -0.22411248087882996, 0.17213012278079987, -0.1473088264465332, -0.058056365698575974, 0.047358229756355286, 0.052566833794116974, -0.14989903569221497, 0.07697246968746185, -0.2312031090259552, -0.04926126077771187, 0.16810868680477142, 0.026617832481861115, 0.18334417045116425, 0.11143142729997635, -0.23325294256210327, 0.1931186467409134, -0.3804883062839508, 0.3941120207309723, -0.08288729935884476, 0.23109318315982819, 0.1049669161438942, 0.05591927841305733, 0.38106098771095276, 0.05403338000178337, 0.17149977385997772, 0.048593759536743164, 0.34526318311691284, -0.12340433150529861, -0.09403960406780243, -0.21393175423145294, 0.09745047986507416, 0.2526680827140808, -0.0006545533542521298, -0.24448011815547943, -0.1536577194929123, -0.2753068506717682, 0.1111530065536499, 0.2453468292951584, 0.35198163986206055, 0.1463877111673355, 0.23163144290447235, -0.2533339560031891, -0.24052943289279938, -0.12777090072631836, -0.047259941697120667, 0.2538904547691345, 0.26520365476608276, 0.20898734033107758, -0.04605028033256531, -0.26425379514694214, 0.42451798915863037, -0.22836706042289734, -0.11350211501121521, 0.10030362755060196, -0.23414106667041779, -0.41171014308929443, -0.1623782217502594, -0.06712491065263748, -0.18811357021331787, 0.23128490149974823, -0.29731494188308716, 0.26158127188682556, -0.36463165283203125, 0.0922071635723114, -0.18545284867286682, 0.1654461771249771, 0.005275290459394455, 0.20263046026229858, 0.21559803187847137, -0.164842888712883, -0.0475299209356308, 0.011677323840558529, -0.13906995952129364, -0.068929024040699, -0.38683512806892395, -0.29033228754997253, 0.26071813702583313, 0.15427948534488678, 0.02176094986498356, -0.12126466631889343, -0.07627090811729431, 0.22219349443912506, -0.10450088232755661, -0.11898773908615112, -0.1850012093782425, 0.0022179530933499336, 0.016623981297016144, -0.028785323724150658, -0.03804227337241173, 0.19057025015354156, 0.05627075210213661, -0.06568737328052521, 0.22406423091888428, 0.11696793884038925, -0.22088046371936798, -0.19573085010051727, 0.25786688923835754, -0.017632978036999702, -0.16751916706562042, -0.14200478792190552, 0.11463712900876999, -0.16127550601959229, -0.31282392144203186, 0.1991751343011856, -0.21308721601963043, -0.23833146691322327, 0.04114438220858574, 0.06432003527879715, -0.23601584136486053, -0.029440350830554962, -0.0901511013507843, -0.20584113895893097, -0.0731496810913086, -0.14262931048870087, -0.029037736356258392, 0.42582207918167114, 0.0960923433303833, -0.0916658267378807, -0.3492501974105835, -0.2582063376903534, -0.2892012298107147, -0.04283207654953003, -0.18052642047405243, -0.023837976157665253, -0.08382907509803772, -0.21914167702198029, -0.18606583774089813, -0.06296715140342712, 0.29966071248054504, -0.21063847839832306, 0.20756149291992188, 0.33579370379447937, -0.008991953916847706, 0.12732170522212982, 0.016776086762547493, -0.23834092915058136, 0.23082101345062256, -0.02403740957379341, -0.42397138476371765, -0.14018306136131287, -0.265802264213562, -0.2716687023639679, -0.042439013719558716, 0.25336816906929016, 0.02888990193605423, 0.1592870056629181, -0.19163239002227783, -0.17685087025165558, 0.15398980677127838, 0.22547252476215363, -0.014476640149950981, -0.12711462378501892, -0.16257362067699432, -0.1387641280889511, -0.04936501756310463, -0.10654031485319138, 0.12309668958187103, 0.013069597072899342, 0.16067177057266235, -0.34551072120666504, -0.08113940060138702, 0.16089141368865967, 0.459786981344223, 0.10262791812419891, 0.08166491985321045, 0.2155459076166153, -0.00905761867761612, 0.2287805676460266, 0.15410694479942322, 0.21150846779346466, -0.157562255859375, 0.5476500391960144, 0.3829651474952698, 0.08754373341798782, 0.1519814282655716, 0.1918312907218933, -0.23303960263729095, 0.09085504710674286, -0.16271407902240753, -0.12796331942081451, 0.10814610868692398, -0.04758855700492859, -0.10391862690448761, -0.28911083936691284, 0.10985343158245087, -0.14016488194465637, -0.01729501597583294, 0.16313394904136658, 0.08026206493377686, 0.13406777381896973, -0.006750150583684444, 0.2719166874885559, -0.2702018618583679, -0.264210045337677, 0.21850091218948364, -0.17730525135993958, -0.23775643110275269, 0.2652459144592285, -0.30094724893569946, -0.23205628991127014, 0.19550904631614685, -0.04172482341527939, -0.2988027036190033, 0.027764996513724327, -0.27380335330963135, 0.13128888607025146, -0.11019272357225418, -0.26668480038642883, -0.18719585239887238, -0.037908583879470825, 0.35613635182380676, -0.0745820626616478, -0.09829425811767578, 0.24659277498722076, -0.029820309951901436, -0.31240299344062805, 0.15254119038581848, 0.21958647668361664, -0.11269211769104004, -0.09320316463708878, -0.041010648012161255, -0.1279619038105011, 0.03469577431678772, -0.02159791626036167, -0.08915320783853531, 0.3374776840209961, 0.28064852952957153, -0.33810776472091675, 0.22864191234111786, -0.12837812304496765, -0.1779244840145111, -0.22780312597751617, 0.1478031575679779, 0.1804375797510147, 0.39375823736190796, 0.04916880279779434, -0.0728275254368782, 0.1983472853899002, -0.09435121715068817, -0.3377097249031067, 0.2107812613248825, -0.3585493564605713, 0.31400731205940247, -0.07496491819620132, -0.08483362942934036, 0.027165399864315987, 0.20896229147911072, 0.29145196080207825, 0.30836671590805054, -0.18905015289783478, 0.24518179893493652, -0.05646403506398201, -0.13872042298316956, -0.08937836438417435, -0.21025678515434265, 0.3330290913581848, 0.26835599541664124, -0.09045331180095673, 0.2757934033870697, -0.015487453900277615, 0.0366831049323082, 0.3228116035461426, -0.12632152438163757, 0.3559122681617737, -0.06985166668891907, 0.2853046655654907, -0.1348394751548767, -0.0063946666195988655, 0.05153559148311615, 0.19932344555854797, -0.2087741643190384, 0.13239984214305878, -0.05453566461801529, 0.4187484681606293, 0.270231693983078, 0.16954387724399567, 0.08609260618686676, -0.10662060230970383, 0.3321918249130249, 0.17525281012058258, -0.06052800640463829, 0.06118183210492134, 0.2176733911037445, 0.02629689872264862, 0.018287137150764465, 0.06832531839609146, -0.2469959259033203, 0.2376106083393097, -0.09027573466300964, -0.3427460193634033, 0.12982651591300964, 0.4645885229110718, 0.03469281271100044, -0.3596705496311188, 0.4298068583011627, -0.2910137474536896, -0.4065682590007782, -0.24664868414402008, -0.038116514682769775, -0.12535043060779572, -0.4078710079193115, 0.17459312081336975, 0.14677037298679352, 0.11965499073266983, -0.049479078501462936, 0.23901107907295227, 0.20605546236038208, -0.3622833788394928, 0.007432034704834223, 0.2035428285598755, -0.1231725886464119, 0.05955253541469574, 0.17845284938812256, -0.19130341708660126, 0.20115035772323608, -0.11789719015359879, -0.02442919835448265, -0.05529148504137993, -0.18515649437904358, -0.21814103424549103, 0.12968389689922333, -0.1734056919813156, 0.15682180225849152, 0.29032063484191895, -0.12535330653190613, 0.048818618059158325, 0.11793060600757599, 0.07610520720481873, -0.22445783019065857, 0.13304060697555542, 0.10448352247476578, -0.2773626744747162, 0.15249605476856232, -0.3435707688331604, 0.5144327878952026, 0.01906033791601658, -0.216790571808815, 0.24286693334579468, -0.020804839208722115, 0.004514854401350021, 0.2480647712945938, 0.08660991489887238, -0.18852169811725616, 0.1705034375190735, -0.053618643432855606, 0.07361483573913574, -0.08207016438245773, 0.10046346485614777, -0.03608286753296852, 0.20100924372673035, 0.2789243161678314, 0.12642517685890198, -0.17462827265262604, 0.05300389602780342, 0.1497965008020401, -0.17994755506515503, 0.3760125935077667, -0.05374430492520332, -0.049893658608198166, 0.00078316789586097, 0.00866694375872612, 0.2963560223579407, 0.08377593010663986, -0.24488238990306854, -0.1621830016374588, 0.0343722440302372, 0.2069217711687088, -0.10819925367832184, -0.031337302178144455, 0.14514021575450897, -0.18708518147468567, -0.2699793875217438, -0.23335441946983337, -0.24335774779319763, 0.21373265981674194, -0.07589659094810486, 0.0639219582080841, 0.13956278562545776, -0.16535809636116028, -0.06848200410604477, -0.25970175862312317, -0.021239126101136208, -0.19919723272323608, -0.12804847955703735, -0.17271481454372406, 0.10745862126350403, -0.24907509982585907, 0.2735588550567627, -0.23345796763896942, -0.02586725354194641, -0.08529098331928253, 0.18826919794082642, -0.05202484130859375, 0.265846312046051, -0.18835604190826416, 0.18179570138454437, -0.08014260232448578, 0.07938559353351593, -0.066463403403759, -0.159354105591774, -0.12699799239635468, -0.09947891533374786, -0.06417257338762283, 