{"input_len": 256, "embed_dim": 32, "n_features": 8, "pool": "mean_std", "convs": [{"in": 1, "out": 16, "k": 7, "stride": 2, "pad": 3, "weight": [-1.0279244184494019, -0.292959988117218, -0.774972140789032, -0.3092871904373169, -0.3160160183906555, 0.30386465787887573, -0.22434565424919128, 1.0246750116348267, -0.3702468276023865, -1.0330851078033447, 0.6825501918792725, 1.1262425184249878, -0.06483419984579086, 1.121830940246582, 2.8748373985290527, -4.208468914031982, 1.5342015027999878, 2.7879862785339355, 2.9428951740264893, 3.909370183944702, -9.696267127990723, -0.623700737953186, 1.6784802675247192, -1.2094300985336304, -1.813913106918335, 0.2348218709230423, 1.7169888019561768, 2.349442720413208, 1.3290231227874756, 0.6658028364181519, -1.1140002012252808, 0.9522566199302673, -0.40119072794914246, 0.5678468346595764, 0.28726062178611755, -2.962355375289917, 3.1845924854278564, -6.134910583496094, 4.707447052001953, -3.9189555644989014, 3.5612380504608154, 3.377272844314575, -0.16617195308208466, -0.5371885895729065, -0.7732899785041809, -0.5648988485336304, -0.6228679418563843, -0.5148012638092041, 0.7139952778816223, -0.560767412185669, 1.1212787628173828, 4.9662981033325195, -3.398667812347412, 1.4855188131332397, 2.7724609375, -4.476394176483154, -3.3273940086364746, -3.3610165119171143, -0.6104041934013367, 6.522986888885498, -3.8787612915039062, 4.172877788543701, 0.6190162301063538, -1.5085008144378662, 0.43463048338890076, -1.3048346042633057, -0.7692149877548218, -0.263480544090271, -0.3059958815574646, 1.2316217422485352, 0.47781047224998474, 0.9292080998420715, -1.0589042901992798, 1.2597448825836182, -0.5031149387359619, 0.6591120958328247, 0.7902341485023499, -1.124243140220642, -0.22671493887901306, -0.8423916697502136, -1.5123785734176636, -0.858246386051178, 0.9940938949584961, 1.1456915140151978, -2.304729700088501, -1.6208300590515137, 2.4883294105529785, 2.971928358078003, 1.7071635723114014, 2.368957996368408, -3.7312982082366943, -0.38678374886512756, -2.7502338886260986, 2.6459569931030273, 2.03320050239563, 1.7472262382507324, 0.6961071491241455, -1.7953041791915894, 1.1188243627548218, 0.8946702480316162, 0.4977428913116455, 0.49291813373565674, 0.007510275114327669, -0.3763648271560669, -0.1499800831079483, -4.466866493225098, -0.4452756643295288, -0.48667722940444946, 2.9261302947998047, 2.588468074798584, -4.982631206512451, 5.997103214263916], "bias": [0.8410531878471375, -0.8339958190917969, -0.09262728691101074, -0.7624751329421997, -0.7370632886886597, -0.5512300133705139, 0.7501131296157837, -0.6323909759521484, -0.08753638714551926, 0.7536201477050781, -0.9005387425422668, 0.7608582377433777, -0.6382131576538086, -0.7547789216041565, -0.7497984170913696, -0.421001136302948]}, {"in": 16, "out": 32, "k": 5, "stride": 2, "pad": 2, "weight": [-0.014657683670520782, 0.026510540395975113, -0.08080718666315079, -0.07973210513591766, 0.08167047053575516, -0.008805482648313046, -0.09314846992492676, -0.04697021096944809, 0.011556538753211498, 0.07269055396318436, 0.05439736321568489, -0.08351105451583862, -0.015965579077601433, 0.1007026880979538, -0.024841533973813057, -0.11406377702951431, 0.07878615707159042, 0.008370666764676571, -0.09245077520608902, 0.010122101753950119, -0.022242743521928787, -0.07058601826429367, -0.1063554435968399, -0.01573220081627369, 0.07280882447957993, 0.0105831827968359, -0.0881044939160347, 0.04897945001721382, 0.05436593294143677, -0.08972656726837158, 0.03213782235980034, 0.0831737369298935, -0.04519668221473694, -0.06575988978147507, 0.06412947177886963, -0.13749127089977264, -0.09801613539457321, -0.10411673784255981, -0.04966495931148529, -0.04499081149697304, -0.048735931515693665, -0.01744280755519867, 0.04229570925235748, -0.0068225860595703125, -0.0564047172665596, -0.01179955992847681, -0.08548717945814133, 0.07303105294704437, -0.06140834093093872, 0.005580938421189785, -0.04519067332148552, -0.11522715538740158, -0.051035843789577484, -0.09892893582582474, -0.006423139479011297, -0.04236603155732155, -0.024546930566430092, 0.05600117892026901, 0.03515778109431267, -0.07986578345298767, -0.1561967432498932, -0.029560206457972527, -0.06702152639627457, 0.07174713164567947, 0.04561430960893631, -0.026926254853606224, -0.06050096079707146, -0.09225316345691681, 0.0018756240606307983, 0.005511915776878595, -0.049008555710315704, -0.11743734031915665, 0.025236545130610466, -0.09186431020498276, 0.023003442212939262, 0.06834439933300018, 0.04531347006559372, -0.07262544333934784, -0.04006044194102287, -0.048225872218608856, 0.07439947873353958, 0.15485960245132446, 0.10563056915998459, 0.0831896960735321, -0.08299097418785095, -0.1332351416349411, 0.12472765147686005, 0.053315553814172745, -0.12245814502239227, 0.08395540714263916, -0.08231878280639648, 0.044478889554739, 0.0732152983546257, 0.13305747509002686, 0.18753637373447418, 0.18148425221443176, -0.20257672667503357, -0.26505303382873535, -0.1487748622894287, 0.02128157950937748, 0.04431023821234703, -0.0427805595099926, 0.10784123837947845, 0.15731339156627655, -0.05975397676229477, -0.1723070591688156, -0.2424619495868683, -0.17146305739879608, -0.08000663667917252, -0.21569719910621643, 0.19181762635707855, 0.01421141903847456, -0.15675047039985657, 0.01607290655374527, 0.036635901778936386, -0.1752675175666809, -0.04874146729707718, -0.0400448776781559, 0.17854078114032745, -0.0054340362548828125, -0.1568710058927536, -0.1505856215953827, 0.06196543201804161, -0.2378319352865219, 0.12786130607128143, -0.11754011362791061, 0.1814088523387909, 0.022622093558311462, 0.11231614649295807, -0.07623086869716644, -0.008475053124129772, 0.04535849019885063, -0.009519889950752258, 0.02305346541106701, -0.16196320950984955, -0.03807753697037697, 0.10671555995941162, -0.07669567316770554, 0.1542797088623047, 0.04646285995841026, -0.11569519340991974, 0.21324758231639862, 0.06904954463243484, -0.1739659309387207, -0.09911356121301651, 0.2413073033094406, 0.020629240199923515, 0.10707543045282364, -0.18022578954696655, 0.14658959209918976, 0.004373588133603334, -0.05224791169166565, 0.05156106501817703, 0.14947615563869476, 0.15272828936576843, -0.03955328091979027, -0.2691532373428345, 0.1023179367184639, -0.19995594024658203, 0.10468825697898865, -0.09996091574430466, 0.1713700145483017, -0.0504789836704731, 0.22010917961597443, -0.20855821669101715, -0.06925345212221146, -0.21607136726379395, 0.3493073582649231, -0.263465017080307, 0.21152211725711823, 0.030086737126111984, -0.21975241601467133, -0.12979692220687866, -0.09373567998409271, 0.21392196416854858, -0.23450621962547302, 0.22188594937324524, -0.155719593167305, 0.18143410980701447, 0.1835041046142578, 0.2980791926383972, 0.19409722089767456, 0.07787664234638214, -0.13389652967453003, 0.18748842179775238, 0.061224326491355896, 0.3058091700077057, 0.19048205018043518, -0.08081014454364777, -0.32924142479896545, 0.25626683235168457, -0.10637060552835464, 0.2871951162815094, 0.3041255474090576, 0.05028152093291283, 0.023418134078383446, -0.18586839735507965, 0.2657535970211029, -0.11492428183555603, -0.08950965106487274, -0.14791515469551086, 0.24515584111213684, -0.3474692404270172, 0.003346092998981476, 0.3466549217700958, -0.28825104236602783, 0.11815410852432251, 0.16580577194690704, 0.3506280183792114, 0.1704302877187729, -0.21883107721805573, -0.272833913564682, 0.0698847621679306, 0.13455644249916077, 0.24463555216789246, 0.13304771482944489, 0.05743366852402687, 0.32010918855667114, 0.20288047194480896, 0.0068932631984353065, 0.3034583628177643, -0.20253992080688477, 0.09129034727811813, -0.0027962427120655775, -0.28350019454956055, -0.17777030169963837, 0.07399290055036545, -0.23107469081878662, -0.21635659039020538, 0.11994415521621704, -0.17625437676906586, 0.18181148171424866, -0.21164515614509583, -0.042645957320928574, 0.3344249725341797, -0.16478905081748962, 0.269050657749176, -0.17701558768749237, 0.04781695455312729, -0.2709308862686157, 0.1445058435201645, 0.05202793702483177, 0.4015205502510071, -0.07260971516370773, 0.017198912799358368, 0.07805894315242767, -0.12448710948228836, 0.007630112115293741, -0.2700831890106201, -0.18860182166099548, 0.1590288132429123, 0.2006867527961731, -0.24415355920791626, 0.29728466272354126, 0.037343502044677734, -0.16998961567878723, 0.27085015177726746, -0.20080582797527313, 0.057749614119529724, -0.38902747631073, 0.40230369567871094, -0.09365730732679367, 0.24497361481189728, 0.1749270111322403, -0.09206666052341461, -0.014940525405108929, -0.12799212336540222, 0.03023715503513813, -0.13315439224243164, -0.3145758807659149, -0.11139818280935287, -0.07759124040603638, 0.2948025166988373, -0.2534995675086975, 0.1225915253162384, 0.142938494682312, 0.35870373249053955, 0.21517935395240784, 0.05727768689393997, -0.0373397022485733, 0.23519350588321686, -0.016077114269137383, 0.13888667523860931, 0.11313410848379135, 0.2243611365556717, 0.049200426787137985, 0.3518517017364502, -0.1397608518600464, -0.080666683614254, 0.06647922843694687, 0.3656166195869446, 0.12882423400878906, 0.2772976756095886, -0.3176017105579376, -0.24863293766975403, 0.09972043335437775, -0.16798947751522064, 0.2880694568157196, -0.1365126371383667, 0.12316139042377472, 0.3581109046936035, 0.08366895467042923, -0.23097476363182068, 0.00823222566395998, -0.3158552944660187, 0.0332057848572731, 0.04487774148583412, -0.152882918715477, 0.18064333498477936, -0.06777545064687729, 0.08261211216449738, 0.3519291877746582, 0.014093120582401752, -0.049014151096343994, 0.1429104506969452, 0.07346546649932861, -0.2967795729637146, -0.1514873057603836, 0.15149031579494476, 0.177228182554245, -0.09634697437286377, -0.010448263958096504, -0.10287981480360031, 0.14147482812404633, 0.1228700503706932, 0.24690094590187073, -0.004071722738444805, -0.0763193890452385, -0.2503998875617981, -0.1434643715620041, -0.04322543740272522, -0.05345475673675537, 0.36663806438446045, 0.23871730268001556, 0.34984856843948364, 0.1627107709646225, 0.09098303318023682, -0.08920031785964966, -0.13567422330379486, 0.06613876670598984, -0.03217529132962227, 0.13913936913013458, 0.10523673892021179, -0.058071430772542953, -0.1994953453540802, 0.13120613992214203, -0.20155315101146698, -0.13634511828422546, 0.06844619661569595, -0.04413888603448868, 0.09642507135868073, -0.03868842124938965, 0.2185792177915573, -0.10730059444904327, -0.10281211882829666, -0.17488940060138702, -0.04900224879384041, 0.29166364669799805, 0.30108898878097534, 0.23500342667102814, 0.00938915554434061, 0.004285277333110571, -0.2123340666294098, -0.2361903190612793, 0.12591415643692017, 0.23607583343982697, 0.13746164739131927, 0.17876388132572174, -0.0939415767788887, -0.03585044667124748, 0.14702308177947998, 0.07214365899562836, -0.24109815061092377, 0.05809706449508667, 0.15128760039806366, 0.01469019241631031, 0.19439706206321716, -0.12790091335773468, -0.18633030354976654, 0.22215555608272552, 0.04831434786319733, 0.23659156262874603, 0.030071642249822617, 0.1801706850528717, 0.0952005386352539, 0.08092161267995834, 0.1731354296207428, -0.08770861476659775, -0.12953613698482513, -0.11561118811368942, 0.20060181617736816, -0.15655314922332764, 0.01789822243154049, -0.14533643424510956, -0.12643668055534363, 0.18790759146213531, 0.059232525527477264, -0.15504932403564453, 0.22506166994571686, -0.10155531764030457, -0.016193896532058716, -0.06270009279251099, 0.06145123764872551, 0.01695479080080986, -0.1166909784078598, -0.04932772368192673, -0.06690608710050583, -0.11353868246078491, 0.07587099075317383, -0.04093099385499954, 0.20498083531856537, -0.0998971089720726, -0.1203853115439415, -0.20603403449058533, -0.15057945251464844, -0.27919650077819824, 0.1037023589015007, 0.13502782583236694, 0.058372776955366135, -0.11985448002815247, 0.10898631066083908, 0.12534160912036896, -0.061362117528915405, 0.17502491176128387, -0.04011707007884979, -0.20386944711208344, 0.17825531959533691, 0.004328821320086718, 0.03607267513871193, 0.13566847145557404, -0.13319434225559235, -0.09949655830860138, -0.21163330972194672, 0.17269393801689148, -0.12567567825317383, 0.271822065114975, 0.17997822165489197, -0.19919730722904205, -0.09382941573858261, -0.1385352611541748, -0.13081879913806915, 0.002912464551627636, -0.1653262972831726, -0.19477009773254395, -0.03015800379216671, -0.09580279886722565, -0.207469180226326, 0.11452071368694305, -0.10561250150203705, -0.1639138162136078, -0.1743517816066742, -0.1964130699634552, -0.11044201254844666, 0.034620970487594604, 0.17317558825016022, 0.048122018575668335, -0.12221398204565048, -0.04734696075320244, -0.17635798454284668, -0.16750523447990417, 0.11025338619947433, -0.3094468116760254, -0.1471938043832779, 0.09357640892267227, 0.08211234211921692, -0.14962412416934967, -0.202627032995224, -0.3556946814060211, -0.03548197075724602, 0.21305420994758606, -0.10127352178096771, -0.019815944135189056, -0.1481684148311615, 0.039437610656023026, -0.14946626126766205, 0.20862865447998047, -0.18954654037952423, -0.16446469724178314, -0.23683129251003265, -0.1584484726190567, -0.12928879261016846, 0.27274563908576965, -0.08210459351539612, 0.11179469525814056, 0.2658438980579376, -0.22392843663692474, 0.14930236339569092, -0.07511457055807114, -0.12851451337337494, 0.35640454292297363, 0.01017118152230978, 0.2298225313425064, 0.2738167345523834, -0.06709273159503937, -0.1909247487783432, 0.20356321334838867, 0.10242535918951035, 0.3193773627281189, -0.05814793333411217, 0.35103923082351685, -0.003494464559480548, -0.19276970624923706, 0.25598031282424927, -0.13901790976524353, -0.12348756939172745, 0.22442984580993652, 0.3118249177932739, 0.08771593123674393, 0.2059902399778366, 0.07866336405277252, 0.09762182831764221, 0.14360134303569794, -0.05774863809347153, 0.06271414458751678, 0.10911154001951218, 0.07639948278665543, 0.03602300211787224, 0.04816608130931854, -0.271688848733902, 0.23618455231189728, -0.06823045760393143, -0.1523628532886505, -0.06371279805898666, 0.05710771307349205, 0.2247549593448639, 0.2445983588695526, -0.20679785311222076, 0.11009226739406586, 0.2972627282142639, 0.10084830969572067, -0.11197909712791443, -0.02995140105485916, 0.11796510964632034, -0.02622869797050953, 0.21773028373718262, -0.03948599100112915, 0.017290130257606506, 0.03402958810329437, 0.19120223820209503, 0.08452153950929642, -0.26116013526916504, -0.17489533126354218, -0.010515661910176277, 0.13488441705703735, 0.20700396597385406, -0.24424223601818085, 0.05439995229244232, -0.16702647507190704, 0.021865224465727806, 0.28749167919158936, -0.01208789274096489, -0.04165142402052879, -0.08077302575111389, 0.09570565819740295, 0.2593202590942383, 0.117629274725914, -0.054196782410144806, -0.16132080554962158, 0.23842787742614746, -0.037271980196237564, 0.19457988440990448, 0.029967375099658966, -0.025527318939566612, -0.05856584385037422, -0.15541735291481018, 0.07981747388839722, 0.09241095930337906, -0.03078792616724968, 0.010805060155689716, -0.2501102089881897, -0.24098554253578186, -0.16390269994735718, -0.11858092248439789, 0.0690959021449089, 0.23613139986991882, -0.02914915606379509, 0.013141832314431667, -0.08773227781057358, -0.16614997386932373, -0.1548607349395752, -0.17057201266288757, 0.038301631808280945, 0.1578933596611023, 0.010047653689980507, -0.050396546721458435, 0.031704552471637726, -0.05165548250079155, 0.1355002373456955, -0.148127019405365, 0.10976143926382065, -0.13756118714809418, 0.0016473947325721383, -0.16064463555812836, 0.10193638503551483, -0.19616670906543732, -0.0691009908914566, -0.06348001211881638, 0.1438198685646057, -0.05778079107403755, 0.2006852924823761, -0.011364766396582127, 0.255034863948822, 0.2507401406764984, 0.0020454847253859043, -0.10490679740905762, -0.13903871178627014, 0.0829397588968277, -0.045339733362197876, 0.12748704850673676, -0.09089931100606918, 0.008319778367877007, -0.12187203019857407, -0.20142380893230438, -0.014041034504771233, -0.061831384897232056, -0.08487872034311295, -0.09179436415433884, 0.10796573013067245, -0.16352452337741852, -0.12530836462974548, -0.14047351479530334, -0.08171802759170532, -0.05546090006828308, 0.1520366072654724, -0.194240003824234, 0.15729719400405884, -0.06227313354611397, 0.18291305005550385, 0.0978856235742569, -0.24906261265277863, -0.07080691307783127, -0.14502814412117004, -0.14335937798023224, -0.11218485981225967, -0.15276139974594116, -0.1302744448184967, -0.20324130356311798, -0.15028196573257446, -0.17824363708496094, 0.04696384072303772, -0.32166048884391785, -0.15784293413162231, -0.13228049874305725, 0.3328348696231842, 0.31503838300704956, -0.0029857484623789787, 0.1773919314146042, -0.13283099234104156, -0.2591148316860199, -0.2904908359050751, 0.4529000222682953, 0.13583211600780487, 0.07996891438961029, -0.38680070638656616, -0.29887500405311584, -0.01767670176923275, -0.033772408962249756, 0.18972676992416382, -0.2833807170391083, -0.18696776032447815, -0.07826551795005798, -0.01647827960550785, 0.17338725924491882, 0.15337947010993958, 0.16259397566318512, 0.21280105412006378, -0.2582216262817383, -0.26606395840644836, -0.10954451560974121, -0.015059155412018299, -0.022609949111938477, -0.16748479008674622, 0.3247552514076233, 0.20893365144729614, 0.35979753732681274, 0.2465127557516098, 0.2880045771598816, 0.04854432865977287, -0.012272530235350132, -0.12830772995948792, -0.3794941008090973, -0.0771327093243599, 0.22377026081085205, -0.001339807640761137, 0.262630432844162, -0.2544831931591034, -0.20296241343021393, -0.1869938224554062, 0.3115643560886383, -0.1485804319381714, -0.12995442748069763, 0.09217078983783722, -0.006070435047149658, 0.030295927077531815, -0.058238960802555084, -0.024143293499946594, -0.2811908423900604, 0.06594981998205185, 0.31288793683052063, 0.11205907166004181, -0.24407701194286346, -0.21770845353603363, 0.15064853429794312, 0.03383674472570419, 0.12375343590974808, -0.28245437145233154, 0.15968221426010132, 0.17741228640079498, 0.009147977456450462, -0.023774247616529465, 0.09572882950305939, 0.30399543046951294, -0.13391581177711487, -0.18116746842861176, 0.2422831952571869, 0.159804567694664, -0.12166310846805573, -0.1318366825580597, 0.029450103640556335, 0.16798648238182068, 0.18654438853263855, 0.02043640986084938, -0.006059917621314526, 0.25035589933395386, 0.24840325117111206, 0.20865456759929657, 0.05310976877808571, -0.036700326949357986, -0.0593825988471508, 0.1003807932138443, 0.010062791407108307, -0.07832290977239609, -0.11827001720666885, -0.1554899960756302, -0.09788355976343155, 0.25148844718933105, -0.09090504795312881, -0.1270417720079422, 0.0827094167470932, -0.15426304936408997, 0.10665974766016006, 0.03127029165625572, 0.1397784948348999, -0.01012528408318758, 0.16071857511997223, 0.031211556866765022, 0.1829955279827118, -0.13125912845134735, -0.20108062028884888, -0.1700323522090912, -0.011442345567047596, 0.17292563617229462, -0.027331672608852386, -0.03504793718457222, -0.018938692286610603, 0.03395676612854004, 0.07243742048740387, 0.05946841090917587, 0.15497986972332, 0.17824168503284454, 0.0649661123752594, 0.0034741649869829416, -0.017682813107967377, 0.06961162388324738, 0.0018270298605784774, 0.10355448722839355, 0.025228707119822502, 0.20059870183467865, -0.0523107573390007, 4.638733298634179e-05, 0.11233913898468018, 0.1433943808078766, 0.15783968567848206, 0.20531386137008667, -0.029645251110196114, 0.10137128084897995, 0.003389387158676982, 0.06872420758008957, 0.08016663789749146, 0.1788070797920227, 0.11125512421131134, 0.06785352528095245, 0.09445565193891525, 0.028780069202184677, -0.006246877368539572, 0.010804779827594757, 0.1841898411512375, 0.0060353451408445835, 0.2197071760892868, 0.15646211802959442, -0.016451949253678322, 0.0896444246172905, -0.04210818558931351, 0.04002712294459343, -0.11523782461881638, 0.20331531763076782, 0.05433456227183342, 0.10771084576845169, 0.10233401507139206, -0.19139432907104492, 0.0029041850939393044, -0.05040109157562256, 0.057432621717453, 0.17695969343185425, -0.023989716544747353, -0.004980775061994791, 0.014688394963741302, 0.05115937814116478, 0.23772580921649933, -0.17566971480846405, -0.015368019230663776, 0.020556539297103882, 0.07747473567724228, -0.21538414061069489, 0.20917367935180664, 0.05393633618950844, 0.21437478065490723, -0.21815092861652374, -0.19411756098270416, 0.10228516906499863, 0.13503342866897583, 0.18290270864963531, 0.05413147062063217, -0.1795358806848526, 0.16739732027053833, -0.183387890458107, -0.27705931663513184, 0.007418210152536631, 0.17945575714111328, 0.2921890914440155, -0.08163607865571976, 0.1831507831811905, 0.1890685260295868, 0.17665576934814453, -0.1664697825908661, 0.24790914356708527, -0.06340363621711731, -0.16754932701587677, 0.08602473884820938, -0.10014499723911285, -0.01593719609081745, -0.14251333475112915, -0.03741808608174324, 0.21204009652137756, 0.11499693989753723, -0.05976661667227745, 0.05973085016012192, -0.007461692206561565, -0.026705298572778702, -0.22305281460285187, 0.08252779394388199, -0.14565454423427582, 0.005187127739191055, 0.1564033180475235, -0.14758072793483734, -0.22387905418872833, -0.13897031545639038, 0.12739107012748718, -0.06681069731712341, -0.2566618323326111, -0.029579903930425644, -0.04912974685430527, -0.2748919427394867, -0.030691051855683327, 0.0916348472237587, -0.07437687367200851, -0.14437589049339294, 0.06488119810819626, -0.07856830209493637, 0.056449539959430695, 0.13379979133605957, 0.2766447365283966, -0.058917198330163956, 0.15987738966941833, -0.08931279927492142, -0.0851062536239624, -0.34697508811950684, -0.1488700658082962, 0.12496502697467804, 0.19607952237129211, 0.010776585899293423, -0.05045332759618759, 0.0698549821972847, 0.07036526501178741, 0.15855161845684052, -0.12922394275665283, -0.11526497453451157, 0.06966876238584518, -0.008074582554399967, -0.05291588604450226, -0.05363044887781143, -0.24890397489070892, 0.15078632533550262, -0.06312180310487747, -0.09173445403575897, 0.01396821066737175, 0.14252829551696777, 0.12319177389144897, 0.17545625567436218, 0.22431443631649017, -0.000673549366183579, -0.17768679559230804, -0.038894347846508026, 0.10152983665466309, -0.07343992590904236, -0.12002160400152206, -0.0013388253282755613, 0.10069719702005386, 0.17935708165168762, 0.018682265654206276, -0.06803860515356064, -0.059686534106731415, 0.08622728288173676, -0.01909733936190605, 0.22890301048755646, -0.10797736048698425, -0.0861767902970314, -0.28040099143981934, 0.08653035759925842, -0.05118422210216522, -0.04694641754031181, -0.006797796580940485, 0.1115172952413559, -0.03880685940384865, -0.07888728380203247, -0.2356601506471634, 0.08417684584856033, -0.17501088976860046, 0.13234420120716095, 0.10344534367322922, -0.07461902499198914, -0.15492375195026398, 0.07223159819841385, 0.05156118422746658, 0.1002962589263916, -0.22551657259464264, -0.19302594661712646, 0.18011552095413208, 0.15771795809268951, 0.17574651539325714, 0.05591823160648346, -0.27518317103385925, 0.17686811089515686, 0.08643040060997009, -0.057245273143053055, 0.05640160292387009, -0.10381314158439636, 0.15756885707378387, 0.21224288642406464, 0.05368851497769356, -0.23079131543636322, 0.13719572126865387, -0.19421640038490295, -0.10146018862724304, -0.0074632358737289906, -0.13741430640220642, -0.11620991677045822, 0.07966712862253189, 0.20007166266441345, 0.019384538754820824, 0.021417297422885895, -0.018288196995854378, -0.02550024911761284, 0.05742432177066803, -0.010420423932373524, -0.08346982300281525, -0.09019032120704651, -0.057356011122465134, -0.007093373220413923, -0.08134467899799347, 0.0072586433961987495, -0.00923402700573206, -0.0033549456857144833, 0.06478272378444672, 0.007972837425768375, -0.0005672344705089927, -0.0494539849460125, -0.056764423847198486, -0.0798010528087616, -0.04730008542537689, -0.0009780159452930093, -0.012512121349573135, -0.017950404435396194, -0.04324815049767494, 0.0061147636733949184, 0.03283216059207916, -0.01274055428802967, 0.04084491357207298, 0.01780056022107601, 0.035024940967559814, -0.002869505202397704, 0.04298939183354378, 0.03542935475707054, 0.06064252555370331, 0.01765812560915947, -0.07165728509426117, -0.024177812039852142, -0.08610552549362183, 0.024666273966431618, -0.04932055622339249, 0.009583600796759129, 0.010665247216820717, 0.03719045966863632, 0.07057911902666092, -0.018292304128408432, -0.03066512756049633, -0.05920863524079323, 0.06572819501161575, -0.05013413727283478, -0.040575429797172546, 0.0005189049988985062, -0.05339169129729271, -0.07505139708518982, -0.04541674256324768, -0.06678811460733414, 0.021026086062192917, -0.0189523808658123, -0.045585229992866516, 0.028113311156630516, -0.02019205130636692, -0.10578147321939468, -0.03250763565301895, -0.030292874202132225, -0.07032915204763412, -0.05364501103758812, -0.016961725428700447, -0.07556857168674469, -0.03126652538776398, -0.08259017020463943, 0.03321555629372597, -0.05578712001442909, -0.07211035490036011, 0.0001808948436519131, -0.05832111835479736, -0.07749427109956741, 0.05014392361044884, -0.07574955374002457, 0.036782000213861465, 0.06649481505155563, -0.0573427714407444, 0.1518479436635971, -0.09793569147586823, 0.053145334124565125, -0.1776716560125351, -0.2322213351726532, 0.03103145770728588, 0.1432746946811676, -0.10892720520496368, -0.1504129320383072, -0.10858944058418274, -0.18693746626377106, -0.04167201742529869, -0.15788142383098602, 0.05004694312810898, 0.3026263415813446, -0.09831731766462326, 0.11888255178928375, -0.1615457534790039, 0.03359859064221382, -0.16631408035755157, -0.06993240118026733, 0.17009402811527252, -0.05530794337391853, -0.0919957235455513, -0.1309834122657776, -0.20799069106578827, 0.09731199592351913, -0.16640226542949677, 0.1619330644607544, -0.18893755972385406, 0.05314050614833832, 0.13505205512046814, -0.14903807640075684, -0.09797819703817368, -0.22013865411281586, -0.21182182431221008, -0.14212557673454285, -0.020192641764879227, 0.1921112835407257, 0.07818491756916046, 0.15844093263149261, -0.15266506373882294, 0.03995672985911369, 0.09805484116077423, -0.10594376921653748, -0.21398583054542542, 0.04481446370482445, 0.0717603862285614, 0.11945464462041855, -0.009725909680128098, 0.010107162408530712, -0.03406129777431488, 0.046250950545072556, -0.10436075925827026, 0.04050073400139809, 0.04905669763684273, -0.03793657198548317, 0.12219157069921494, 0.1169428676366806, -0.1697472780942917, -0.16985107958316803, 0.01690763607621193, 0.08226855099201202, -0.0964062288403511, -0.0338389128446579, 0.1383129209280014, -0.08134105056524277, 0.11109374463558197, -0.18258610367774963, 0.05625754967331886, -0.12247870117425919, -0.04034276679158211, 0.06579281389713287, 0.15155917406082153, -0.14102405309677124, -0.1430267095565796, 0.09153451025485992, -0.14215318858623505, -0.09540686756372452, -0.16112343966960907, 0.3331878185272217, -0.12623794376850128, 0.2006947547197342, 0.30476710200309753, 0.10788401961326599, 0.2620374858379364, 0.15067434310913086, -0.15248936414718628, 0.09281112998723984, 0.20043285191059113, 0.10290814191102982, -0.19982324540615082, 0.18713310360908508, -0.13934649527072906, 0.21045343577861786, -0.055800773203372955, 0.03512242063879967, 0.024369562044739723, 0.0604557991027832, -0.17186366021633148, -0.02301732450723648, -0.024017946794629097, -0.1518266648054123, 0.25041887164115906, 0.021335536614060402, 0.10224303603172302, -0.19111844897270203, -0.06987012922763824, -0.24531079828739166, -0.16374774277210236, 0.26382067799568176, 0.12871365249156952, 0.0519026517868042, 0.04086010903120041, 0.1866350769996643, 0.1771300584077835, 0.07954978942871094, 0.32867637276649475, 0.1437675505876541, 0.22389020025730133, 0.04266779124736786, 0.0702519342303276, 0.2207278609275818, 0.21243397891521454, -0.1559695601463318, -0.06109984591603279, 0.07976260036230087, 0.24051357805728912, 0.02610514499247074, 0.3182206451892853, 0.17625655233860016, -0.11476336419582367, 0.2990931272506714, 0.10127801448106766, 0.2915670871734619, 0.017399024218320847, 0.10255195200443268, -0.08721326291561127, 0.20296147465705872, 0.3042784631252289, -0.11423730105161667, 0.24531419575214386, 0.2879351079463959, 0.005627958569675684, -0.019783908501267433, 0.178587406873703, -0.027480408549308777, 0.009606605395674706, 0.16960793733596802, 0.04870312660932541, 0.12697449326515198, 0.03939945995807648, 0.1675170660018921, -0.07315643876791, 0.10022202134132385, -0.12036836892366409, 0.006466224789619446, -0.06195405498147011, -0.22488924860954285, -0.1987188756465912, 0.1647515445947647, -0.250495970249176, -0.030217017978429794, -0.29954785108566284, 0.06663496792316437, -0.24534644186496735, -0.10853605717420578, -0.03130421042442322, -0.27181658148765564, -0.19836373627185822, 0.3543986678123474, 0.17566707730293274, -0.329444020986557, -0.18454638123512268, 0.24961571395397186, 0.2636703848838806, -0.16963140666484833, 0.18435481190681458, -0.03463595733046532, -0.23675735294818878, -0.2334607094526291, -0.16402485966682434, -0.13020548224449158, -0.1050398126244545, 0.2482047826051712, -0.13588204979896545, 0.3251076340675354, -0.19082477688789368, -0.3191663324832916, 0.12227696925401688, 0.21879206597805023, -0.14184388518333435, -0.32156869769096375, -0.02153986319899559, -0.1318095177412033, -0.25508570671081543, 0.12357015907764435, -0.06514625996351242, 0.2244197279214859, -0.11269748210906982, 0.2816190719604492, 0.06569378077983856, 0.21160903573036194, -0.3476511538028717, 0.03299959376454353, 0.001932954997755587, -0.06321818381547928, 0.16153153777122498, -0.11395705491304398, -0.24099071323871613, -0.11962908506393433, -0.24891135096549988, 0.2983587980270386, -0.13931162655353546, 0.12658335268497467, -0.19665221869945526, -0.296904981136322, -0.20175133645534515, -0.0857497975230217, 0.09425072371959686, 0.22565177083015442, -0.0006696840282529593, -0.18719014525413513, -0.02503112144768238, -0.1112961396574974, -0.20351377129554749, 0.2692737579345703, -0.026755154132843018, 0.2633585035800934, 0.07013197243213654, -0.04131424054503441, 0.04279223084449768, -0.046153780072927475, -0.12727724015712738, 0.11216898262500763, 0.3295000493526459, 0.2011726200580597, 0.05164061486721039, -0.34654998779296875, -0.010465673170983791, 0.006103838328272104, 0.08817555010318756, 0.06832140684127808, 0.04964953660964966, -0.011187170632183552, -0.0901625007390976, -0.09804468601942062, -0.004840271547436714, 0.09781888127326965, -0.007139471359550953, -0.06193976849317551, 0.049245212227106094, 0.0872667208313942, -0.07938632369041443, -0.04883788153529167, -0.042561229318380356, -0.02500285394489765, -0.06091974675655365, 0.061815518885850906, 0.07166718691587448, -0.11760471016168594, -0.10760460793972015, -0.10223297029733658, 0.08046010136604309, -0.056800954043865204, -0.06929931044578552, 0.0035703605972230434, -0.04626261070370674, 0.03996497765183449, 0.036814816296100616, -0.07035089284181595, -0.07706884294748306, -0.08995012938976288, 0.049915894865989685, 0.06819681078195572, 0.03230064734816551, -0.11173425614833832, -0.06800030171871185, -0.042641688138246536, -0.0734984427690506, -0.07848948240280151, 0.029021577909588814, -0.026000196114182472, 0.00586986169219017, -0.07253804057836533, 0.044429928064346313, -0.04748979210853577, 0.08223593235015869, -0.007122587412595749, 0.08174407482147217, -0.06712029874324799, -0.027929645031690598, -0.03222602233290672, 0.013988207094371319, -0.05339233949780464, -0.03581107407808304, -0.053529322147369385, -0.019037464633584023, -0.05142093077301979, -0.0443008653819561, -0.08918430656194687, -0.0762707069516182, -0.024273289367556572, -0.05844825133681297, 0.04105629399418831, -0.01728799380362034, -0.11769276857376099, 0.020685434341430664, 0.014858081005513668, 0.001064548036083579, -0.09622552990913391, -0.07620777934789658, -0.0850442498922348, -0.02869766391813755, -0.07183384150266647, -0.029402729123830795, -0.03257771208882332, -0.05650828406214714, 0.07490429282188416, -0.0031317120883613825, -0.16450977325439453, 0.14434538781642914, 0.3564889132976532, 0.07916256040334702, 0.3086469769477844, -0.24085302650928497, -0.22871248424053192, 0.3043689429759979, 0.3046858310699463, -0.08116522431373596, 0.2470582127571106, 0.19151249527931213, 0.014921024441719055, -0.11457670480012894, -0.3342991769313812, -0.01687389239668846, -0.07569139450788498, 0.20166003704071045, -0.07377550005912781, 0.3522418737411499, 0.1438211053609848, 0.0951036810874939, -0.13878296315670013, -0.12758341431617737, -0.1322484165430069, 0.3059162199497223, 0.19678232073783875, -0.1028960645198822, 0.3746897876262665, 0.34877339005470276, -0.041914258152246475, 0.06650003045797348, 0.26544344425201416, 0.24008163809776306, 0.1342962086200714, -0.3837057650089264, 0.022878985852003098, 0.13795143365859985, -0.10673364251852036, -0.27661681175231934, -0.18321052193641663, -0.07017448544502258, 0.21761532127857208, -0.06417980790138245, 0.1112608090043068, -0.19356076419353485, 0.23882804811000824, 0.05797047168016434, 0.0685632973909378, 0.330458402633667, -0.11199144273996353, -0.09930352866649628, -0.10259989649057388, 0.20343247056007385, 0.192613884806633, -0.3443220555782318, -0.2750827968120575, 0.2508854269981384, 0.12851357460021973, 0.23510265350341797, -0.000837458937894553, -0.15503837168216705, 0.3168674409389496, 0.008554192259907722, 0.058650076389312744, -0.028595516458153725, -0.013945200480520725, 0.08889217674732208, 0.26655176281929016, 0.16397948563098907, -0.2731492817401886, -0.10619047284126282, -0.06190204620361328, -0.03222101181745529, -0.2049822360277176, -0.0309447031468153, 0.3575906455516815, 0.34564101696014404, 0.27443498373031616, 0.01914837397634983, 0.045191533863544464, -0.1285274773836136, -0.12485390901565552, -0.1963469237089157, -0.19721870124340057, -0.07881098985671997, 0.16914679110050201, -0.25299111008644104, 0.21347257494926453, -0.03425876423716545, -0.06874239444732666, -0.2176927924156189, -0.29586589336395264, -0.3128105401992798, -0.08646566420793533, 0.0274285227060318, -0.17242030799388885, 0.2981702983379364, -0.09818557649850845, 0.3354206383228302, 0.16957171261310577, 0.23296818137168884, -0.00742950476706028, -0.16350848972797394, 0.18968313932418823, -0.2569828927516937, -0.23571142554283142, 0.2708331048488617, -0.12373478710651398, 0.17471882700920105, -0.050966523587703705, -0.0721820667386055, -0.1268863081932068, -0.05261363834142685, 0.14316685497760773, -0.03281071037054062, -0.23985840380191803, -0.29027894139289856, 0.2377796322107315, -0.22117109596729279, -0.2513878345489502, -0.055362287908792496, -0.07250510901212692, 0.1527593582868576, -0.21997982263565063, -0.2053426057100296, -0.14209266006946564, -0.3370420038700104, -0.26366400718688965, -0.38977035880088806, 0.2737138867378235, -0.12756910920143127, -0.0757235735654831, -0.14572583138942719, -0.04887678846716881, -0.39338916540145874, 0.0534035861492157, -0.3903488516807556, -0.24400195479393005, -0.2557241916656494, -0.0008406905108131468, -0.2068299800157547, -0.271831214427948, -0.25119876861572266, 0.006129759829491377, 0.10360312461853027, -0.29192230105400085, 0.15963119268417358, 0.170362189412117, 0.16741038858890533, 0.07504555583000183, -0.2977760136127472, -0.17210417985916138, 0.23284150660037994, -0.18660947680473328, -0.00337411230430007, 0.023864829912781715, -0.26603543758392334, -0.2573636770248413, 0.026666540652513504, -0.029459498822689056, 0.04648572951555252, -0.025363991037011147, 0.07637809216976166, 0.12509208917617798, -0.15199418365955353, -0.14594201743602753, -0.03107432648539543, -0.05979592353105545, 0.19750776886940002, 0.10988844931125641, -0.2499409168958664, -0.11791291832923889, -0.0483350045979023, -0.14529019594192505, 0.1322384923696518, -0.13459961116313934, -0.05098103731870651, -0.07833193987607956, 0.17305901646614075, -0.09048917144536972, -0.12185882031917572, 0.07193303108215332, -0.07925993204116821, -0.027371540665626526, 0.19276733696460724, -0.002178268041461706, 0.15542197227478027, 0.21329407393932343, -0.11334001272916794, -0.004703050013631582, -0.15087422728538513, 0.14246243238449097, 0.03398733213543892, -0.0055274744518101215, -0.13675478100776672, -0.20176124572753906, -0.13022077083587646, -0.1903737634420395, -0.1993311047554016, -0.09453272819519043, -0.2162850797176361, 0.06398151069879532, -0.06135248392820358, 0.17490746080875397, -0.15861278772354126, 0.073104128241539, 0.1505090296268463, 0.076351597905159, -0.1732027381658554, -0.01568603329360485, -0.13438986241817474, 0.0012575122527778149, 0.12082827091217041, 0.18784458935260773, -0.05233621224761009, -0.07246281206607819, 0.07182212173938751, -0.12289392203092575, -0.04205155372619629, -0.12026730179786682, -0.1997046321630478, -0.13706232607364655, -0.013304784893989563, 0.05999436601996422, 0.11456321179866791, 0.03471822291612625, -0.11061658710241318, 0.07386969774961472, 0.14902916550636292, -0.007340423297137022, -0.14235050976276398, -0.10752959549427032, -0.19201095402240753, 0.12004439532756805, 0.12801846861839294, 0.1247219443321228, -0.13405276834964752, -0.02185804769396782, 0.06093383952975273, -0.24357692897319794, -0.09421397745609283, 0.029005594551563263, 0.07751781493425369, -0.13173410296440125, -0.19313956797122955, -0.13435986638069153, -0.10294905304908752, -0.0843711867928505, 0.13265693187713623, -0.11898819357156754, -0.07651949673891068, -0.028906356543302536, -0.08007760345935822, -0.014909549616277218, 0.054466601461172104, 0.04293229430913925, -0.16925103962421417, -0.012542172335088253, -0.16968129575252533, 0.009872415103018284, 0.06349430978298187, -0.08570196479558945, 0.18481528759002686, -0.026214532554149628, -0.20549826323986053, -0.17867952585220337, -0.21281775832176208, 0.00958374235779047, -0.034635331481695175, 0.05715906247496605, -0.08980115503072739, -0.21406522393226624, -0.05241379514336586, 0.06365443766117096, 0.10673702508211136, -0.1647992730140686, -0.018303316086530685, -0.16652165353298187, -0.16082577407360077, -0.11194396018981934, -0.29133132100105286, -0.06607512384653091, 0.07923475652933121, 0.07646175473928452, 0.013365223072469234, -0.15960626304149628, 0.04933319613337517, -0.16521912813186646, -0.14471697807312012, -0.024232828989624977, -0.2000540941953659, -0.14316335320472717, 0.011533189564943314, 0.13991886377334595, -0.1524599939584732, -0.20208685100078583, -0.02287992089986801, -0.13872511684894562, -0.042470358312129974, 0.1062680035829544, -0.19621862471103668, 0.138245090842247, -0.07107383757829666, -0.07341577857732773, 0.15359345078468323, -0.04863951355218887, -0.11676499992609024, 0.05192595347762108, 0.03411552309989929, -0.006454672664403915, 0.17326773703098297, -0.14243687689304352, -0.019552696496248245, 0.02866307646036148, -0.008042427711188793, -0.2533887028694153, 0.03409099206328392, -0.04078571870923042, -0.056580547243356705, 0.06208580732345581, 0.19258181750774384, -0.10492301732301712, -0.030802728608250618, -0.03214934468269348, -0.16149194538593292, 0.019951213151216507, -0.11019648611545563, 0.18255659937858582, -0.11635810881853104, 0.05525054782629013, -0.15960383415222168, -0.09669456630945206, 0.14393757283687592, -0.04881548136472702, -0.07740505039691925, 0.08613086491823196, 0.03758881986141205, 0.06677854806184769, -0.10999157279729843, 0.012487133964896202, -0.08871451020240784, 0.2125435173511505, -0.14556984603405, 0.20474731922149658, 0.159912109375, -0.06030120700597763, 0.09609240293502808, -0.14997756481170654, -0.297741174697876, -0.01981576532125473, 0.11983831971883774, -0.08298098295927048, 0.0830153077840805, -0.10567569732666016, -0.18090380728244781, 0.06403382867574692, 0.08796903491020203, -0.018556609749794006, 0.2816479206085205, -0.02699114754796028, 0.012009171769022942, 0.005230392329394817, -0.0711682140827179, -0.11196304857730865, -0.12545432150363922, 0.05180194973945618, 0.018139902502298355, 0.15095247328281403, 0.18985220789909363, 0.008620254695415497, 0.046189166605472565, -0.0888250395655632, -0.17041490972042084, 0.10823856294155121, 0.002731600310653448, 0.18900863826274872, -0.033951133489608765, -0.11104067414999008, -0.03683596849441528, 0.016388501971960068, 0.18067768216133118, 0.2723878026008606, 0.29270485043525696, -0.1853497475385666, 0.028911011293530464, -0.019866855815052986, 0.05932564660906792, 0.23700879514217377, 0.1781725287437439, 0.054007139056921005, 0.09838995337486267, -0.03497378155589104, 0.21608713269233704, 0.22588223218917847, 0.18027165532112122, -0.0263506006449461, -0.09006054699420929, -0.12248586863279343, -0.0653759017586708, 0.2131245881319046, 0.11218198388814926, 0.07244716584682465, -0.19643431901931763, -0.03812020644545555, -0.06760451197624207, 0.17317333817481995, -0.13512739539146423, -0.05389462411403656, -0.18684080243110657, 0.2783103883266449, 0.2530674636363983, 0.04953174665570259, 0.20337705314159393, -0.010747929103672504, 0.1631728708744049, 0.12734736502170563, -0.09393348544836044, 0.017295438796281815, 0.17067918181419373, -0.1360277235507965, 0.032038699835538864, -0.17051735520362854, 0.12810711562633514, 0.1292785108089447, -0.20900586247444153, -0.01733064465224743, -0.13720746338367462, -0.046589143574237823, -0.05649501085281372, -0.0905769020318985, 0.06276904791593552, 0.10975341498851776, 0.12735424935817719, -0.17883461713790894, -0.11602284014225006, 0.11338493973016739, 0.2349715381860733, -0.1038447767496109, -0.13188937306404114, -0.16594821214675903, 0.09539607912302017, 0.2374456822872162, 0.12608283758163452, 0.0871637687087059, -0.0787537544965744, -0.09106117486953735, 0.1107809916138649, -0.15865854918956757, -0.1368294507265091, 0.03301525115966797, 0.0727049857378006, -0.07242301106452942, 0.09085400402545929, -0.2006738781929016, -0.030734937638044357, 0.18050701916217804, 0.08735423535108566, 0.043325915932655334, -0.08160661906003952, 0.15317320823669434, -0.02953655645251274, 0.14792117476463318, -0.13556043803691864, -0.19674000144004822, -0.0006330907344818115, -0.012747561559081078, 0.0361819826066494, -0.2971203923225403, -0.280073344707489, 0.18331021070480347, -0.1169469952583313, 0.19572651386260986, -0.18267004191875458, -0.2778776288032532, -0.23491162061691284, 0.027037911117076874, -0.043302517384290695, -0.035165030509233475, 0.169608473777771, 0.028896072879433632, -0.07222235947847366, -0.0037609888240695, -0.06184094399213791, 0.04639316722750664, -0.018110688775777817, -0.08589337021112442, -0.10362184792757034, -0.05331023037433624, 0.08796022832393646, 0.08053670823574066, -0.012843180447816849, -0.11240711063146591, -0.05303386598825455, 0.08214110881090164, -0.12195289134979248, -0.10046791285276413, -0.03340527415275574, -0.03673369809985161, 0.03522162511944771, -0.057470303028821945, -0.055381231009960175, 0.029624424874782562, -0.06934671103954315, -0.08497365564107895, -0.014395303092896938, -0.06645221263170242, 0.01428152248263359, 0.06190355494618416, 0.02136787585914135, -0.07950659841299057, -0.027884269133210182, 0.057066526263952255, -0.022505592554807663, -0.02082841284573078, -0.0042703598737716675, 0.000788848556112498, -0.015151748433709145, -0.10585896670818329, -0.06052267923951149, -0.004870045930147171, 0.08704730123281479, 0.06522224843502045, -0.007423998787999153, 0.06168535351753235, 0.0008288146345876157, 0.05523642525076866, 0.001205712673254311, 0.043477848172187805, 0.07628060132265091, -0.030912701040506363, -0.020666690543293953, -0.03838294371962547, -0.10136725753545761, 0.09492267668247223, -0.041410740464925766, -0.07952111214399338, -0.09060041606426239, 0.016378415748476982, -0.034302107989788055, -0.0900641679763794, -0.05205801501870155, -0.1315845102071762, -0.005265182815492153, -0.08761787414550781, 0.04658321291208267, -0.10090913623571396, -0.12926946580410004, -0.1291087567806244, 0.028118591755628586, -0.00596947968006134, 0.0415286161005497, -0.05248740687966347, -0.05064566060900688, 0.03645499050617218, 0.014591744169592857, -0.048869237303733826, -0.01666378788650036, -0.016710925847291946, 0.049265239387750626, 0.15141801536083221, 0.03654465824365616, 0.14685221016407013, 0.21374836564064026, -0.033050455152988434, 0.09630140662193298, -0.1888091266155243, -0.18661385774612427, -0.16835293173789978, 0.17425355315208435, 0.15472674369812012, -0.05282880365848541, -0.0801909863948822, -0.15147779881954193, -0.08350192755460739, -0.1549193263053894, 0.08413227647542953, 0.10090097039937973, 0.1617134064435959, 0.13264569640159607, -0.13611499965190887, 0.09889040887355804, -0.09947455674409866, 0.14183342456817627, -0.12949664890766144, 0.005392473191022873, -0.011797028593719006, 0.07645605504512787, -0.03252418711781502, 0.1721932739019394, 0.0625239834189415, -0.15323203802108765, -0.01265171729028225, 0.19959555566310883, 0.1094021424651146, -0.20899860560894012, -0.30911195278167725, -0.22650261223316193, 0.14544765651226044, 0.15866506099700928, -0.05120600014925003, -0.04655546322464943, 0.07675730437040329, 0.07194849848747253, 0.09133720397949219, -0.10506293177604675, 0.09836141020059586, 0.20254892110824585, -0.15701794624328613, 0.06170894578099251, -0.008124740794301033, -0.2011125087738037, 0.0032659838907420635, 0.10498899221420288, 0.20547980070114136, -0.017687829211354256, -0.14658088982105255, 0.02380252443253994, -0.009697506204247475, 0.1404038816690445, -0.25280043482780457, -0.04649791121482849, -0.028488369658589363, 0.029517773538827896, 0.151755228638649, 0.005846863612532616, -0.05165828764438629, 0.07289667427539825, 0.13783444464206696, 0.15622557699680328, -0.13827817142009735, 0.036299772560596466, -0.22036045789718628, -0.16424576938152313, 0.12573310732841492, 0.049495846033096313, -0.06349682062864304, -0.09946949779987335, 0.23627513647079468, 0.2444213181734085, 0.1235576644539833, 0.08685550093650818, 0.15597905218601227, 0.2324855923652649, 0.14492514729499817, 0.11406601965427399, -0.10917792469263077, 0.17502211034297943, 0.12000548839569092, 0.14801988005638123, -0.08509057015180588, 0.06367476284503937, 0.171970397233963, -0.002671612426638603, -0.13199685513973236, -0.11114940047264099, 0.10270804166793823, -0.09027667343616486, 0.3126945495605469, 0.24680392444133759, 0.04487370327115059, 0.04777299985289574, 0.027959197759628296, -0.14888077974319458, 0.03573458269238472, 0.058570198714733124, 0.0639103427529335, -0.09270887076854706, 0.2950149476528168, -0.12344806641340256, 0.06654435396194458, -0.07275419682264328, -0.09015921503305435, 0.15531189739704132, 0.2574251592159271, -0.20929419994354248, -0.06991741806268692, -0.01447085291147232, 0.0011685898061841726, 0.060877833515405655, -0.15214769542217255, 0.22342541813850403, -0.03981718048453331, -0.07548829168081284, 0.14370867609977722, 0.07077304273843765, 0.1321829855442047, 0.04331893101334572, 0.217459037899971, 0.2651207745075226, -0.19523778557777405, -0.013112107291817665, 0.12346108257770538, -0.021436790004372597, 0.12363091856241226, -0.14122997224330902, -0.16987371444702148, -0.16668078303337097, 0.27167609333992004, 0.2806917130947113, -0.10140563547611237, 0.19962164759635925, -0.06862521171569824, 0.16356715559959412, 0.08119187504053116, 0.02781594917178154, -0.14528650045394897, 0.1821800023317337, 0.13810470700263977, -0.005597177427262068, 0.14803753793239594, 0.04845099523663521, 0.23132503032684326, 0.19897642731666565, 0.21695692837238312, -0.010592205449938774, -0.09667269140481949, 0.18002650141716003, 0.14327871799468994, 0.08244157582521439, 0.27792659401893616, -0.03146849572658539, 0.09636807441711426, -0.05540699511766434, -0.1813521385192871, 0.22415810823440552, -0.16927944123744965, 0.03041796386241913, 0.21951134502887726, -0.012493196874856949, -0.09107474237680435, 0.27887019515037537, -0.010575434193015099, 0.4332166314125061, 0.3481827974319458, 0.04098781943321228, 0.08669374883174896, -0.09408276528120041, -0.2995450496673584, -0.18418444693088531, 0.16256515681743622, -0.18671227991580963, -0.21006125211715698, -0.3112477660179138, 0.16861717402935028, 0.16595490276813507, -0.35542047023773193, -0.3498116135597229, 0.29181107878685, -0.15925276279449463, 0.045381929725408554, -0.13048049807548523, 0.2652386724948883, -0.06155595928430557, 0.3037090003490448, -0.18082216382026672, 0.09107732772827148, -0.15644486248493195, -0.062216684222221375, -0.3053271770477295, -0.25489741563796997, 0.038640283048152924, 0.014069784432649612, 0.08710724115371704, -0.22087475657463074, -0.03234853968024254, 0.24737365543842316, 0.14741812646389008, -0.11732935160398483, -0.17151804268360138, 0.19300681352615356, -0.17599651217460632, 0.2556532621383667, -0.09313890337944031, -0.15754170715808868, -0.003961209207773209, 0.18038596212863922, -0.27968648076057434, 0.17094257473945618, -0.21224966645240784, 0.24484743177890778, 0.23370572924613953, -0.3083491027355194, 0.12462306022644043, 0.09181395918130875, 0.21623994410037994, 0.10059743374586105, -0.07409709692001343, 0.04951170086860657, 0.15007129311561584, 0.3429490923881531, 0.19177468121051788, 0.1375412493944168, -0.3003411293029785, -0.19402509927749634, 0.04961509630084038, 0.20021668076515198, -0.35870301723480225, -0.22345010936260223, 0.11959684640169144, 0.06435563415288925, 0.14635220170021057, -0.030615217983722687, -0.022943580523133278, -0.03586270287632942, 0.04642582684755325, -0.12375089526176453, -0.13425612449645996, 0.07655800133943558, -0.1359076350927353, 0.076108917593956, -0.11527737230062485, -0.06174534931778908, -0.011264575645327568, -0.07450716942548752, 0.03428474813699722, -0.14762011170387268, -0.04152616485953331, -0.037449102848768234, 0.08937431126832962, -0.06824692338705063, -0.016185086220502853, -0.06777460128068924, -0.0629943236708641, -0.08633222430944443, 0.0022495975717902184, 0.042612385004758835, 0.007516350131481886, -0.03927353769540787, 0.01756461150944233, 0.14627793431282043, 0.05583199858665466, 0.11894232779741287, -0.09284999221563339, 0.03134379908442497, -0.16950646042823792, -0.01510212104767561, 0.02201557345688343, -0.0869457945227623, 0.08401165902614594, -0.025948993861675262, -0.058313190937042236, -0.0100777642801404, 0.07601683586835861, 0.08263063430786133, 0.006666059140115976, 0.05130331963300705, -0.05566178634762764, -0.08902300149202347, -0.09815619140863419, 0.08283483237028122, -0.1058000773191452, 0.0011754557490348816, -0.025166522711515427, -0.06960055977106094, 0.0279473178088665, 0.05018741637468338, 0.13453218340873718, 0.05862988159060478, -0.008821799419820309, -0.024729793891310692, 0.07674087584018707, 0.0561949796974659, 0.009227762930095196, -0.07318304479122162, -0.09213343262672424, -0.009652430191636086, -0.024224037304520607, -0.010404719039797783, 0.02104288712143898, -0.10974900424480438, -0.11448956280946732, -0.11598768830299377, 0.03359225392341614, -0.013800906017422676, -0.031040456146001816, -0.015554707497358322, 0.04949532449245453, -0.043731119483709335, 0.10184403508901596, -0.21120412647724152, -0.3014361262321472, 0.031050091609358788, -0.3086705505847931, -0.11501608043909073, 0.22151219844818115, 0.1589074432849884, 0.2044888287782669, 0.061597906053066254, -0.2543179988861084, -0.23704472184181213, -0.07016019523143768, 0.10432257503271103, -0.10957863181829453, -0.04588214308023453, -0.00610799714922905, -0.047829415649175644, -0.2125706672668457, 0.1211593821644783, -0.09317860752344131, -0.16737468540668488, -0.040904369205236435, -0.23587216436862946, -0.1808692365884781, 0.05180395394563675, -0.0263872891664505, -0.35801583528518677, -0.05763300135731697, -0.1100292056798935, -0.01053033396601677, -0.20574982464313507, 0.17393828928470612, -0.1314680278301239, 0.04296194761991501, -0.2834525406360626, 0.018144408240914345, 0.2024405151605606, 0.006190552841871977, -0.17256172001361847, 0.10585320740938187, -0.33362051844596863, -0.40593191981315613, 0.021370284259319305, 0.1336904615163803, 0.032629065215587616, -0.22666525840759277, 0.024656834080815315, 0.17976832389831543, -0.26984506845474243, -0.2434825599193573, 0.11591345071792603, -0.10603637248277664, -0.07747781276702881, 0.23003195226192474, -0.20057743787765503, -0.3527863621711731, -0.33272603154182434, -0.18729588389396667, 0.14705438911914825, 0.1309814453125, 0.013261253945529461, -0.07874728739261627, 0.21538980305194855, 0.07250483334064484, 0.024312051013112068, -0.03123551234602928, 0.062463853508234024, -0.013097496703267097, -0.02912101522088051, -0.060498643666505814, 0.3148975074291229, 0.17693692445755005, -0.09562376886606216, -0.19582562148571014, 0.22658219933509827, -0.2536563575267792, -0.005596746690571308, -0.2745506763458252, 0.21599681675434113, 0.18449002504348755, -0.09345800429582596, -0.10946673899888992, -0.17419736087322235, -0.15945294499397278, -0.0926324650645256, -0.17432253062725067, -0.21281123161315918, -0.09068618714809418, -0.17273198068141937, 0.11366738379001617, 0.08060204982757568, 0.08020419627428055, -0.21901637315750122, -0.11730141192674637, 0.11354056000709534, -0.056348372250795364, -0.07081299275159836, -0.04479590803384781, -0.1625388264656067, 0.06515834480524063, 0.026270562782883644, 0.06530595570802689, -0.14656704664230347, -0.1813230663537979, 0.0048428792506456375, 0.1053924486041069, 0.15133841335773468, 0.04828682541847229, -0.054714228957891464, -0.1919640302658081, 0.0024216414894908667, -0.1984281837940216, 0.09257754683494568, -0.13648441433906555, 0.10139142721891403, -0.022647427394986153, -0.023550329729914665, -0.09896735846996307, 0.02346089854836464, -0.1737484633922577, 0.10477778315544128, 0.0838465541601181, -0.17193123698234558, -0.16154935956001282, 0.09962242841720581, -0.1495843529701233, -0.20508019626140594, 0.08782480657100677, -0.060449838638305664, -0.06331463158130646, -0.008976500481367111, -0.03330438956618309, -0.0344809889793396, -0.03365146368741989, 0.11719097197055817, 0.09309442341327667, -0.00863011833280325, -0.20562802255153656, -0.03719469532370567, 0.04491862282156944, -0.004272660240530968, -0.2046898901462555, -0.17515577375888824, 0.13042514026165009, -0.07588952779769897, -0.15714526176452637, -0.10968988388776779, -0.11717922985553741, -0.024270109832286835, -0.07211016863584518, 0.08700680732727051, -0.026822401210665703, -0.06178534775972366, -0.1782623529434204, 0.12397005409002304, 0.09025106579065323, -0.1618727743625641, -0.10131842643022537, -0.06566431373357773, 0.07847512513399124, 0.0507870577275753, -0.19261494278907776, 0.013035140931606293, -0.060773205012083054, 0.2277294099330902, -0.01792117767035961, -0.08683686703443527, -0.04016503691673279, 0.18593676388263702, 0.2445618212223053, 0.1621314436197281, 0.07948432862758636, 0.006943447049707174, -0.10351242125034332, 0.03865782171487808, 0.05929429829120636, -0.08180166035890579, 0.21199432015419006, -0.13013136386871338, 0.2029844969511032, 0.1437511444091797, -0.003921328112483025, 0.1411799192428589, -0.04697678983211517, -0.22614915668964386, 0.011605859734117985, -0.0969812273979187, -0.10816887021064758, 0.013588173314929008, 0.21276913583278656, -0.22202473878860474, -0.19390319287776947, -0.09634403139352798, -0.0116576524451375, -0.03987901285290718, 0.03775446489453316, 0.19652551412582397, -0.22140781581401825, -0.1534697413444519, -0.2650572657585144, 0.25986504554748535, -0.13796007633209229, -0.145289346575737, 0.023241639137268066, -0.14350301027297974, -0.18198223412036896, -0.08975054323673248, 0.1866329461336136, -0.10819193720817566, 0.16788017749786377, 0.11673933267593384, 0.02682158164680004, -0.1310158520936966, 0.02077336609363556, -0.015609304420650005, -0.2216668277978897, 0.1848141849040985, -0.006329901982098818, -0.1723141074180603, 0.0023376084864139557, 0.28028374910354614, -0.12666136026382446, -0.13100706040859222, -0.16966912150382996, 0.2020583152770996, 0.025957545265555382, -0.23710903525352478, -0.16170437633991241, -0.19862309098243713, 0.21039359271526337, 0.1772385686635971, 0.16775363683700562, -0.041361287236213684, 0.0570979043841362, 0.011889712885022163, -0.11138128489255905, -0.10946787893772125, 0.17171920835971832, 0.2518792152404785, -0.04502720758318901, 0.256186842918396, 0.3384520411491394, 0.043413225561380386, 0.2560974359512329, 0.056035857647657394, 0.11597662419080734, 0.19648107886314392, -0.16377311944961548, 0.11587466299533844, 0.03269079327583313, 0.001652665319852531, -0.07882619649171829, -0.2038995325565338, -0.007882211357355118, -0.11909715086221695, -0.29497653245925903, 0.21434083580970764, -0.196833997964859, -0.027745041996240616, 0.27535444498062134, -0.24519570171833038, 0.20379333198070526, 0.21211476624011993, -0.16970570385456085, -0.1386144459247589, 0.10184767097234726, 0.1544453352689743, -0.25815993547439575, 0.04144502058625221, 0.2927441895008087, 0.22124218940734863, 0.0016918806359171867, 0.19524544477462769, -0.09935293346643448, 0.163545161485672, 0.26511839032173157, 0.22409674525260925, 0.06060486286878586, -0.11498955637216568, 0.1821325719356537, -0.11288897693157196, 0.31048762798309326, 0.21725857257843018, 0.11320719867944717, 0.16728924214839935, -0.09923774003982544, 0.3020959496498108, 0.036263033747673035, 0.07715701311826706, 0.14052507281303406, 0.2596612572669983, -0.17798872292041779, -0.04813436418771744, 0.16320572793483734, -0.034877222031354904, 0.2973511517047882, 0.19460071623325348, 0.09452567249536514, 0.319436639547348, -0.09974019974470139, 0.2592560350894928, 0.17949692904949188, -0.16135351359844208, 0.008585294708609581, -0.25430765748023987, 0.014536631293594837, -0.0244657751172781, 0.20540565252304077, -0.18468044698238373, -0.19105400145053864, 0.30324989557266235, 0.02317178249359131, -0.23896075785160065, -0.10090646892786026, -0.2750796973705292, 0.09098540991544724, -0.18376107513904572, -0.2683667838573456, -0.13449342548847198, 0.2300937920808792], "bias": [0.6923785209655762, 0.012119628489017487, -1.0357288122177124, -1.0361380577087402, -0.8526886105537415, 1.454782247543335, -1.7719738483428955, 1.1114015579223633, -0.17540228366851807, -1.614430546760559, -0.001975342631340027, -0.12578272819519043, 0.5653761625289917, 0.8108528256416321, -2.3150651454925537, 1.1390233039855957, 0.6137691140174866, -1.5304594039916992, 2.2692325115203857, 0.5474717020988464, 1.6575177907943726, -0.7083630561828613, 0.246098130941391, 0.6845800280570984, -0.3410089910030365, -1.9635584354400635, -0.13176700472831726, 0.2836184799671173, 1.4242292642593384, 1.5065828561782837, 0.09208402037620544, -1.5899972915649414]}, {"in": 32, "out": 64, "k": 3, "stride": 2, "pad": 1, "weight": [0.16970624029636383, 0.02435825951397419, 0.04573793709278107, -0.05455641821026802, -0.0959707498550415, 0.19336384534835815, 0.031119734048843384, -0.07753877341747284, 0.20646530389785767, -0.14421306550502777, -0.20003172755241394, 0.1918635219335556, 0.08386874198913574, 0.16306400299072266, 0.18387770652770996, 0.18570314347743988, -0.08089842647314072, -0.03588006645441055, 0.05485396087169647, 0.08010082691907883, 0.01959429681301117, 0.039688754826784134, 0.15815162658691406, 0.15880537033081055, 0.11009164899587631, 0.1831585317850113, 0.03950832411646843, 0.0021936874836683273, -0.03277869522571564, 0.029589341953396797, 0.22677960991859436, -0.037708818912506104, -0.26175421476364136, -0.1367834061384201, 0.2557702958583832, -0.16715459525585175, 0.042509566992521286, 0.16248120367527008, 0.14664776623249054, -0.1516697257757187, 0.22105786204338074, 0.09041193127632141, -0.11651276051998138, -0.028000520542263985, 0.18410658836364746, 0.03072555549442768, 0.05859740450978279, 0.060458067804574966, 0.019252924248576164, 0.17976833879947662, -0.03433655574917793, -0.007162310648709536, -0.037973906844854355, 0.09060973674058914, 0.0914912298321724, 0.03354215249419212, 0.0957474634051323, -0.20282448828220367, 0.027727745473384857, 0.06544951349496841, 0.19038483500480652, 0.1755790412425995, -0.005180864594876766, -0.0724959522485733, 0.23194405436515808, -0.04700194299221039, 0.20500510931015015, -0.08303872495889664, 0.18364571034908295, 0.1889995038509369, 0.09552882611751556, -0.04074634984135628, -0.032836031168699265, 0.06967180967330933, -0.07704853266477585, 0.20387257635593414, 0.0052622416988015175, 0.04540370777249336, -0.021610897034406662, -0.04516309127211571, 0.19379794597625732, 0.10983172804117203, -0.12650460004806519, 0.06690575182437897, 0.21396015584468842, -0.05032585188746452, -0.18881641328334808, 0.007828633300960064, -0.03379825875163078, -0.04660705476999283, 0.23566441237926483, 0.0962766483426094, -0.0003403860318940133, 0.09416383504867554, -0.11914309114217758, 0.176070436835289, 0.19279925525188446, -0.1093696728348732, 0.08295563608407974, 0.027401389554142952, 0.07937481254339218, -0.13170991837978363, 0.0058831702917814255, -0.25792616605758667, 0.09601352363824844, 0.09917033463716507, -0.05460505560040474, 0.16950459778308868, -0.011474091559648514, -0.18420298397541046, -0.004467245656996965, -0.04615477845072746, 0.24247869849205017, 0.2398412972688675, 0.23348230123519897, 0.026014894247055054, 0.09206447005271912, -0.07010023295879364, 0.15135131776332855, -0.0005659915623255074, -0.034821707755327225, 0.2576676905155182, -0.2776142358779907, -0.017680786550045013, -0.16983799636363983, -0.010358227416872978, -0.011971480213105679, -0.48769739270210266, 0.15126653015613556, 0.1806674599647522, 0.03455550968647003, -0.18500889837741852, -0.20986923575401306, 0.268351286649704, 0.18079626560211182, 0.011668168008327484, 0.07765442878007889, -0.25660601258277893, -0.30924466252326965, 0.06556396931409836, 0.0038535459898412228, 0.04117705672979355, 0.22322407364845276, 0.002295506652444601, -0.2605269253253937, 0.08254125714302063, 0.09933876246213913, 0.39325660467147827, 0.16033989191055298, -0.27363088726997375, -0.1735469102859497, 0.008615591563284397, -0.08861632645130157, 0.18501703441143036, -0.18004950881004333, 0.30912140011787415, -0.27575525641441345, -0.29071781039237976, -0.08008352667093277, -0.21025095880031586, -0.05094299465417862, 0.17315368354320526, 0.033660273998975754, 0.0167924165725708, -0.09138419479131699, -0.04763992503285408, 0.05894799530506134, 0.03272118791937828, 0.3827165365219116, -0.3516472280025482, 0.00022236617223825306, -0.01033133827149868, -0.04007524251937866, 0.021679837256669998, -0.010679399594664574, 0.0020569602493196726, -0.1355701982975006, 0.13299819827079773, 0.15803995728492737, 0.11942833662033081, 0.14233237504959106, -0.14169080555438995, 0.0395284965634346, -0.35383641719818115, 0.21711774170398712, -0.11118999868631363, 0.010675886645913124, -0.18025296926498413, 0.18730632960796356, -0.07187604159116745, 0.11819059401750565, -0.13702328503131866, -0.21313239634037018, -0.20466285943984985, 0.12682123482227325, -0.23249006271362305, 0.12390819936990738, -0.003810036461800337, -0.15273648500442505, -0.31618228554725647, -0.017618391662836075, -0.21887758374214172, -0.18308791518211365, -0.08509163558483124, 0.06542515009641647, -0.023764217272400856, -0.23603786528110504, -0.028950955718755722, -0.016455145552754402, -0.2303641140460968, -0.2160213142633438, -0.041524555534124374, -0.004724379163235426, -0.07323727756738663, 0.04112795367836952, 0.1562296599149704, 0.17304278910160065, -0.3276432752609253, -0.3879934251308441, 0.19375577569007874, -0.1503247171640396, 0.15124113857746124, -0.20213451981544495, -0.18651309609413147, 0.1404034048318863, 0.019366160035133362, -0.14869987964630127, -0.17635364830493927, 0.10118435323238373, 0.19299857318401337, -0.16475306451320648, -0.0878564864397049, -0.08630355447530746, 0.2683632969856262, -0.0895179733633995, 0.0033905860036611557, -0.2624506950378418, -0.06595655530691147, 0.1772218942642212, 0.2567465901374817, -0.31409406661987305, -0.10557608306407928, -0.11639465391635895, -0.33621272444725037, 0.022131845355033875, 0.039152584969997406, 0.07981489598751068, 0.20376065373420715, 0.2805287837982178, -0.1203075423836708, 0.15384791791439056, -0.2429889589548111, -0.013112819753587246, -0.3910953104496002, 0.21449854969978333, -0.1574181616306305, -0.25296828150749207, 0.21868139505386353, 0.07126656174659729, -0.1031460389494896, 0.08617989718914032, -0.1339096873998642, -0.10198813676834106, -0.10221895575523376, -0.16091521084308624, -0.21538953483104706, 0.054535094648599625, 0.1317363828420639, -0.13971677422523499, -0.10144269466400146, -0.02886965684592724, -0.022187648341059685, -0.16183362901210785, 0.16072508692741394, -0.13250409066677094, -0.051143281161785126, 0.21775981783866882, 0.15746860206127167, -0.13312536478042603, 0.1657654047012329, -0.06706318259239197, -0.25742071866989136, -0.12127013504505157, 0.04885590821504593, 0.12004026770591736, -0.13859155774116516, -0.1474258452653885, -0.09665064513683319, -0.16529105603694916, -0.16490904986858368, 0.08726639300584793, 0.12930241227149963, 0.1691775768995285, -0.18567843735218048, 0.16606657207012177, -0.04333197697997093, 0.28963032364845276, 0.21009771525859833, -0.15283645689487457, 0.3367408514022827, -0.06659621000289917, -0.20269224047660828, 0.13676045835018158, -0.11235876381397247, -0.3377760350704193, -0.18200735747814178, -0.10708115249872208, -0.08257845789194107, 0.007691673468798399, 0.16594260931015015, -0.25162240862846375, -0.10433535277843475, 0.014229221269488335, 0.4275478720664978, 0.29178714752197266, -0.031861331313848495, 0.12424344569444656, 0.17562229931354523, -0.15351291000843048, 0.11283636838197708, -0.020387450233101845, -0.21602685749530792, -0.08505341410636902, 0.06547044962644577, -0.2092696577310562, 0.08653005212545395, -0.12772732973098755, -0.0959962010383606, -0.1430702656507492, 0.2127601057291031, 0.3626694083213806, -0.2873503863811493, 0.10242549329996109, -0.35021182894706726, 0.020061109215021133, -0.18202045559883118, 0.02720077522099018, 0.0015163295902311802, -0.0910555049777031, -0.16014470160007477, -0.16659864783287048, 0.2930307686328888, 0.05183470621705055, -0.11767943948507309, 0.1175561249256134, 0.19004984200000763, 0.227094367146492, -0.0037717176601290703, -0.10066945105791092, 0.007322625257074833, -0.18514786660671234, 0.1088034138083458, -0.27699968218803406, -0.2786305844783783, 0.09260155260562897, -0.2595740258693695, -0.13660693168640137, -0.09758292883634567, -0.3944478929042816, 0.2286672294139862, 0.09751152247190475, 0.036757852882146835, -0.1776730865240097, 0.06857791543006897, -0.1556694209575653, 0.25120285153388977, 0.02962222509086132, 0.14988967776298523, -0.20468690991401672, 0.09320635348558426, -0.008629809133708477, 0.239669069647789, 0.46424219012260437, 0.36409881711006165, -0.2880668640136719, -0.05394674837589264, -0.13193030655384064, 0.04638304561376572, -0.20761553943157196, 0.20135000348091125, -0.04680459201335907, -0.3604704737663269, -0.29446646571159363, -0.16880269348621368, 0.01905890926718712, -0.16173136234283447, -0.1524498462677002, 0.07323051989078522, -0.07499778270721436, 0.06740909069776535, -0.33277633786201477, -0.0618588961660862, -0.06729372590780258, 0.19270268082618713, -0.08110837638378143, -0.11144242435693741, 0.2943735718727112, -0.055316727608442307, 0.1289198398590088, -0.10432114452123642, -0.10806836932897568, 0.39750149846076965, -0.10759687423706055, 0.32604214549064636, 0.09923487901687622, 0.16154320538043976, 0.20050011575222015, -0.15298673510551453, -0.445194810628891, -0.15958774089813232, 0.22901995480060577, -0.21346870064735413, -0.2523672878742218, 0.3672155439853668, -0.07741333544254303, -0.26455265283584595, -0.34820955991744995, 0.026578854769468307, 0.007230074144899845, 0.20941783487796783, 0.16770431399345398, -0.21957145631313324, 0.029916461557149887, 0.2712569832801819, 0.1384800225496292, -0.2467452585697174, -0.12087801098823547, -0.08412651717662811, 0.08315562456846237, -0.11021868884563446, -0.017515843734145164, 0.14990241825580597, -0.19713693857192993, 0.014620831236243248, 0.3829162120819092, -0.08289744704961777, 0.22217218577861786, 0.09299766272306442, 0.15461936593055725, 0.09892451763153076, 0.0706133097410202, -0.04111568257212639, -0.0424020029604435, -0.16433413326740265, -0.10200376808643341, 0.3513321578502655, 0.11127568781375885, -0.4268917441368103, 0.21570509672164917, 0.2299535870552063, 0.10530436784029007, -0.2730356454849243, 0.02741307020187378, -0.30335360765457153, 0.06212092563509941, 0.12577076256275177, 0.11865046620368958, 0.2725125253200531, -0.12643834948539734, 0.03425551950931549, 0.17210139334201813, 0.25458210706710815, -0.0023195615503937006, 0.013999373652040958, -0.2629225254058838, 0.040524695068597794, 0.19174692034721375, -0.10662352293729782, 0.009206986986100674, -0.22072277963161469, -0.38565555214881897, -0.3124251067638397, 0.38231733441352844, 0.21222788095474243, 0.2923436760902405, 0.08805091679096222, 0.12910336256027222, -0.29835277795791626, 0.050551626831293106, 0.2244972586631775, -0.18633688986301422, -0.1794670820236206, 0.017380299046635628, 0.0035822608042508364, -0.01613301783800125, -0.1291000247001648, 0.05280868336558342, 0.18285904824733734, 0.0982319563627243, -0.12317436188459396, -0.15010319650173187, -0.18786203861236572, -0.02928229793906212, -0.09754674136638641, -0.19365951418876648, 0.27096474170684814, 0.09055094420909882, 0.03865627571940422, -0.26435092091560364, 0.17407956719398499, -0.09920567274093628, -0.023732587695121765, -0.02361535094678402, 0.23026277124881744, 0.16355283558368683, -0.09130026400089264, -0.1415432095527649, -0.14568008482456207, -0.2397405058145523, 0.04150090739130974, 0.07952667027711868, -0.07779623568058014, 0.13284899294376373, 0.060668542981147766, 0.03583018481731415, -0.06367629766464233, -0.1831614226102829, 0.11922004073858261, -0.10814522951841354, -0.05296309292316437, 0.1627800166606903, -0.13588763773441315, -0.06050500646233559, -0.025958670303225517, 0.05722606182098389, -0.022277629002928734, -0.25975552201271057, 0.18630178272724152, 0.012273216620087624, -0.1532905399799347, 0.06379453837871552, 0.016973549500107765, 0.1324053555727005, -0.12503671646118164, 0.00711664417758584, -0.018644481897354126, -0.02978743612766266, 0.10242000222206116, -0.05571427196264267, -0.25047749280929565, 0.08290307223796844, 0.1892360895872116, -0.04123837128281593, 0.056730564683675766, -0.02780037932097912, -0.06689632683992386, 0.10675996541976929, -0.11360374093055725, -0.12359711527824402, -0.04050454869866371, -0.05065212771296501, -0.08368995785713196, -0.11313382536172867, 0.28560927510261536, 0.15012118220329285, -0.24462327361106873, 0.12729068100452423, -0.03248821198940277, 0.13104793429374695, -0.14150534570217133, 0.07676761597394943, 0.037855759263038635, -0.19326083362102509, 0.1739916056394577, 0.024847056716680527, 0.2536543011665344, 0.1273534595966339, 0.01889423094689846, -0.002373436465859413, -0.16919487714767456, -0.11458975076675415, -0.0045039597898721695, 0.12046356499195099, 0.16894911229610443, 0.18665927648544312, 0.16157159209251404, -0.18984708189964294, 0.05400955304503441, -0.08406136184930801, -0.0779305025935173, -0.205196812748909, 0.07139131426811218, -0.22099439799785614, 0.14797310531139374, 0.02313661202788353, -0.2829517126083374, -0.18766963481903076, 0.030009211972355843, -0.1599275916814804, 0.0697120726108551, -0.04656160622835159, -0.1435265690088272, 0.190100759267807, 0.057099848985672, 0.1600383073091507, -0.04036185145378113, -0.22235873341560364, 0.21626007556915283, -0.20509548485279083, -0.07628156244754791, -0.19430619478225708, 0.05848858132958412, -0.05950175225734711, 0.09198307245969772, 0.20729665458202362, 0.14338617026805878, 0.047817058861255646, -0.32682502269744873, -0.08175213634967804, -0.06357121467590332, 0.13348613679409027, 0.15043458342552185, -0.09568853676319122, -0.07115180045366287, -0.21035487949848175, 0.1218939796090126, -0.23745755851268768, 0.13176898658275604, -0.08733399957418442, -0.06112372502684593, -0.1418643295764923, -0.25112223625183105, -0.07672936469316483, -0.09195301681756973, 0.18228739500045776, -0.1358090341091156, 0.05620049685239792, 0.031634874641895294, -0.05914326384663582, -0.10958562791347504, 0.0477600134909153, 0.141398623585701, -0.16706612706184387, 0.029489021748304367, 0.18666167557239532, 0.26426950097084045, -0.18612419068813324, -0.0525255985558033, -0.02726694382727146, 0.08179469406604767, 0.1426708847284317, 0.04457802698016167, 0.20507386326789856, -0.021511880680918694, -0.16553092002868652, -0.1536339968442917, 0.07816625386476517, 0.12752357125282288, -0.1538180708885193, -0.05639810860157013, -0.058155447244644165, 0.07196559756994247, -0.006143616512417793, -0.19284124672412872, -0.08783522248268127, -0.22217175364494324, 0.1418953537940979, 0.17090022563934326, -0.04599132761359215, -0.1930258870124817, 0.026437215507030487, -0.17782184481620789, -0.02737659029662609, -0.22411829233169556, 0.19183607399463654, -0.027203941717743874, -0.1281760036945343, -0.13908280432224274, -0.09042367339134216, -0.07477976381778717, -0.06409026682376862, 0.008073010481894016, 0.02550850436091423, -0.24382925033569336, -0.015358657576143742, -0.10946319997310638, -0.04906230792403221, 0.12039922177791595, -0.056316275149583817, -0.1358909159898758, -0.045882441103458405, -0.20146164298057556, 0.18507876992225647, -0.1239147037267685, 0.14039526879787445, 0.12440143525600433, 0.13627023994922638, -0.013501454144716263, 0.04598256200551987, 0.20917679369449615, -0.142205148935318, -0.18294942378997803, 0.08144909143447876, 0.15899398922920227, -0.11111444234848022, 0.208155557513237, -0.055156782269477844, -0.010591898113489151, 0.08852466195821762, 0.00976641196757555, -0.21550680696964264, 0.06365201622247696, -0.144096240401268, 0.04640980064868927, 0.08629336953163147, -0.11852539330720901, -0.06997500360012054, -0.2753560543060303, -0.13239577412605286, -0.08180703967809677, -0.23053796589374542, -0.017541155219078064, 0.12941701710224152, 0.02575923316180706, -0.022100843489170074, -0.14435303211212158, -0.1408408135175705, 0.1448322832584381, 0.12998603284358978, -0.1339253932237625, -0.053652238100767136, -0.19645904004573822, 0.05431515723466873, 0.11198103427886963, -0.2700600326061249, -0.3115120828151703, -0.09139292687177658, 0.10474611818790436, 0.23541101813316345, -0.2309216558933258, 0.03957926481962204, 0.13564273715019226, -0.1377524435520172, -0.10466748476028442, 0.23392069339752197, 0.15793855488300323, -0.05142460763454437, -0.10099943727254868, 0.1111738383769989, 0.1379336267709732, 0.1181255578994751, 0.023439636453986168, -0.15667225420475006, -0.1878972202539444, -0.2027193307876587, -0.051539476960897446, -0.20386165380477905, -0.03163490071892738, 0.060444917529821396, 0.10903963446617126, -0.13814949989318848, -0.09817703068256378, 0.05256447568535805, -0.04791463911533356, -0.19449780881404877, 0.15655022859573364, -0.11504315584897995, 0.171536386013031, 0.04177062213420868, 0.001426209113560617, -0.20020022988319397, 0.04076444357633591, -0.030894486233592033, -0.0909508615732193, 0.19366174936294556, 0.02174990624189377, 0.07395767420530319, -0.13211087882518768, 0.3307523727416992, 0.20712046325206757, 0.31328707933425903, -0.23310433328151703, 0.1213921457529068, -0.2209995687007904, -0.10004843771457672, 0.0051065306179225445, 0.12518133223056793, 0.1799708902835846, 0.006803416647017002, 0.24153128266334534, -0.17578791081905365, 0.16971296072006226, -0.06199885159730911, -0.04001232609152794, -0.20146271586418152, -0.17095929384231567, -0.43613752722740173, -0.13327229022979736, -0.16063757240772247, 0.21494393050670624, -0.028874471783638, -0.005970864091068506, 0.11096173524856567, 0.29008328914642334, -0.23504921793937683, 0.33024922013282776, 0.0876283273100853, -0.02134457789361477, -0.30238077044487, 0.15759673714637756, 0.17646227777004242, 0.06712965667247772, 0.11524727940559387, 0.29161468148231506, -0.036211516708135605, 0.048234324902296066, -0.16278047859668732, -0.2567076086997986, 0.289112389087677, 0.030622022226452827, 0.35978254675865173, 0.2512381076812744, 0.10158192366361618, -0.09731361269950867, 0.02787034586071968, -0.20979882776737213, 0.12576937675476074, -0.12435439974069595, 0.24488654732704163, -0.13588981330394745, -0.13840395212173462, 0.3731018006801605, -0.21076375246047974, 0.014944957569241524, 0.08400534838438034, 0.19793325662612915, 0.3254694640636444, 0.3257385790348053, 0.39963600039482117, -0.10153219103813171, -0.1993706077337265, 0.320962518453598, 0.3175507187843323, -0.3533565402030945, -0.2893126606941223, 0.03130887821316719, -0.07940809428691864, 0.3053911626338959, -0.08164794743061066, -0.1016308069229126, 0.19564810395240784, 0.11685343086719513, 0.14986760914325714, -0.29223114252090454, 0.06445100158452988, -0.07835283130407333, 0.08487420529127121, -0.20344029366970062, -0.23196862637996674, 0.1799219846725464, -0.06940381228923798, -0.13241349160671234, 0.1280180811882019, -0.13500447571277618, 0.29093724489212036, 0.0606754869222641, 0.20787809789180756, -0.1756325215101242, -0.03458016365766525, -0.1652100533246994, -0.04533214867115021, -0.224401593208313, 0.2255622297525406, 0.2101718783378601, -0.09258532524108887, 0.0885029062628746, 0.006841222755610943, 0.14347828924655914, -0.12907131016254425, 0.0024214519653469324, -0.12121070921421051, 0.20572075247764587, 0.0721200704574585, 0.2820678651332855, 0.15658840537071228, -0.29142552614212036, 0.24759624898433685, -0.27927443385124207, -0.30069366097450256, -0.032561641186475754, 0.03489333763718605, -0.12092730402946472, 0.154082253575325, 0.017942825332283974, -0.09586606174707413, -0.11781379580497742, -0.2821776270866394, 0.026185015216469765, 0.3056434392929077, 0.3696782886981964, 0.401745080947876, -0.08064553141593933, -0.048121899366378784, -0.015065005980432034, -0.08448995649814606, 0.010273884050548077, 0.12213115394115448, 0.13836194574832916, -0.03149425610899925, -0.1900670826435089, -0.09428325295448303, 0.20395781099796295, 0.165418803691864, 0.028288325294852257, -0.3854551613330841, -0.3793002963066101, -0.047870393842458725, 0.18802078068256378, -0.14771121740341187, -0.28552839159965515, -0.12038960307836533, 0.2003563940525055, -0.06421768665313721, -0.24402031302452087, 0.1924719512462616, -0.03684109449386597, -0.039184316992759705, 0.3055012822151184, -0.03658337891101837, -0.411998450756073, -0.3434225618839264, 0.04931621626019478, 0.015769872814416885, 0.10127238929271698, -0.12370064109563828, 0.03283234313130379, -0.05418020859360695, -0.10404885560274124, 0.10893582552671432, -0.22489428520202637, 0.27324357628822327, -0.1261546015739441, 0.08759324252605438, -0.06995469331741333, -0.19214238226413727, 0.16692140698432922, 0.21340970695018768, -0.1500844955444336, 0.14581382274627686, -0.12193241715431213, 0.17511270940303802, -0.22062857449054718, 0.3023979365825653, 0.17159278690814972, -0.30243638157844543, -0.046845629811286926, -0.030092865228652954, -0.14840403199195862, 0.3321779668331146, -0.22412823140621185, 0.12357693910598755, 0.10799870640039444, 0.13467095792293549, 0.20839209854602814, 0.24431245028972626, 0.2752546966075897, 0.15579058229923248, -0.24753639101982117, -0.066269651055336, -0.14604832231998444, 0.1615341752767563, -0.049661532044410706, -0.004064991604536772, 0.13823333382606506, 0.10316403955221176, 0.011930622160434723, -0.09296336770057678, -0.058367811143398285, 0.093645840883255, -0.2134867012500763, -0.07384051382541656, -0.2265065759420395, -0.15638963878154755, -0.044999584555625916, -0.09779012203216553, -0.05646641552448273, -0.18714086711406708, 0.0943334624171257, 0.11242707818746567, -0.026696333661675453, 0.24265432357788086, -0.06703384965658188, 0.1496267467737198, -0.0007869157125242054, 0.18634915351867676, 0.06992912292480469, 0.031174521893262863, 0.032328471541404724, 0.028407754376530647, -0.07386018335819244, -0.04898817837238312, -0.12438458204269409, -0.12389374524354935, 0.13126881420612335, 0.012307126075029373, -0.10611200332641602, 0.1378728449344635, -0.0023035129997879267, 0.17458631098270416, 0.06633429229259491, -0.17450889945030212, 0.11595264077186584, -0.11690593510866165, 0.02703033946454525, 0.1589205116033554, -0.15718574821949005, -0.12497299164533615, -0.1700112670660019, 0.14014308154582977, 0.14580987393856049, -0.016203254461288452, 0.031114017590880394, 0.20383770763874054, -0.06918204575777054, 0.11575847864151001, -0.2768743932247162, -0.12991812825202942, 0.0586477592587471, -0.03538639843463898, 0.06895510852336884, 0.025290586054325104, -0.18742574751377106, 0.0190017968416214, 0.11587303876876831, 0.17255133390426636, 0.17841891944408417, -0.22123295068740845, 0.0025581582449376583, 0.08830124139785767, -0.14647763967514038, 0.13466118276119232, 0.13208205997943878, 0.16931001842021942, 0.09557830542325974, 0.006484694313257933, -0.1343792974948883, 0.26203715801239014, 0.1986839771270752, -0.050811298191547394, -0.019559789448976517, 0.006960564758628607, 0.14386841654777527, 0.2306673228740692, -0.008424154482781887, -0.11333774775266647, -0.05847616121172905, -0.23931749165058136, -0.01178912166506052, 0.14882004261016846, 0.03559475764632225, 0.15886101126670837, 0.04372264817357063, 0.05779048800468445, 0.16139134764671326, 0.03885643184185028, -0.18132293224334717, 0.2018667310476303, 0.16850700974464417, -0.2378380298614502, 0.1537504643201828, -0.15910717844963074, -0.23897701501846313, -0.1404542177915573, -0.22558172047138214, 0.08676455914974213, 0.08083751052618027, 0.11487207561731339, -0.2969163656234741, 0.05963549762964249, -0.23085492849349976, -0.07006880640983582, -0.2175186276435852, 0.001232266309671104, -0.15946736931800842, 0.1653873175382614, -0.22110293805599213, 0.12108120322227478, 0.1433294415473938, 0.1706598550081253, 0.05290430784225464, 0.1519017517566681, -0.2079743891954422, -0.03129911050200462, 0.142690971493721, -0.07720954716205597, 0.20062878727912903, 0.04042430594563484, 0.28255796432495117, -0.2911052107810974, 0.20312181115150452, 0.21752896904945374, -0.37957650423049927, 0.0693185105919838, -0.11330600827932358, -0.0024408327881246805, -0.06630213558673859, -0.25782477855682373, -0.03311879187822342, -0.06698056310415268, -0.33649876713752747, 0.02756366692483425, -0.2481011301279068, 0.20938758552074432, 0.1209377869963646, -0.24746334552764893, 0.12706290185451508, 0.2141399383544922, 0.2827458679676056, 0.04046394303441048, -0.31519100069999695, -0.18035361170768738, -0.2038375437259674, 0.05783362314105034, -0.16245289146900177, -0.00763888331130147, 0.23031510412693024, 0.20676709711551666, -0.321733683347702, -0.22718752920627594, -0.22561803460121155, -0.2741475999355316, -0.04430756717920303, 0.20805248618125916, 0.10551789402961731, -0.11375431716442108, -0.006855775136500597, 0.006922101601958275, -0.1898835301399231, 0.11695300042629242, 0.058440931141376495, -0.26916152238845825, 0.08148351311683655, 0.07582803070545197, 0.013903729617595673, -0.23878085613250732, -0.180037721991539, -0.004195125307887793, -0.17955802381038666, 0.32391247153282166, 0.13143809139728546, -0.3284327983856201, 0.24755162000656128, -0.11421248316764832, -0.05700807273387909, -0.08169455081224442, 0.23337602615356445, 0.17106834053993225, 0.1539275348186493, 0.19454358518123627, 0.18441098928451538, 0.13424396514892578, -0.23734892904758453, 0.1742531806230545, 0.004159840755164623, -0.040394145995378494, -0.17567262053489685, 0.16551023721694946, -0.12527704238891602, 0.04990953207015991, -0.24632100760936737, -0.08569560945034027, 0.25125086307525635, 0.02923162281513214, -0.105466827750206, 0.012794912792742252, -0.20106038451194763, -0.08504363149404526, -0.15085791051387787, 0.21148552000522614, -0.22749444842338562, 0.23732928931713104, -0.04435184225440025, -0.2984199523925781, -0.2106686681509018, -0.11924567073583603, 0.14977528154850006, -0.0734909325838089, -0.13980300724506378, 0.04073210433125496, -0.1858111321926117, 0.01801120676100254, -0.09989233314990997, -0.2988135516643524, -0.13880032300949097, 0.26282456517219543, 0.20095320045948029, 0.03844913840293884, -0.18741804361343384, -0.20472800731658936, 0.2138068526983261, -0.09756834805011749, -0.19442206621170044, 0.09619056433439255, -0.08199601620435715, -0.11952972412109375, -0.007485564332455397, -0.11971034109592438, -0.0760771706700325, 0.18968632817268372, 0.04479047656059265, 0.016864962875843048, -0.03664598613977432, -0.11980322003364563, -0.06510564684867859, -0.1667955368757248, -0.007878185249865055, 0.028296679258346558, -0.21373078227043152, 0.04212440177798271, 0.01848980039358139, -0.2457420527935028, -0.1263643205165863, 0.009272979572415352, -0.0735231265425682, -0.07379665970802307, -0.09104488790035248, 0.2003251612186432, -0.28844043612480164, 0.13494455814361572, -0.00985502265393734, 0.11631041765213013, 0.06442569941282272, -0.23546569049358368, 0.12830308079719543, 0.2728181481361389, 0.05124792829155922, -0.18184144794940948, -0.15460875630378723, -0.0669921264052391, 0.139552041888237, 0.09188827872276306, -0.04909048229455948, 0.10688071697950363, -0.03446163982152939, 0.004449917934834957, -0.17754268646240234, -0.2150338590145111, -0.34737056493759155, -0.02826126664876938, 0.1596493273973465, -0.08096417039632797, -0.03247873857617378, -0.11223560571670532, -0.2696657180786133, 0.18532568216323853, 0.15889981389045715, -0.14830192923545837, 0.053216878324747086, -0.09179949015378952, 0.009227985516190529, -0.011135267093777657, 0.12379246205091476, 0.017466632649302483, -0.0986095666885376, -0.09782126545906067, 0.11558189988136292, 0.18155930936336517, -0.19983907043933868, 0.030226370319724083, 0.21975843608379364, 0.08697891235351562, -0.17230238020420074, 0.1804758459329605, -0.0191111471503973, -0.07510672509670258, -0.18281690776348114, 0.019916709512472153, -0.031006276607513428, -0.164725661277771, -0.10174478590488434, -0.17496733367443085, 0.17775145173072815, -0.24145275354385376, -0.058804597705602646, 0.22551649808883667, 0.05833064392209053, 0.048240698873996735, 0.23634643852710724, 0.0837453305721283, -0.29250723123550415, -0.09632422029972076, 0.03880656138062477, -0.10587435960769653, -0.07803376019001007, -0.01968039758503437, 0.11828083544969559, 0.05689249187707901, -0.0235271155834198, -0.14801940321922302, 0.04885423183441162, -0.1240793913602829, -0.12724009156227112, 0.11098259687423706, 0.2318151593208313, 0.17567001283168793, -0.16767387092113495, -0.15609745681285858, 0.07101990282535553, -0.053729064762592316, -0.07851040363311768, -0.18099434673786163, -0.22087667882442474, 0.2874797284603119, -0.20982499420642853, 0.03806525096297264, 0.13933180272579193, -0.12356816977262497, -0.031292300671339035, -0.0024926529731601477, -0.18076767027378082, 0.13816192746162415, -0.29272764921188354, 0.2590784728527069, 0.22998268902301788, -0.19870702922344208, 0.03555944934487343, -0.1902409940958023, -0.0007127224234864116, 0.15635362267494202, 0.07381873577833176, 0.026022786274552345, -0.09420068562030792, -0.11700771003961563, 0.13463446497917175, -0.09177927672863007, -0.22690019011497498, 0.015787839889526367, -0.291280597448349, -0.14738088846206665, -0.16971832513809204, -0.15865078568458557, 0.08714619278907776, -0.17864152789115906, 0.015717890113592148, 0.1989343762397766, 0.12296877801418304, 0.0640411525964737, 0.11395933479070663, -0.03883736953139305, -0.306255042552948, -0.030603015795350075, 0.04822182655334473, 0.0372413769364357, -0.07261338084936142, 0.17990508675575256, 0.10167460143566132, -0.21102532744407654, 0.21631784737110138, 0.10568717867136002, -0.06740403920412064, -0.005620860029011965, 0.21232539415359497, 0.1935267448425293, -0.03168656677007675, -0.15493488311767578, -0.025727493688464165, 0.07761772722005844, -0.06078111007809639, 0.2128327637910843, 0.17744429409503937, -0.050826117396354675, -0.2602096199989319, -0.01759469509124756, 0.11314012855291367, -0.13330744206905365, -0.01755409687757492, -0.16269676387310028, -0.21893936395645142, -0.05812271684408188, -0.24650965631008148, -0.22661185264587402, -0.3988252282142639, -0.285239040851593, -0.05325433984398842, -0.10441077500581741, -0.0008827841375023127, 0.09197206050157547, 0.025834418833255768, -0.09890401363372803, 0.1331881433725357, -0.09532945603132248, -0.29258403182029724, -0.07590559124946594, 0.08714231103658676, -0.1761840134859085, 0.07827654480934143, -0.11399087309837341, 0.10474345088005066, 0.08788274973630905, -0.04921526834368706, 0.09008992463350296, -0.13928166031837463, 0.11370069533586502, 0.10775426775217056, 0.0266245286911726, -0.31573039293289185, 0.014975063502788544, 0.03934207558631897, 0.22883732616901398, 0.11279018968343735, 0.13942842185497284, 0.1642817258834839, 0.021009253337979317, 0.15139085054397583, -0.1501181423664093, -0.13157427310943604, 0.0035545765422284603, -0.27283382415771484, -0.23619811236858368, 0.10735386610031128, -0.22164380550384521, -0.3116202652454376, 0.11157335340976715, -0.18883608281612396, -0.16529349982738495, -0.10613027215003967, 0.027750808745622635, 0.07103940099477768, -0.17951275408267975, -0.23105578124523163, -0.24922846257686615, -0.2296983301639557, -0.11531522870063782, -0.0494224950671196, 0.00990290753543377, 0.05731918662786484, 0.0725715309381485, -0.19044499099254608, -0.08503707498311996, -0.08954457193613052, -0.03688820078969002, 0.21341146528720856, -0.019771654158830643, -0.1918916553258896, 0.05579753220081329, 0.1648193895816803, 0.01665637455880642, -0.2516573369503021, -0.10679122060537338, 0.12745226919651031, 0.12742604315280914, 0.10225066542625427, -0.1091151311993599, -0.0886809453368187, -0.12628786265850067, 0.07458680123090744, 0.0352480448782444, 0.06628991663455963, -0.21193598210811615, -0.2573261559009552, -0.1827661246061325, -0.03917931392788887, 0.0024986877106130123, -0.06306237727403641, 0.01896778680384159, 0.09874293953180313, -0.12831918895244598, -0.0661577582359314, 0.09223917126655579, -0.1965813785791397, -0.17087548971176147, 0.0466841384768486, -0.009669069200754166, -0.011324809864163399, -0.2046869397163391, -0.16171258687973022, -0.06882323324680328, -0.043785300105810165, 0.039939869195222855, -0.0821055993437767, -0.079807348549366, -0.08554716408252716, -0.06841262429952621, -0.045052964240312576, -0.08352120220661163, 0.01576245203614235, -0.07555831968784332, -0.022473162040114403, 0.013026021420955658, -0.11238110065460205, 0.12786541879177094, -0.07086643576622009, -0.17023108899593353, -0.06424927711486816, -0.061112869530916214, -0.08384477347135544, -0.03701690211892128, -0.21250464022159576, -0.12771905958652496, -0.03530271723866463, 0.07896998524665833, -0.058597415685653687, 0.08477559685707092, -0.20202484726905823, 0.20473681390285492, -0.08665399253368378, -0.010121229104697704, 0.010592557489871979, -0.01995149627327919, -0.14673984050750732, 0.10209275782108307, -0.12051523476839066, -0.14554890990257263, -0.16092929244041443, 0.12301834672689438, 0.08174551278352737, -0.07687819749116898, -0.22960953414440155, -0.00132703164126724, 0.027519570663571358, -0.1598435342311859, -0.02187778800725937, 0.028787609189748764, -0.008340331725776196, 0.005404438357800245, 0.04783914238214493, -0.01796714775264263, -0.14371491968631744, -0.008193341083824635, 0.13614070415496826, -0.0986538901925087, -0.15105825662612915, -0.14391262829303741, -0.07044582813978195, 0.025897102430462837, 0.04748272895812988, 0.045802805572748184, 0.13242647051811218, -0.061017729341983795, -0.1501770317554474, -0.017969578504562378, -0.09858815371990204, -0.10486593842506409, -0.15284669399261475, -0.07647731900215149, -0.1211574524641037, -0.023699216544628143, -0.09614290297031403, -0.04328200966119766, 0.09556511044502258, -0.08745703846216202, 0.011368999257683754, -0.1667444258928299, 0.01812678575515747, 0.059053026139736176, 0.10013356059789658, 0.12449333816766739, -0.11112480610609055, -0.16228753328323364, 0.11016517132520676, -0.027853604406118393, -0.029984954744577408, 0.013106622733175755, 0.09867402911186218, -0.18370625376701355, -0.15967296063899994, 0.08837336301803589, 0.1349981278181076, -0.145330011844635, 0.11593504995107651, -0.029110852628946304, 0.11280404776334763, 0.20898064970970154, -0.060617949813604355, -0.17072346806526184, 0.007370831444859505, -0.09258991479873657, 0.08384054154157639, -0.11923255026340485, 0.0619593970477581, 0.06923379004001617, -0.11117323487997055, -0.07912848144769669, -0.1769401878118515, 0.09709233790636063, -0.06805085390806198, -0.1924544721841812, 0.026204759255051613, -0.08352239429950714, -0.05030724033713341, -0.29466837644577026, -0.14966344833374023, -0.25572216510772705, -0.15077263116836548, 0.03274505212903023, -0.1427297592163086, -0.025804471224546432, -0.13394472002983093, 0.16726286709308624, -0.16531099379062653, 0.22223304212093353, 0.08237504214048386, -0.04145756736397743, 0.1556078940629959, 0.06130973994731903, -0.06206030771136284, -0.18622170388698578, -0.05979245528578758, 0.14641617238521576, -0.002109227702021599, -0.2343605011701584, -0.21027381718158722, -0.17927785217761993, -0.08162365853786469, -0.030696826055645943, 0.06044876575469971, -0.06094680726528168, 0.19982047379016876, 0.08506707102060318, 0.12003602087497711, 0.13544248044490814, -0.2534200847148895, 0.06952334940433502, -0.07232451438903809, -0.11420316994190216, 0.051358532160520554, 0.06239379197359085, 0.06375570595264435, 0.08534760028123856, -0.03968968987464905, 0.07475878298282623, 0.18523944914340973, 0.20882192254066467, -0.26864418387413025, -0.21276891231536865, 0.00892973318696022, -0.19799552857875824, -0.0105246277526021, 0.0642564445734024, -0.2969462275505066, 0.15655909478664398, -0.006079241633415222, -0.21988891065120697, -0.07940444350242615, 0.12546303868293762, 0.12947890162467957, -0.07764289528131485, -0.020914703607559204, 0.06251032650470734, -0.07862032204866409, -0.27360445261001587, 0.006958804093301296, 0.15532471239566803, -0.11218563467264175, 0.08388904482126236, 0.14648976922035217, 0.25838980078697205, 0.11634097248315811, -0.27019521594047546, -0.14029116928577423, 0.06144726648926735, -0.19370539486408234, -0.2160836011171341, 0.2556459903717041, 0.1089099571108818, -0.12018153816461563, -0.09230739623308182, -0.10350067913532257, 0.23953816294670105, 0.41349878907203674, -0.00966681819409132, -0.25445321202278137, 0.21313214302062988, 0.3959527611732483, -0.18486998975276947, 0.11903159320354462, 0.11038824915885925, -0.1331353336572647, 0.14632853865623474, -0.09076809883117676, -0.0002776279579848051, 0.11599049717187881, -0.12987060844898224, -0.40114280581474304, 0.26529231667518616, -0.009159501641988754, -0.2686925530433655, -0.3032675087451935, 0.19652999937534332, 0.027492985129356384, 0.28835931420326233, -0.2134033590555191, 0.010507280938327312, -0.1503978818655014, 0.09303276240825653, -0.3945761024951935, -0.4953787922859192, -0.0849594846367836, 0.29656288027763367, -0.10521692782640457, 0.028915053233504295, 0.028095412999391556, 0.16625438630580902, 0.24080051481723785, 0.31502410769462585, 0.4083678722381592, 0.08540517836809158, -0.17719948291778564, -0.028632020577788353, -0.11133044958114624, 0.1092849150300026, -0.17722009122371674, -0.025689950212836266, 0.07287496328353882, -0.020928440615534782, 0.1610632836818695, 0.17842544615268707, 0.2278016358613968, -0.19071684777736664, -0.03267820179462433, 0.1752144694328308, 0.21402861177921295, -0.20595702528953552, -0.07669156789779663, -0.010870329104363918, -0.16794352233409882, -0.07410795986652374, 0.16795451939105988, -0.1953684389591217, 0.24467971920967102, 0.2455512136220932, -0.051402006298303604, -0.16517582535743713, -0.034667372703552246, 0.31130313873291016, 0.10186199098825455, -0.07729765772819519, 0.19202540814876556, -0.06270388513803482, 0.09369278699159622, 0.1637563854455948, 0.11739899963140488, -0.14274178445339203, 0.0861373022198677, -0.20879004895687103, 0.13449625670909882, -0.15032915771007538, 0.08949530124664307, -0.21499978005886078, -0.2273646742105484, 0.1609693467617035, 0.1160404235124588, -0.19355300068855286, -0.15887059271335602, 0.15598063170909882, -0.020756961777806282, -0.34099194407463074, 0.1580355167388916, -0.04929198697209358, -0.047044847160577774, -0.06847966462373734, 0.04583420976996422, -0.04000263661146164, -0.27176132798194885, -0.14215195178985596, -0.13179776072502136, -0.18398714065551758, -0.2561534345149994, 0.06963327527046204, 0.07628835737705231, -0.0877760797739029, 0.14025546610355377, -0.18674583733081818, 0.021621158346533775, -0.00027964351465925574, 0.12517942488193512, 0.17615041136741638, -0.07822129875421524, -0.0001728705974528566, -0.14616981148719788, 0.1543140560388565, -0.10923624038696289, -0.07810083776712418, -0.04819515347480774, -0.09929991513490677, -0.06367887556552887, -0.23931197822093964, -0.11327536404132843, -0.0832756906747818, -0.24477243423461914, 0.1783447414636612, 0.2595193684101105, 0.26284554600715637, -0.07353715598583221, -0.23817142844200134, -0.0481504425406456, 0.1581886261701584, -0.3173741102218628, -0.21158358454704285, -0.26382824778556824, 0.016715360805392265, 0.029485633596777916, -0.1644996553659439, 0.13759741187095642, -0.22726568579673767, -0.1604502648115158, -0.1347627341747284, 0.09994561225175858, -0.22633670270442963, -0.04731807857751846, -0.019003866240382195, 0.16460756957530975, 0.031045643612742424, -0.05663140490651131, 0.16766929626464844, 0.17566655576229095, -0.008603139780461788, 0.00408058101311326, 0.05710265412926674, 0.07832988351583481, 0.01546634640544653, -0.21479900181293488, 0.14289002120494843, 0.1901312619447708, 0.04979792609810829, -0.0802045464515686, -0.19725258648395538, -0.00858350470662117, 0.15539231896400452, 0.23534278571605682, -0.32131972908973694, 0.21041004359722137, 0.029790125787258148, 0.0914677232503891, 0.06054328382015228, 0.020185427740216255, -0.24424685537815094, -0.19115158915519714, -0.1945086568593979, -0.07105245441198349, -0.1760801076889038, 0.08080483227968216, 0.08794622123241425, -0.2948073446750641, 0.20332765579223633, -0.2635206878185272, 0.06980069726705551, -0.12985484302043915, -0.1769474595785141, 0.07980436086654663, -0.1465752124786377, -0.16929514706134796, -0.0965040773153305, 0.15633158385753632, 0.2255130410194397, -0.026611976325511932, 0.08465214818716049, -0.21856102347373962, -0.1230723112821579, -0.1540183275938034, 0.10275095701217651, 0.1618814468383789, 0.005870216991752386, -0.07614467293024063, -0.15825721621513367, 0.2591327726840973, -0.07566755264997482, -0.23786139488220215, -0.09616600722074509, -0.030412590131163597, -0.04294265806674957, -0.1046052947640419, -0.05704622343182564, -0.1641838252544403, 0.03448236361145973, -0.10674247145652771, 0.1858549863100052, -0.17891086637973785, -0.2679577171802521, 0.12018787115812302, -0.22354736924171448, 0.05491988733410835, 0.040793150663375854, -0.10061044991016388, -0.1756521314382553, -0.16890117526054382, -0.28851601481437683, 0.115803062915802, -0.009128729812800884, 0.1662793755531311, -0.11461643129587173, 0.03449997305870056, 0.10869276523590088, 0.040153760462999344, -0.20863565802574158, 0.1138971671462059, -0.008009025827050209, -0.13293065130710602, -0.00012146586232120171, -0.046914052218198776, -0.14706926047801971, -0.018449440598487854, 0.07686654478311539, 0.09667779505252838, 0.15000872313976288, -0.15467742085456848, -0.2946208417415619, -0.13425511121749878, -0.20531906187534332, 0.14796079695224762, -0.09742486476898193, 0.05990824103355408, 0.018500396981835365, -0.05571635439991951, 0.018946822732686996, -0.1340644806623459, 0.1451648324728012, -0.0355667807161808, -0.035429179668426514, 0.2256232649087906, -0.2064708024263382, -0.2563088834285736, 0.06519395858049393, -0.18229496479034424, -0.21128401160240173, -0.022721275687217712, 0.17561671137809753, 0.17431670427322388, -0.08994746208190918, -0.041237421333789825, -0.0868905782699585, -0.02751498855650425, -0.08101984113454819, -0.12128359824419022, 0.038743797689676285, -0.22219319641590118, 0.14745953679084778, 0.1511450707912445, -0.002806884003803134, 